{"inputs": 784, "outputs": 10, "learning_rate": 0.5, "model_compiled": true, "layers": [{"neurons": 16, "inputs": 784, "weights": [[0.37173131810943205, 0.9867937866551235, 0.938650307384261, 0.16623174420502418, 0.29534167747195383, 0.5987861878052246, 0.20724073893849482, 0.13175700226426412, 0.9869021234450065, 0.9424882737264512, 0.30106239825157277, 0.513844156893683, 0.4415302817601454, 0.32565254826849543, 0.4319658838042413, 0.2438819955657524, 0.8341591776423888, 0.9696762734125147, 0.8433529470740502, 0.36544286100572176, 0.6704009582696193, 0.9454667940074095, 0.39774468471729874, 0.7036247823970296, 0.01176105525470994, 0.7134509835815661, 0.5845351033820048, 0.9970401147481772, 0.8298761019334593, 0.43659433599418485, 0.2682665790947274, 0.7051130793838173, 0.08269897086219258, 0.27411439229691914, 0.2565677068515342, 0.5573297929175183, 0.7441196469286442, -166.58172790385674, -200.01810541618053, 0.5751028121386275, 0.5630796425993986, -0.3985009586053184, -6.4555485058632, -2.68323701748371, 0.7563796091689398, 0.676241269855233, 0.6262666106264456, 0.7688388915513505, 0.3396543390082245, 0.5267096235934664, 0.0904601688899348, 0.8727892280068064, 0.8180252366649485, 0.25849236854638613, 0.638436126180115, 0.31240150523533194, 0.08021439961571908, 0.5458816530730415, 0.12149883029556074, 0.837211992296972, 0.5062700463751841, 0.5619459400578839, 0.5785022816121309, 0.18511013986647973, 0.673128124582963, -273.17816480284137, -309.6886591317492, -46.14034257652356, -299.52018771952874, -63.191844767520145, 109.32779672941784, -222.30150559245968, -157.65453194341003, 21.694066310939558, -4.7726940897755155, -4.751655532132536, 3.9890405417657524, 97.42406243273331, 87.07983250687364, 46.16914769459953, 0.3437646953858736, 0.2079478466799356, 0.9682401791999298, 0.8472362530778426, 0.17199535220747342, 0.5772082773226875, 0.9173855492344236, 0.6587161899385255, 0.39705143488720884, 0.089241949096042, -498.14255033377435, -373.9013092049394, 46.54871417325427, 99.17720865858908, 441.83446286159005, 1088.4334895562502, 1679.7756861300222, 1844.2998672439905, 542.1032522180346, 910.7994011700864, 1228.325708107084, 2940.2666595727446, 2992.6199251586086, 1910.632275908368, 959.7634723901792, 333.49391999689124, -118.27567658406781, -391.62621345800915, -181.0102940148022, -54.72404791395156, 0.042568734984740564, 0.27939469492563307, 0.46170665400101496, 0.9373411719816568, 0.1508691290500389, 0.937655389631131, 0.20811820358566369, 0.6082603132669163, -567.2251319921739, -459.61219338604496, 150.58115571142267, 495.30597930162605, 1660.9547770465897, 2150.6188958218777, 2404.2576435777264, 1696.1641930676947, 406.30372254754167, 852.1945709122926, -2486.631603618648, -2720.5075236208904, -181.99963446423607, 2422.9414352665694, 1945.7515104268641, 513.2906278428969, -66.44906674676913, -592.8058399444193, -737.7028508706976, -504.28820893305175, 0.3218372098014145, 0.1856046829971052, 0.5246425076260502, 0.2367838241857413, 0.28395371335844133, 0.7974922491927939, -131.3721269743377, -268.48606672796575, -2364.9859826616203, -2624.334721671747, -3.906335601877914, 11.00900646425569, -918.864040521364, -2547.3874035047493, -1246.6693715872336, -2236.1735510003614, -2325.42331253357, -4048.0115115039557, -7075.167275343942, -9211.707433722451, -8280.975475038407, -7523.56201109908, -5935.273238941136, -2116.6451017629556, -829.2143421000573, -559.2498220639574, -83.71283636653048, -703.3056420590673, 0.644381054236263, 0.04857105035930076, 0.4504339629289972, 0.4754754382301024, 0.10294524812915395, -132.35062979306622, -476.4483938084479, -1222.998226963939, -2574.373589201494, -1859.045369531321, 3157.262883855828, 2774.9178772714204, -881.7161469456701, -2595.745906952378, 813.636033068951, 3041.3937710572195, 792.2126347879098, 269.07007572914716, -1207.2976539421886, -1744.222677123262, -4153.412744694568, -4724.450627361636, -6155.769180811316, -1030.6153278135278, -4233.221186644911, -3522.6438683428823, -1073.8983057731584, -303.74108492264475, 0.5103053855208347, 0.4685786210977836, 0.8816710557648297, 0.035601364187417106, 0.4837335587509727, -391.49654368214175, -703.1413781432756, 1806.206524389986, 1368.3077553022006, 952.5013612525462, 805.9104608589704, 3449.60497409635, 4635.5514043925805, 1005.2240253792334, -2357.7341119220887, -1233.126728744876, 3822.9154073132668, 3821.5796471208073, 5240.52391924466, 4213.929210011269, 2386.4108831625244, 444.45397733454064, -1515.734658262275, -5298.149330444097, -7802.6951446872035, -4086.187296273412, -2147.9275674751443, -545.9232404622578, 0.9887875199484283, 0.13557582618940767, 0.24724954652961806, 0.9054350891466101, 0.1023566157335345, -276.1186220641795, -243.3711394659007, 2660.7982216045507, 745.8884186913449, -2366.4005489352794, -3465.1064747057585, -2091.5694461841285, 661.6565199852647, 307.38504085620656, -1199.2277489204582, 796.1167358416515, 5231.726973032319, 5735.607248153764, 7773.68970180259, 9719.199077920119, 4307.247333572184, 306.4531521511031, 1351.3259982149514, -2451.1285485466706, -7598.261513419801, -3579.926870623323, 92.29514908865266, 55.32734739177183, 10.835509616110725, 0.08578419800138626, 0.6444863757978675, 0.36235477036211505, 0.3219466558474845, 9.110248037495412, -347.75459827022235, 517.5723646262331, -3002.737755743724, -6873.887546968919, -3466.1817168896123, 1059.986781989603, 332.9487068755426, 2557.5626250488945, 2055.9625246717, 3902.707407215104, 4613.072413536968, 5348.344923782395, 3166.1717649964044, 1068.0745821922437, 2043.1915017021067, 482.18139072009785, 1152.05936284958, -2600.1177221630237, -5197.873419193137, -1238.0103073939222, 876.1827001723167, 1014.8700627058873, 394.82269930818916, 360.24014061758436, 0.6040291565388088, 77.95875804868176, 119.24812663695239, 217.39981905406518, 2000.9205311389271, 1652.2412623476757, -4046.2834880649884, -8647.67082164334, -286.2749795362152, 5330.418484998827, 1186.7885485241688, 603.7854587151091, -1068.8927211416087, 306.75933122535866, -4109.819010247838, 4875.477723258989, 3357.985523175791, 4413.704814440746, 5348.31107253418, 2347.210480349337, -2592.826795494205, -5780.133684738992, -3806.9345063989786, -3813.8848308156116, -737.4325072496122, -225.41496840165354, 151.9369428122593, 152.075152163977, 0.5281958740116117, 176.56893719701773, 175.91881162176023, 940.2932772078568, 2952.461443826271, 1173.004649838758, -3467.686601508668, -4185.34255354614, -1465.9059093978094, 2145.812934073344, -779.4187281570026, -3143.9280803811353, -3908.188058017708, -3599.328599748128, -3380.6187485754836, 3512.872380860172, 4609.377266477575, 3826.0266640784953, 5336.521481636474, -525.6169466916108, -4947.806969467035, -4187.187083198991, -4114.6297453834295, -4371.188151039598, -1659.96431321245, -46.14560751680693, 0.7281419463186676, 0.7794972046427835, 0.48256599060283667, 108.72195649399774, 107.81017237687222, 820.5467355676111, 2755.6877062586223, 1234.737402196357, -2754.203159934039, -3339.2018166776875, -1638.779451111971, 160.3216976733809, -8233.476681776372, -11913.428719535108, -8380.907940304829, -6002.822511969425, -3398.469865944402, 649.4317686850777, -1016.121306535656, 2330.502225764352, 4896.973315689117, 1110.387818908322, 414.58429085335905, -1730.772489293811, -6999.711115614983, -4816.145823516505, -1302.8382335857077, 48.112319241936305, 98.56806907642982, 0.42522004784502543, 0.18444189304799374, 0.20036656648138562, 0.4301459332952732, 665.9524963679161, 2257.364997274419, 871.3804340146867, 1220.9831048701797, -2514.262347018366, 2935.699683399112, 469.77705755351576, -7038.402163836914, -9279.799666995852, -3076.867702229365, 246.63332783169443, 2376.9017162208934, 990.4761297027757, -413.3335340334164, 1583.3994106895761, 3405.8195789385177, 873.0692472051517, 2744.354171822207, -2623.701608424313, -3865.681053924825, -3048.4087800121492, 779.0931272920927, 1370.5966912556828, 914.1835440939693, 0.8542259121568753, 0.1848917284903311, 0.5998552101126997, 0.8760165166652717, -74.12181347639027, 833.5195777374676, 105.97458549422956, 2261.857260049652, -1798.5443470508892, 1372.4177386825875, -449.47204653404685, -3509.7332936384782, -2447.755733617211, -2529.151810544475, -1521.3278089136188, 1099.5145808319166, 2683.370684981906, 1997.9157523528631, 3758.425548506629, 5723.281522966067, 488.80547549836433, 2998.312293301099, -23.049369142544638, -2852.811180220406, -2027.5984531943718, 1065.335041123629, 2038.730889227562, 432.06779783207145, 0.32293081767828824, 0.6904007034680434, 0.3138014820861824, 0.32692211047703945, -974.7079986555739, -1124.969630560973, -410.36930870096154, 2894.4543149359415, -3657.235649924487, -4607.087549377705, -3614.736819460461, -2548.8552749923406, -3355.218652937896, -6139.719265248541, -2937.1519594408137, -59.30100468384926, 2870.7722859857768, 3940.302662819386, 10147.720430251524, 7776.904857857773, -102.3152195410337, 1392.1465497056997, -302.8624284404556, -4204.757147450217, -2850.8589687414283, -618.0880819633988, 157.42997386203103, 680.6876835321823, 463.0666896199127, 0.6151330343845581, 0.670806547624276, 0.5098278410211191, -1032.0077838980108, -2006.891219163865, 198.1356988174261, 1538.084957832485, -2207.770532886602, -724.7419290190409, 328.38012322683437, -3503.817599866002, -7216.646075405236, -7251.2801826489085, -1732.18324044414, 2296.268735672001, -1943.8877919233812, 3285.0766068682324, 7306.583793722595, 3127.45862277493, 605.1719186769013, -3947.3912743231417, -3617.416444682629, -1557.368040308256, 618.857773562706, 1887.6266812708313, 2222.816160606664, 2156.4574395400864, 1239.7082817715561, 0.11105148660330755, 0.9935624260500722, 0.6408355491185596, -15.18568569991563, -805.9097706462089, -1962.3488480728759, -58.740372736797205, -745.4310920950362, 899.3176286629619, -786.0663369766544, -4138.824608254922, -6268.295041416601, -5186.538774216115, -56.171426376739994, 2349.5954268634223, 3700.8582374309995, 5727.312248339404, -1214.9294649011786, 1716.5056771344455, -508.32026737065706, -4838.718727495481, -2777.477317585518, 1831.1990482039557, 2287.2874558369663, 1674.9707197612909, 994.8949910769292, 192.34212777386378, 23.28296323829348, 0.041785819815815084, 0.9920855336976976, 0.516361005250452, 329.11023375670646, 621.4206849374772, -927.1088491049904, -675.4907840137024, -3045.558327256205, -2548.611569316604, -4198.201553850488, -8096.849758858457, -7202.539366822297, -1876.509036903604, 4528.162540485359, 4776.14963399714, 5884.3584958046085, 1188.1119949015997, -4221.949928315858, -529.7270338771445, -3252.6038066261845, -7764.846025736849, -4210.104853672761, -859.5253101481302, -240.49310414892452, 514.4974999657287, 289.8403990472145, 138.44261032550267, 10.406264910656324, 0.8835267185032619, 0.4466670835112999, 80.57153685611547, 727.534333345317, 773.7730756781204, 1447.6777747640822, 2460.2516660206443, -1495.759656220427, -2232.97399926033, -3035.1456275209857, -4440.524670176759, -378.4607062780682, 3659.240859326692, 5135.730143084085, -23.00316516311613, 382.3854838252076, -3839.585518778275, -9913.189713360065, -3466.283313608196, -3932.6590663320253, -5706.818250029493, -4005.7465199636117, -1557.8373177051442, -1167.4051941835846, 220.84367601522777, 101.13935803976968, 27.438714352924162, 0.5643838042727896, 0.39462482063959003, 0.8919913877492527, 235.75226140458574, 810.2811135387982, 1056.9960182480804, 576.3285972679136, 625.5451636385579, -1803.7994816867283, 134.7025821250916, -1919.412485699833, -2317.022134584315, 2203.5914999070633, 3175.8798324292834, 2974.6650322955657, -5982.048897579552, -3693.907431783543, -3880.950689135103, -975.2963128521849, -11.921954378280372, -43.970253861858446, -3237.1731645761943, -1849.2665051004828, -492.9361455872184, -341.51193562254974, -48.41000873612344, 58.96548112332774, 0.6343269399116552, 0.372691063150266, 0.34040235764060955, 0.7967369872846883, 704.5070337063461, 118.90984829966041, 315.44538575254285, -1360.9056423061675, -2732.068858163176, -1465.3783609885854, 1020.0810970684429, 588.4249014420948, -1368.4822864453604, -1252.0604680257943, 2617.1719782226087, -2970.427771554061, -6559.283332224906, -2690.282047461117, 1767.6823524058655, 5339.394650634425, 4153.0070194498285, 1328.5556465092664, -1979.867081562378, -601.5516049527234, -485.2402914727506, 555.8972701188704, 353.7628545054424, 169.51052002784695, 0.06555126086129104, 0.17360220645214042, 0.9139198809949092, 0.6571568148805059, 702.3754633701942, -69.13841310935607, -111.03133198502252, -2207.621157379056, -6297.8319233798275, -4661.272489117704, -785.326098897259, 936.3131934298649, -958.2841290387148, -4762.863614216874, -5656.854859547591, -10101.675713371918, -6305.156208658012, -3091.8785266500026, 1939.0919899614269, 387.18478699711727, 1891.380726761482, -622.7309676311709, -2322.075110058036, -2445.5824923767823, -320.68969554063426, 185.75245649549626, 250.27782102081898, 123.21366919979798, 0.5336433772269379, 0.9338842874616048, 0.34166439893189926, 0.9237399708289479, 0.6578647696826728, -127.8607520790008, -1094.696273906281, -2412.45656740975, -5934.098221834145, -8623.230733778715, -6418.914804843227, -2999.190826936538, -614.6804567422275, -3759.695872363918, -7410.78417180391, -9366.178456857828, -9090.598332302536, -3997.6470731155714, -641.9211450181028, 470.76293515058387, -1488.4642996517427, -3028.2964062907276, -2335.0288698867453, -895.943272747807, -182.09493161805972, 22.801744608689194, 16.099113617528133, 3.641427239566371, 0.724930928824173, 0.9637380292148496, 0.6938284635618925, 0.3855412545756619, 0.030557735044968837, -299.5718888271343, -337.78083751896656, -395.39389365943555, -347.5801488542899, -3285.815093505833, -214.89625857879588, 1498.8152719814318, 1200.7000101002895, 2634.5156243111564, 1494.747737236983, -1940.7787199364952, -6249.766092783325, -1087.2338451633375, -588.0708901993527, -422.34523528530923, 360.8260963772701, -1952.111089524912, -846.5139067372222, -220.70651054350236, 194.91811433961288, 0.9235016188552091, 0.8658036260773184, 0.7734174791275717, 0.08166213660978061, 0.1173796560664302, 0.1876128315764578, 0.4079511602857927, 0.0735018097934137, 0.5503248956706734, 0.9919054760019758, 746.8195841922911, 1982.843673074142, 1961.5683957710744, 5602.2479929797955, 5710.364419255067, 1519.2975671900383, -2119.938955791341, 1786.7076069785214, 3147.683332361316, 3211.4440054360016, 6526.366118155361, 4299.119499357351, 2967.3738926797605, 2736.923752788508, 1089.2992551685443, 432.45201799606394, 69.9425226193203, 219.86317496406303, 0.14308796166508486, 0.12550240551622427, 0.896512034919978, 0.6279266123585856, 0.904227695935906, 0.25245359525070643, 0.3761602129609628, 0.5165402622508598, 0.9433233654072101, 0.6190996589721305, 0.06786187026815615, 0.8296339057171934, -17.622732395928924, 322.9081558390392, 2277.810908703723, 1513.4780865026084, 739.95045544412, -1227.371975599383, 501.2099556321057, 1655.8947872294166, 2604.3165165023993, 1346.024350456124, 2111.876144362607, 1772.9451737560255, 791.646895118171, 590.7994083866123, 0.07738080698216265, 0.14107194487703634, 0.7285803380557352, 0.22162821823262058, 0.27812527985402424, 0.4426961886287081, 0.1698366847375783, 0.34232250135416187, 0.44847083752877015, 0.861105648725759, 0.48787403464386336, 0.7917856539076696, 0.884136404552205, 0.7873077962280816, 5.503177503118691, 40.17426734758658, 0.16816884998154746, 0.04911919127599507, -11.465850329935373, -10.1559055227754, 227.52378980347171, 345.2203493102229, 280.21463742758675, 109.81679914274103, 35.9033164719578, 0.9811352548748582, 0.2698024988550749, 0.9627917191940251, 0.8273542183316887, 0.2750288364906204, 0.1888337094901208, 0.2699507166479148, 0.5562857516456127, 0.6915070470767558, 0.6017895447986028], [0.056859554603534423, 0.8141728490435652, 0.5867199107544061, 0.15628139639592797, 0.628651426375004, 0.9565306148187567, 0.9013239701066941, 0.6089727483336753, 0.028108759223336888, 0.3463657996301802, 0.5056367251457466, 0.0035374895593316413, 0.2118761376777908, 0.14661114146573695, 0.09550984167214005, 0.7985169624848547, 0.6574328677946317, 0.827685434680136, 0.964590681414261, 0.8210658783414629, 0.2820755918447999, 0.5375596056167283, 0.22862827812251274, 0.13260768653479948, 0.8141479288113934, 0.31572887491197765, 0.4200706354722934, 0.5175231671907689, 0.3768327899383277, 0.8360278266639564, 0.6390645362950136, 0.23675533248770342, 0.4717236740924927, 0.5070847188152231, 0.6448404236937285, 0.9038698854662727, 0.14720766200148216, -207.5337661033075, -249.17132539968983, 0.7270956600903833, 0.3355982775718752, -7.377006166654822, -111.53051614344234, -50.930419739528205, 0.9555504959604009, 0.936228893932921, 0.5523772106431885, 0.9040726467743511, 0.8020582348900157, 0.3173144015761483, 0.5171483041320369, 0.2459547035964179, 0.17852322352053984, 0.8755194073400306, 0.9661449863870825, 0.14218988445780967, 0.6506790120454305, 0.7224519916321378, 0.5531350453543592, 0.8684890357499951, 0.780681506774843, 0.6856005638832464, 0.9065059040207362, 0.09238893588168162, 0.08856958035332174, -341.6382216416157, -58.74164229189926, -99.90168864152504, -913.2480537567097, -388.6013432066097, -194.88045381734648, -618.5713654898987, -352.5163281076444, -28.294813583941476, -157.22648587780859, -312.6562367868607, -463.5928527035012, -217.76727809736093, -338.74450503168384, -213.62413201897454, 0.48852337352743824, 0.09678390931580283, 0.32394566911588096, 0.5282084576434346, 0.024124910635422214, 0.4652209528529704, 0.6765561840824476, 0.25915817382457473, 0.6140490514070693, 0.10365394037691789, -451.26357712878877, -338.4214926267511, 127.8375229980723, 425.61609799781854, 63.364203914291934, -123.27468284457134, -778.3621528761628, -1178.1604323256654, -2053.7475453424863, -887.8699791989803, -256.16179184797886, 697.4809927183065, -547.4765508271088, -902.9539270312102, -847.6122862013012, -657.1292230537553, -446.8165619657048, -336.5903085714739, -160.0594396602316, -48.62030799483729, 0.6947584537425099, 0.24246170107226772, 0.6243576428468128, 0.8378669618039261, 0.597562974888966, 0.016091438223261534, 0.14838612092220937, 0.3962698310629871, -513.7883692248276, -422.1569112420647, 224.14786410059287, 481.1764891752514, 330.26332238490073, -1081.0054966734647, -3600.880081548092, -6331.366218053509, -4223.995439042569, -55.262517000751174, 2043.0846925935107, 1802.5119942995218, 3197.6877282069654, 1144.3807613110039, 826.9470803154304, -852.4978881429478, -398.84600533870076, -354.56572006739833, -663.167149225153, -448.4961123361359, 0.8114362382466509, 0.16337319031504105, 0.48952776596598824, 0.8416966155742159, 0.6332955039349134, 0.7505373946479129, -1.2800954243104776, -9.077086695405638, -810.1158164891841, -721.6265534403842, 1023.3355335522492, 1195.9442302542511, 359.4516901635054, -1119.9744637780818, -670.7370225687565, 134.40463317345683, 1960.114284759451, 2721.2230313006066, 1688.4380485985491, -2049.9820111759886, -108.08474168330874, 3686.907900551867, 1515.970121378763, 1394.2866354909675, 1645.8564920066271, 301.91206660612, -128.51915964338116, -298.67116273937063, 0.1703951745081831, 0.9559972004743094, 0.11872451631804859, 0.7702603413407222, 0.34461060946575595, -13.756005110073868, -428.572067181721, -125.97441679959445, -1278.7503990809407, -3312.206202766486, -3555.4814840810736, -4149.761448878842, -5151.448879136382, -3205.5795781472475, 413.73791378730493, 3391.3084620629165, 6438.039514425695, 9032.569980333, 8986.502347732065, 6352.951550739213, 1645.3294837050335, 4926.521436706096, 5084.461662726225, 3985.226972928939, 3805.7454576970285, 2870.61033133726, 1761.2125879685766, 346.95534458306196, 0.4488884982242244, 0.2830913342247874, 0.8234317256555974, 0.614575065594572, 0.6048395887556366, -21.69284906452721, -370.09430885038716, -1663.463109931766, -3175.9313863566335, -3391.038177664761, -2870.2927175494365, -302.3074800279857, 120.26520156482361, 1676.0210149436787, 1993.5031866905215, 704.9842949419879, 6304.260837936474, 10486.193965786246, 5530.946792663652, 2604.106523164608, -878.9212231712522, 185.78669727596474, 1434.2679839515747, -567.948300335105, 2473.8999979789132, 2302.3830813101595, 150.90070090109606, -210.61033357964942, 0.9365896138339765, 0.35055825408225527, 0.3780375540827793, 0.7564478882077263, 0.6612472080691791, 5.337768311567033, -108.76383830636804, -1367.0702744472799, -1810.6951562396152, 1228.8439160443133, 28.749129316650517, -263.18669948612, 1552.9999241871235, 1874.4330485182377, -1233.5982668008598, -1424.662554680623, 2050.106518356328, -18.740760678862298, -1754.6742074436793, -5308.655047267017, -3584.2968465279932, -5610.130954613477, -5397.987192248908, -1984.2703415969959, 909.6294669298569, 1319.236549841916, -998.3125622504091, -547.4186615269991, 9.623562569749824, 0.74521056460016, 0.8697641133181098, 0.5663135238048197, 0.9364579389871068, -3.5640401486503666, -32.80521697125915, -318.89110601941223, 1495.0947627423498, 1791.1436463157831, 1350.4930472155172, 1019.7016688441595, 5242.536813332654, -44.14502295550747, -3423.294978240503, -2742.5082652884385, 603.1359296418703, -1082.8292967440545, -5544.944037071961, -8312.7527949343, -5508.92427078849, -5765.882155335331, -4038.9085408362107, -743.3407846558674, 2631.9969517614527, 1080.1941974630088, -1563.0820680777433, -699.7136025728689, 149.07375605818393, 119.93025723319614, 0.3108109133652611, -55.607362710091934, -85.81400931397386, -140.7832922448199, -1544.5091349960508, -790.2334483130466, 425.9954193932313, -877.8200687459573, 54.95169819417074, 3657.7905790061004, 4304.689091147286, -451.3285941371311, -2373.0516639473603, -2484.943293804823, -2434.5381006447005, -6134.7201796713825, -6428.097028943988, -5209.428327741943, -3620.6807346672776, -2496.6386994488, -2418.3611035160648, -1004.2154166256137, 2109.848782769692, -988.4046505246238, -1155.320012229765, -272.52326148552316, 51.260692037728646, 50.7664556937155, 0.8780043658715269, -127.65059327252844, -126.52998965180308, -1160.124828689173, -2668.562122581449, -1841.917873274306, -3401.4243317345527, -1778.4950949944748, 684.1412083228624, 4432.695457845467, 658.1884049743139, -3414.2561060169205, -2830.4690083658743, -5416.253759677494, -4415.464222898977, -2847.375849205921, -3772.8093014059546, -3461.0936985265052, -1866.6920751768678, 1613.6697566077376, 1528.9234026998136, 2748.5840878128506, 1424.3180506456747, -770.9046627736855, -165.87082743044124, -1.3592789976895663, 0.6182684379094364, 0.5360098130742171, 0.4706721739890456, -77.73501810681688, -77.82876486593572, -1141.7816873369527, -2559.163772958726, -2488.164046047388, -4067.7471175416604, -986.4165173681259, 1259.3122879306536, 4931.467688483287, 1582.6007426232577, 1027.5756757658119, -599.2200131020071, -6519.9539192520915, -4573.888204419462, -3265.8900726626616, -4905.207377555675, -2024.1717607095397, 141.4550798345702, 3304.8523832570054, 4963.2235543489305, 1549.1015305213089, -1476.913028141912, -899.0089640931567, -167.90859640452655, 192.008651773087, 397.7210763579066, 0.7656186885171281, 0.2603384162313178, 0.37259904321384607, 0.5587561930363858, -794.550142821162, -2800.0016090608665, -4639.86093221569, -3046.8872365533084, -551.7647187806003, 121.99432658153854, 4596.299990944625, 5423.051244182399, 6158.18667699124, 3522.266025193285, -1285.263519785532, -1954.1218823071256, -3027.888575227691, -905.15576861624, 5127.349701792496, 3194.0111085599515, 4585.229269159239, 6366.537267294335, 943.5111477440739, -1140.6021489404009, -801.4030046819294, 1719.5369396667297, 2393.2531836818443, 3706.453588694293, 0.1687616356620133, 0.34427915417552546, 0.07492131131599289, 0.06153517601667702, -22.61108101899409, -3374.2575629131934, -4713.461286173788, -1317.0630878982383, -3653.8363199585683, -1917.5891488941547, 3171.6280208522635, 2937.4865644236233, 4788.759777611367, 4548.915103355491, 4403.298580588625, 4099.231576148953, 5322.221833015249, 5703.665812172761, 4208.554486848836, 3369.1654217924292, 2294.824067893887, 1791.8662938983857, 1959.6487686924527, -1481.9832949493232, -1380.1492847870043, 740.9754882736225, 2587.832191767992, 1750.6713918350517, 0.39470872896327047, 0.10897111769666956, 0.06916859223302663, 0.7459563965840084, -266.0380734670682, -2194.920902837526, -791.2206892817263, 2547.8077636864746, -1083.7094469440406, -1425.7252872269057, -959.3108452154635, -1547.6800228939505, 558.0178683036363, 594.3479904431175, 3052.316812726314, 4949.277591312113, 1691.233054792093, 2416.560272527684, 1262.8005998807903, 2090.0380398077095, 2133.132846199876, -1374.240849563591, -3358.264890541318, -4825.551463108931, -5966.955152089503, -1854.1181267264267, 136.3663778827618, 589.159825203536, 400.9665399721826, 0.059603658410040894, 0.3601358931422234, 0.8093556715827053, -295.4258217708789, -755.0055573988604, 3118.7595076905336, 2748.9403909363855, 1061.6463254479504, 1350.874400587312, -1533.4160603365217, -2653.5586747869584, 2001.7401573602472, 4671.288966341362, -374.1524605008882, -3619.8968391422195, -179.67555846801918, 1634.5868690310176, 2916.0435451596077, -1616.380614641635, -3502.7894831476556, -3804.7310927598915, -3503.5779489096344, -4200.375152748069, -3934.26151345195, -109.00866094434463, 1921.3097913148754, 1865.79160685259, 1072.5237485657165, 0.45842740771685186, 0.026183673062994184, 0.579393908813847, -33.61681409297136, -889.9122825740251, 2361.1624428229984, 3034.409745761849, 2163.6833564228646, 2880.812086609304, 1305.8414467559787, -1537.2274247498515, 4495.494905053669, 3333.796156902091, -2575.3974931879975, -1928.335111135512, 1896.5161776118534, 4632.950015559319, 2249.4579916313114, -930.9866903349688, -1765.921049707226, -119.3080524475991, -323.10116913911264, 776.8417278915738, 1334.8113320983389, 3379.117862577481, 851.3238161968783, 366.58563613712647, 136.0409437454801, 0.508501729138798, 0.6792154639979401, 0.9086967791223824, -476.40191001184525, -429.1919941646863, 1430.4698921725476, 712.1150196776724, 407.8178216406649, 1743.5933361613402, 680.1895680229452, 1630.0707248806832, 1538.6557345013514, -3906.798808898808, -3755.966920332572, 172.3504764265652, 2864.829631281935, 7274.619642967082, 2834.583566264719, -1534.0979638222736, -401.64164476153326, 684.5746444366067, -184.53410090634873, 2357.8168268567943, 3354.833085122342, 3093.240927049947, 265.28107268259737, 139.4279075257417, 55.39055907128216, 0.37897091492613755, 0.13611957487569082, 66.31157112059759, -237.9905359758584, -127.9705657984561, 1439.2815949109977, 1814.432923349707, 2617.867197406578, 4896.890095267307, 7736.469563032853, 5933.425401529897, -1784.6101849614201, -3508.77245653374, 515.1221745528289, 2651.211678688547, 2005.508474630475, 2712.4291152000865, 1304.7558834986319, -5284.884863235789, -2564.64060667461, -1167.6170716161314, -216.17658315749836, 853.2811345867369, 1942.098991068336, 1661.0199765855796, 77.89881981637359, 17.870714882218568, 0.8759387487345611, 0.32533177093387866, 0.7549966871962429, 192.4565319730532, 0.2335198672730472, 68.8794530025838, 375.55179715450623, 465.75106045993755, 2110.8306718751573, 4316.5059584277105, 6847.488279854144, 3550.8199890046544, -2409.915729987571, 596.8379209817152, 2138.309592472242, 418.94346588264926, -1165.1346776138341, 2533.2578243689677, -104.64405323455713, -2249.4057588619144, -1013.1680658587586, -1038.1332554590479, -57.38496015662701, 1171.8602578145312, 1178.643228912615, 412.62441061567387, 65.96356031578983, 0.29902498238314323, 0.7650322943309118, 0.16809555714655688, 0.2890720837317253, 572.6906344832719, -44.09047724163403, -917.2414199174053, -1712.453376708348, -1309.861667170928, 923.4921488229583, -1367.8254590979477, 1677.7221839340937, 1371.3835709589694, -3018.5020084321745, 645.3772354262273, 1690.0863285318617, 1264.3000120305153, -152.8854845215135, 5872.409869639734, 4520.283947935338, 4707.142835658208, 1086.405468769521, 853.5053090414846, 1834.9303495262188, 1248.374236574648, 1117.3601666837872, 384.2648184204797, 258.82765131836976, 0.5308482246112329, 0.8667182354275986, 0.3840119516896999, 0.5230834581492488, 570.4359719426434, 62.77571578293168, -188.3939009733544, -1456.302693051747, -381.3104450169869, -15.024718814944613, -1355.4983913201932, -1255.2759887943894, 3393.5627448456266, 2233.026312459921, 5437.79243617054, 3276.051021186893, -1502.061118046307, 1896.7100198038986, 4949.68151818635, 3939.096629207045, 4450.040887302504, 1298.0052622417363, 1600.842174742453, 1270.849993101439, 967.5773742287748, 284.41046759648214, 265.10354692135536, 184.54803297816017, 0.07447443494698747, 0.9755054251342443, 0.9159138916364725, 0.33361076335613293, 0.24612914443258738, -69.25989489299089, -591.4998988863056, -643.4712976550442, -174.42343301791254, -765.600080472489, -2396.79636184299, -3345.726057124768, 1577.69423868246, 4921.504745412867, 2774.3116899116712, 638.8664489929813, -1784.381258019955, 575.493189430472, 2372.9461040636575, 4011.3318547599506, 1860.2953552841257, 380.44294763755096, 1170.9429089021442, -827.8572022083371, 115.17524061303634, -2.8737490417465, -0.5490720500327869, 1.040716248208588, 0.41552462369440923, 0.42577137073056015, 0.09277841874950743, 0.6944924489859391, 0.07743549046102527, -130.7516254801285, -147.43056624805845, -574.8677036588808, -1023.3718851856945, -2465.2027938981587, -3636.804377481171, -3355.4584054250495, -1287.7293967628991, 1426.4818801103158, 1013.4508220032684, -1081.0557641003154, -1040.4677057584242, 89.168340336756, 456.88337554380706, 1368.7635931861237, 1990.0721726325066, 1553.5056519325258, 1030.15138894383, -57.48875436497707, -267.0589227938679, 0.9286596768302393, 0.317636852591869, 0.6059599981828913, 0.4024695362792591, 0.26864239273863055, 0.30820109806666207, 0.06531447654310318, 0.6219809179271726, 0.6819987341505337, 0.8782684868093277, -951.2951987617588, -1413.8207690827203, -1409.1330599715043, -2401.34891751299, -956.6262903152785, -1304.5864789456411, -29.76109986843268, -1516.1865441856276, -1631.1605689706357, -538.7764084058014, 317.9280885511105, 680.6740805960395, -147.95524712726797, -243.22971907737698, 1194.672383443974, 987.3742643199062, 81.29368181183676, -301.21665413524147, 0.6797271285289597, 0.9056225356927505, 0.5533068783376406, 0.8286968517437353, 0.6910420114682093, 0.5864790332196567, 0.5362760635995379, 0.34439989450696495, 0.18252007321814323, 0.11248071029416618, 0.7764463057684153, 0.5550428099069897, 104.38980417382135, -138.65648539958798, -213.54462662394482, -912.7339698120004, -1008.5975469867017, -698.3269879055547, -1219.7575254160076, -441.4050761023654, -1723.431451778361, -987.3210015209982, -623.4716537439072, -150.3424165752087, 841.5316825915987, 680.6485824851886, 0.5449488022164173, 0.8880340773194328, 0.4927604367208105, 0.6398995921487616, 0.8419029138316331, 0.6411299299961104, 0.39631584695134336, 0.4435332526934014, 0.4145654517403904, 0.6465506442743386, 0.11869702895041556, 0.2843004874094305, 0.06943109053045315, 0.2413553035025633, 0.9370511051925313, 5.012080733834475, 0.26012418903245516, 0.4442383387283726, -15.523108462498168, -12.628215334028319, -115.26718676872684, -160.42664486276547, -132.1220874246854, -72.54282344375265, -25.32080886840382, 0.4375920063526283, 0.4100674258791641, 0.7362428134691559, 0.2565174649624581, 0.9449985494559964, 0.9791703738679786, 0.3574653749546127, 0.7115423694809413, 0.1259392005802643, 0.029152905098418502], [0.6334845473232379, 0.2522677682064016, 0.5694534378046207, 0.6808555182166752, 0.37123825738862437, 0.22893587985996244, 0.08177313855110402, 0.9630270032136637, 0.46614095994469484, 0.6190130520956281, 0.2166784474512864, 0.07614420732841987, 0.812813800248006, 0.039530797080708835, 0.7980241755662943, 0.6617537183602342, 0.18375399480771326, 0.5808706716219725, 0.23573366497394377, 0.6789631021378981, 0.1617545962639353, 0.36905006226594606, 0.8379361319127845, 0.2890403364747328, 0.4542092007104477, 0.30947583992392824, 0.46252387467060363, 0.4512472102995533, 0.8266803927639113, 0.35984283677065265, 0.5490705917765969, 0.9325158773593689, 0.32859377266160017, 0.5686081930132397, 0.11052793405298633, 0.8142091624586704, 0.5398440209505398, 130.00563648487852, 155.67234231430706, 0.6462015645895024, 0.33575444413074373, 1.203037101697013, 7.0048270219883575, 3.1501790910540866, 0.3060624334548767, 0.1333276830956538, 0.6439531887292258, 0.451559877631584, 0.7180176520678475, 0.9042977382917278, 0.31163585008289396, 0.8431199902451069, 0.7469585807776679, 0.002628598746762578, 0.2010419550063154, 0.471179281229849, 0.16657591663418625, 0.4499117260679094, 0.8038091612318801, 0.9654445633075693, 0.3527303692514645, 0.8159998254190797, 0.46384677436223376, 0.9132010568775666, 0.6929242333216337, 213.3080443819908, 292.5960738000914, 234.19571099417243, -224.53028052767195, -712.759175174348, -847.6323923699321, -832.7678496194384, -37.832217626495655, 12.457725541560718, 620.5244981055058, 1324.3880692080184, 1984.6070334618944, 255.42985242189965, 43.51763086637289, 17.833445537464353, 0.40401972794288266, 0.5190587524827658, 0.7833285120816498, 0.6003136542901909, 0.7075754663398653, 0.47483511307132586, 0.42555418899852304, 0.5057358960957963, 0.6973342512468144, 0.8104027027022875, 527.5267041649786, 396.0358351282538, 24.604923084790094, 461.98308712562346, 666.6356283156991, 767.795923623807, 2413.324882145766, 2412.8634158750783, 647.5432067308076, -1755.0105835539784, -568.95717829198, -2289.2577015946745, -910.8293572515128, 1632.3697363057513, 2063.099592370095, 236.53888508762552, 1025.3546214718726, 2039.70546814465, 943.7961796302081, 289.3764339418295, 0.03895938034781188, 0.3478715835245333, 0.8347786624621284, 0.31515422022425943, 0.09708414278042232, 0.9424503471737015, 0.767985621057741, 0.28979020631521335, 600.8819497386007, 450.46342176416596, -106.00703711925618, -472.08788604363104, -1497.6508424085803, -1892.9871598805871, 1441.0513949141186, 691.2579851974428, -2907.6460094384843, -3740.658712364434, 337.6421414706179, -809.7770724072197, -4397.762074780005, -4237.967191626618, -2556.772443936602, 708.7884614632653, 1252.7770063982882, 2924.7460036920274, 3849.911988082089, 2614.293354468003, 0.3391446083938273, 0.8619866409647069, 0.002938238547701255, 0.42392016713284164, 0.43858468215830126, 0.9589712968147677, -105.26227227414353, -194.9391352757918, 1384.5359201253725, 1819.2894686764334, 219.15119479932173, -3074.2510149152986, -3908.884179096342, -3177.0105832152362, -749.2572376916296, -949.3539650273625, 3462.750110475211, 2832.713442825928, 1505.1375028462687, 3679.8988149223405, 939.8524729515422, 4716.265859848143, 2309.1241097892407, -31.480960276824003, -2008.8194904699667, -1422.2095221087143, 847.6630156663795, 2784.0554342270607, 0.5325302946916712, 0.16556009097528124, 0.7745746549456013, 0.3171115471230195, 0.782241939657677, -82.68087845465354, 336.380558470376, 564.4156775704552, 2763.787710838512, -57.246348415898815, -6676.061103269528, -4262.823539369586, -2635.898863811262, -3915.363480813471, -1892.5166052345362, -669.433895504091, 458.48580041668407, -1765.5902376847262, 2597.8604518223715, 6679.951626207857, 4536.033719393943, 1831.9551427313063, -514.5414024561176, -9430.346596777637, -10210.172895206508, -6665.7112395674485, -4756.179646592729, -153.56224546832308, 0.9372556910886906, 0.7379711924336019, 0.14858449220616976, 0.20521258284323785, 0.44123966916881796, -307.02203188973783, 719.392195672055, 281.535655153434, 2605.7119514408805, -1548.3432613678017, -6520.437923000878, -1728.4878947416169, -2897.2114568993957, -4212.887484484755, 1653.4693990539024, 2306.469733753224, -2391.696413037015, -1520.113491050989, -778.5894382442215, 4686.757606412612, 2039.1787767224791, -1408.6486586462988, -4938.876696248189, -5337.709830018757, -3148.425744314663, -7535.912862183878, -2690.155748178052, -217.25901696044977, 0.514566231899689, 0.0040258984709476975, 0.5922762643696833, 0.5007078507730297, 0.464642780749587, -221.4994686960841, 282.877231838069, -36.02104493037868, 2707.160541670871, 2454.8541237769946, -1992.2817088883824, -1604.0088358148867, -1115.4963394646156, -72.10537019972321, 2101.5215658331235, 2897.0645810857604, 1503.2765699052927, -4109.901081306381, -414.1116596619752, 717.9585361672932, 3323.822093938111, 3708.258899367048, -4871.887592784254, -1862.3843418285778, -5520.942409926205, -11705.99794751177, -14150.956180107763, -6373.0650137909615, -36.90514417831944, 0.9887516705359934, 0.322577646826276, 0.16172669566214704, 0.931379391105612, -32.05684147178262, 1233.2081328479633, 1827.1013715298604, 6392.127419993436, 3434.4503814472455, -2042.6283349032758, -7305.179258648459, -3011.2129642673553, -1304.4801553511463, -3832.704703617883, -2818.4960867390855, 1816.8571090370342, -3307.883167196428, -1086.689942934182, 6145.2435157844, 7464.139120613401, -473.41866010066235, -3834.99101594275, 509.1905901315483, -86.72289515109702, -8203.189080914535, -11395.92804048589, -6010.517945346589, -1758.5398976224656, -1631.9190400956363, 0.9014153390664204, 75.49634188161829, 115.17939132436393, 124.66051409985587, -579.6936600594408, 837.9922010002819, 5643.327830532521, 2467.711471655891, -3165.877146674494, -5407.595663836548, -4651.155538390752, -1514.2858614596635, 452.9345126917365, 3839.2424896475545, 7470.2574673358085, 3642.39916943493, -625.6588572002421, -1859.5795119063034, 1043.4008925630917, 1917.3514143280192, 4168.416084474109, 7473.620798068355, 5079.121346683466, -542.3452921464615, -3122.9206234039657, -1217.7388359402744, -686.3769611516684, -685.9076101609894, 0.32941964405129875, 171.7589542637168, 170.24835777605907, -220.49089676136825, -912.3800142696325, 1959.9928824170431, 2895.7260379725626, -1177.7548648082568, 1630.236611514369, 748.5364488867986, -1246.8801194852335, 1558.8325934854543, -2465.059784394286, 2823.198577778366, 9210.291530041693, 8432.578751375679, -5115.734335334495, -5004.232644038367, 1552.4192543446582, 8479.04067957696, 10475.209419668881, 12534.814813701018, 9567.646588531039, 4239.913971371077, 1975.8973488587303, -27.747938475700003, 0.8710720971867897, 0.3386879298897263, 0.9787060594781153, 105.30021767244685, 104.60463449987309, -394.21076739873916, -1024.4118156091204, 1307.1270553296458, 1083.0888514898434, -3732.9059913729384, 1749.3275377855177, 2057.6331799827813, 6174.7696792502575, -173.7778813070205, -4956.5820259214715, 5208.476037576778, 11697.259250472442, 10928.0661155141, 916.731459662417, 402.37990516670317, 19.227106304916685, 7431.552285210551, 5893.598122663224, 7383.577344229723, 9966.708660361488, 6565.605724458779, 2428.883620371336, 2.4309276337748784, 4.477939200585601, 0.050552008415187366, 0.7364160212801844, 0.71666885410422, 0.3006925001200932, -305.15519424046084, -1072.177287344639, 366.9588119202579, 544.3613640295017, -2645.493313366528, -3633.1825237969074, 3591.42276402976, 2879.2848820406684, -3044.051819118256, -9961.712621072622, -2575.592555169891, 3263.705504783583, 2809.2642927208185, 4003.3436095732445, 3929.652134389737, 3548.543834016236, 4684.80637390734, 747.1149266892193, 2022.0008265411088, 5885.714027383308, 6441.360781165383, 1570.1821683219423, -229.8341110665991, 40.60435851122107, 0.8914060155257564, 0.9666055109837682, 0.35913686051745297, 0.4950832450385997, 0.24362139917494507, -1170.4255447770438, 61.903072750214264, 1395.9580764468512, 3194.4141510796594, -907.3655934815173, -1773.2328090081003, -5942.788878693293, -7625.50163835755, -2277.4530918580676, 5927.5630115865815, 6366.688912055981, 3706.520320789613, 3327.4063330511162, 2.6864552538939908, -4044.2422825051713, -621.7040769698721, 80.32342259813485, -1029.4693576675768, 1270.3386825150285, 4861.518752136874, 390.4054507030431, -499.7687590100524, 19.736952317826308, 0.5666652556244217, 0.6517187782105627, 0.9962763228118974, 0.5687701346622386, 88.06229605883762, -727.367721375343, 1026.9647258364093, -863.8936513102657, 5015.374732881704, -2020.8877002724403, -7961.1513956396975, -9509.821888091068, -7516.7819153690525, 3987.8710233818115, 11689.873145613661, 12844.48858923815, 10543.659971740426, 5141.920413872909, -3132.141767510789, -9235.024190103912, -2796.0897097811157, 99.52137793094893, -1207.4768002380254, 486.54191869560304, 2059.9884206571323, 372.9145882008701, -73.14955049927435, -319.2442182806627, -217.1542553342126, 0.2905299472701648, 0.6093275320107793, 0.7608438594830211, 78.75494987739225, -683.8400438911577, -1238.3701015831143, 2838.063675921497, 1925.5097732569222, 1843.6375032012459, -1184.9653686844072, 1760.4812081824314, 9404.309994452651, 8040.542287534784, 8147.019603513774, 5339.262180823779, 7571.473963920391, 6415.190338424568, -2799.606846139358, -5954.571352392277, 1286.9524773415264, 1057.5439100805472, 1046.9091557284535, 54.50385177310174, -419.0487148760885, -533.1643933992084, -1097.2183844074623, -1011.8216022629256, -581.3900246895699, 0.7023693693684933, 0.49303819607798516, 0.2930590825683359, 26.733652744132584, -3693.6256956576563, -7018.573521993253, -2357.44724656999, -2622.376770180589, 2457.873454120156, 10973.498514455163, 14863.417275881418, 18551.67521644645, 12807.36698601554, 7461.631242870021, -1283.5315235780079, -1786.1759838403211, -820.4830803301106, -1031.824625842637, -8131.164284280154, 1239.2323417834798, 1377.1516562441375, -537.0229456038713, -3040.2539197714946, -2886.931856831239, -2246.3059745238197, -1630.4724418068693, -449.04858111434737, -244.82340191511545, 0.23022869908392274, 0.3784526784010339, 0.9068203621493409, -190.07178679669778, -6312.665369867886, -5488.415569815725, -1109.3356558163064, -4934.992773451908, -4139.0713389303555, 5767.393576658494, 17441.422901801052, 14057.281735078312, 8967.950591936158, 4556.646495902631, 2206.7819424461118, 7.482410841460229, -3061.0664167970363, -6515.8066376508195, -2993.919634120124, 3574.7920932700545, 517.6005835952575, 498.00669491926374, -3716.4443143942194, -1765.52992285877, -842.0787354211146, -405.4627389523012, -36.15834603988245, -99.77191340011298, 0.47572689864960216, 0.06585987222800849, 23.916777605810015, -895.2739990474557, -1768.34266514396, -2348.7786665892404, -1354.4305285987055, -2542.3154659173697, -120.59973059639613, 5970.085640320778, 5656.636764145631, 4909.027637968188, 1878.1698928445874, -1204.7336831156, -626.7317199935641, -995.9403207429369, -91.88233732743839, 884.151528151878, -164.41840601727327, 4210.473321019871, -647.6638087652501, -2393.5846958930842, -2840.3494983538835, 853.6908105867702, -50.99320944448244, 36.245412926299444, 14.26098565097868, 0.9194857844427369, 0.9661241437863975, 0.9894615659473891, 70.65938945658175, -2086.8342408594713, -2855.261600278767, -1077.8180975550297, -2248.120940562512, -1448.6182636383035, -3418.102269469949, -2151.22706625417, -4456.737968847449, -3944.909509339658, -6891.410042687257, -4715.129457177641, 1199.82618163555, 5023.766262375814, 2057.124758771911, -2015.268424635819, -2684.9375209770383, -2773.7890040656257, -2759.7417610752973, -4170.389496314863, -762.7132161741337, 570.8477152826058, -171.9802638404748, 0.08978924062937034, 0.36057526704654297, 0.8736709579887174, 0.6753486283653701, 0.05350016189642981, 208.8852033068922, -1872.2376912415177, -1491.780306299085, -774.1778136774983, -1185.7114048999883, -1660.8763646434431, -4569.316129914394, -7454.383798615535, -8810.170575013373, -9955.56276030881, -7537.970233171705, -5373.398247915247, 2371.0073365588537, -2898.9506100998387, -2292.9612091147255, -6832.78061429615, -3454.7151714219035, -3950.407942199404, -1589.189125305585, -3290.3523690223715, 1296.9714898516427, 84.07464599890137, -227.54299353041588, -71.81148908646398, 0.8426172746359718, 0.06620118014215981, 0.5191176943814506, 0.29647361972326347, 207.94296607116115, -383.46695673740027, -1134.7261403569605, -621.3483933409742, 2360.449105775324, 634.6086269554065, -6090.445570156834, -11308.486669678881, -9667.075619944708, 1447.2620382896926, 62.120726856819076, 1847.4583562873192, -146.4127962301995, -8006.205184017787, -7763.122961036881, -725.0007444768561, 532.2140910557827, -4830.675953308681, 108.13383551345143, 2229.4772238992205, 842.0407045071535, -86.71317046694188, -168.40398593277285, -56.57046590408539, 0.8130220523853056, 0.7427142293290845, 0.8959496076637473, 0.48568329822021916, 0.5779883318788896, 148.38040302977925, 516.1182450126973, 842.0071037582925, -781.560908318499, 2020.4359269406843, -140.41445912087312, -2534.435630273092, -4331.1362077657495, 800.2409182131822, 5580.606634983608, 6933.288422938719, 3504.398766393974, -744.6694202304026, -2489.2049495396313, -4329.321762570477, 906.3866749712221, 3831.02077985527, 4707.178893736023, 2815.237247933997, 237.55393002838073, -31.622359913100773, -23.09878241976552, -6.053716772830246, 0.3182046735075441, 0.8257676583986107, 0.6783677126589639, 0.013657128519726003, 0.47657332707263145, 1087.7540107863952, 1227.918901503391, 1118.7088800876027, 8.707424379730266, 1249.567109489782, 2482.440496846189, 4047.3638975210783, 3125.6204435767577, 453.05575301279873, 2468.4321947591775, 2512.5016135353985, 3850.856226011291, 3685.8073786712775, 4592.530172431968, 3119.2267615553073, 1838.9300076334503, 3832.3000702707386, 2077.3256894674246, 93.14389349736442, -315.1075195223361, 0.07960769714745741, 0.8528046170826743, 0.7251751656785305, 0.4653619582303026, 0.48747504063599945, 0.6363139083421031, 0.20800390769967259, 0.828798613980614, 0.31975403941015335, 0.8981304435413717, -161.36553531789173, -92.02203526917222, -675.6620130578035, -322.5600790816023, 1034.1564386561745, 1476.2964945942244, 2187.9733031304345, 820.0313912061764, -1232.6579338529243, -346.2804782396825, 1349.5658484162432, 1343.1603495278202, 411.3045364698771, 231.2128255772575, 1450.0127786650553, 1382.0311968680994, 46.91223380557354, -355.6384757969862, 0.46692545251831896, 0.06216898151714845, 0.25235030744839304, 0.9926206806055377, 0.6638114628796378, 0.39213492782709725, 0.927011038972484, 0.7579524594707819, 0.1899988515973049, 0.6123468958070927, 0.9274018034244328, 0.9229866370036081, 33.163510286992754, -118.24003363480465, -582.2433513625323, -511.729136210188, -200.23514869660664, -359.88176722199034, -565.067852579583, -292.75667237038215, -99.23808173409685, 869.6183190119973, 58.137204380244086, -127.96826959266002, 480.3966606699252, 393.3327262970548, 0.5003146199880216, 0.4057015142179615, 0.3550081410661058, 0.06711956096496419, 0.8683083168992324, 0.26908903718320676, 0.659651943240594, 0.16417615895587434, 0.16545982475088006, 0.19331821197432775, 0.07126719538944992, 0.8644938709525095, 0.93406251606083, 0.09274616415008319, -3.638179257322569, -36.01577019882678, 0.721951043192691, 0.708573984566577, -30.305119918150268, -24.94750374993642, -63.32486568114132, -115.46213705619134, -65.13421397073922, 79.33365957035856, 34.63003307377193, 0.9799016619374176, 0.8057581652038464, 0.9339638518107745, 0.5122706302345081, 0.2398218794308471, 0.2737605192142628, 0.8795275063309327, 0.20045311157215684, 0.9252118646870747, 0.2843261852032746], [0.444592546001085, 0.25877886504565095, 0.041717527037894664, 0.5680773494576327, 0.2904704960898642, 0.38346669228308694, 0.6506888696757028, 0.061169445041814874, 0.4763606918622646, 0.03209451228413007, 0.009719390414039353, 0.7695783011589835, 0.7759027951922346, 0.11010496705864081, 0.8501932145745061, 0.7597448797774149, 0.02768040516945991, 0.5042295679788393, 0.9338195734194051, 0.22987288610547252, 0.9700511490016912, 0.8533408261475868, 0.20922708252270794, 0.6517861042390758, 0.49182412567646716, 0.6042433490965006, 0.6452996983170919, 0.2826458257074129, 0.515082529514208, 0.7088804621608148, 0.43205057769290656, 0.1851066222964356, 0.6164800065147921, 0.6059117251276007, 0.4481173366453234, 0.5698968455985888, 0.24646009746399544, 983.1375502429222, 1176.3214360814677, 0.45924668685605896, 0.41135832868876065, 38.71218162328055, 532.0385849070976, 247.46835700716366, 0.9315534710317102, 0.42073688468780157, 0.37969837130353534, 0.06792029105761055, 0.032153437889678504, 0.6703616564917549, 0.1768915848310505, 0.894562661682828, 0.04024813350275991, 0.6472282778765914, 0.8140101149397068, 0.3503491635749334, 0.3237285318142785, 0.25499836610562243, 0.3857007218923395, 0.4752534651009106, 0.5783495507297922, 0.0970927542759028, 0.7940779246286359, 0.653253942968866, 0.42646653881761265, 1611.6539954994662, 3019.921752156755, 2066.7619588191556, 1435.9441158982931, 780.2563194915676, 303.6043543407809, 2872.5274703151317, 2116.2850000151025, 147.90742052774854, 189.86078137484785, 261.57033880239567, 335.24499002674145, 458.1623071013922, 303.68475707589783, 147.03082703933282, 0.016141962784167463, 0.9193354971277684, 0.04172195879062335, 0.463814136897166, 0.5274651892580745, 0.7642595823765764, 0.2464070464524738, 0.5113305103183824, 0.17083239743276046, 0.7427847538515698, 2453.388900596945, 1839.679051650028, -63.21844582531976, 2517.395596049187, 3382.4592848223356, 2086.1868084838807, -501.85350941580515, -1106.8682690938847, 744.890796080432, 362.8555229319776, 608.0629755228963, -3550.6527048327066, -3210.025303830576, 866.0669031249444, 2238.1056039529076, 706.2951108636062, 1121.7403902966844, 1513.979429331026, 663.9743125120328, 204.1542495103825, 0.7872801309069583, 0.39137554672826447, 0.5196330714231691, 0.1263335553618008, 0.5823028390294, 0.5269910948291913, 0.556811498063938, 0.12712876332548062, 2793.7719012645216, 2158.634708211656, 173.36532326691844, 1860.4024047825544, 886.6908703021207, -520.2036777210234, -65.78054510030911, 2538.266812927083, 3555.300170499442, -965.2244108020523, 1300.7515254148082, -109.53864272412522, -2865.510446246356, -2413.9565158691207, 820.9992579956887, 2687.3729552252817, 2767.0097188111586, 2401.382023838549, 2724.1009075427482, 1823.0945746883112, 0.4776708897083439, 0.3910609393368125, 0.6834392628529002, 0.4308657997700228, 0.021866304934885616, 0.01458157236428581, 86.8581713684153, 168.46902880968938, 1733.818334881026, 232.92112037229975, -1641.0264480175272, -1776.4013501667037, -889.5111490709401, -3431.2284874511565, -3343.9687548521224, -1645.9567866969908, -2681.5684986179276, 363.8805236811641, 3707.69393731508, 4761.765574955298, 2549.258344170501, -4836.967185466407, -5265.403677199906, -3524.3618185571363, -2714.1039309822745, -3007.786956831975, 9.016757378034054, 2448.447830785266, 0.3611795065144773, 0.6025486111320669, 0.8179993593788614, 0.7802756043352085, 0.8216992206296363, 78.42843195232994, 434.13441181956847, -245.76501252638022, 351.9015974892199, 251.07551489865864, 858.2867478978784, 627.3644930921779, 344.06151718542225, -5786.242406839115, -6469.092669062725, -2173.9976551110703, 444.8556666346707, 3987.154700476442, 4928.184130229332, -37.377358818954065, 448.1894285300864, -3249.366693997029, -6229.458208566616, -4635.071992599804, -3308.2244780766073, -2865.386456437925, -1316.336431862302, 859.7351944292282, 0.981514823394144, 0.24516255476385707, 0.49535147059960316, 0.927765261764076, 0.26471237555354166, 254.6197072003787, -205.55731699339648, 125.78139089105723, -267.5132182767132, -3907.601262061268, -6961.739007143393, -5371.373750855684, -3962.441925160988, -5851.7306604389605, -4360.513199823104, 2306.383755019115, 3496.6880017557437, 1840.6552815837128, 5246.496212782899, 3501.96558918507, 2270.3116566154918, -4266.0225859677885, -8437.060008824365, -6576.356309452579, -3236.813503594127, -847.3900608115216, -1794.475632168146, -1512.7568756172818, 0.21992493912167388, 0.8129966885109297, 0.8252129533198893, 0.016290797855137096, 0.7296905546371037, 179.47034336919862, -16.419978602298055, -232.80279453290626, -715.8356052278068, -9559.364611321247, -5896.812900625236, -1640.5026576404405, -2443.747168970608, -5751.730033562777, -3999.8220337498556, 3068.6323453604073, -2168.688739508426, 2977.388158313737, 7408.92796496681, 6354.294201295929, -781.8676163322054, -10339.7966711268, -6524.232137404243, -4414.156133813261, -1840.3953927015298, 1585.5936157547922, 3336.2532648280107, 548.1843385224852, 18.582511685755993, 0.8206282019468656, 0.3242785964377892, 0.6380674372038722, 0.635381699606434, 8.456315726951892, -745.520773498364, -2168.300637654417, -2170.4206987211815, -6872.488226118586, -2860.856057450633, 2421.4805413788745, 218.80215289220467, -1447.5623755850572, 3364.8043674071682, 4326.572885303238, 3167.6565198633357, 3300.5968628876926, 3007.375817090648, 679.9588266211583, -5524.475372465393, -6442.56211862996, -6585.0653900143825, -8267.692078181411, -6094.36818407613, 731.7607217286865, 3229.085662920408, 1839.6732795791665, 355.54319759891837, 293.0132161032557, 0.8532947579169062, -83.61614643945411, -127.96415636153007, -157.5831418777204, 866.8821150558073, -304.3725208769253, -662.9678055872824, -1762.5878211481984, -327.9190208436119, 1232.6341926637683, 2960.1133346079405, 2002.170693429545, 5532.898622789591, 4139.93247478587, 4972.865716406001, 4444.174779142052, 201.6264577808195, -2864.4244433104286, -1610.755394525877, -5730.257814988145, -7015.721203310897, -6911.487020894026, -3358.8340690146883, 1162.1858379127323, 1842.6191975382592, 576.7182198100807, 123.63664079589304, 123.34590229522064, 0.3061706616496145, -189.42326985924896, -189.072865539927, 351.18127871146714, 1408.5513792907484, 1028.8544785936049, 3055.838134631028, 2322.7176801206288, -2850.969724102945, -771.1173353999559, 1722.4344752389607, 6059.340758262986, 6202.773650522076, 3939.5695408318347, 2798.107146694188, 118.85656148101337, 437.0925798626644, -1865.000129978815, -2365.6964849430738, -5443.035100595314, -9212.780511216726, -4225.416479770043, -28.994495761415376, 1881.3361642136886, 1361.2900085853605, 44.08785612284748, 0.2786993399510287, 0.9027243630418053, 0.08797084493403962, -116.65706239531505, -115.89028992784272, 553.4717627247983, 1570.4961345110048, 2296.1395252338943, 3899.22766684946, 2483.5979547846737, -3038.3832847973767, -4093.960318829739, -312.1426158924001, 5238.942991440325, 6141.45596446544, 1954.9429912367173, -111.38511123803546, 4694.227525840207, -1994.0480022074323, -1036.7645520003784, -567.8929726030121, -6403.033220043811, -6863.782470789852, 693.626013946573, 5797.000655245818, 4346.216164481077, 882.4910095538297, -186.66423806679936, -389.36129769902783, 0.6856271913344921, 0.10625843977475513, 0.920161828806158, 0.017140423258657167, 443.3848238741212, 1321.0721326258963, 2462.878621451071, 1959.5935607450144, 1376.495320453177, -167.03282458471182, 2024.662589794194, -2679.4153172308925, -160.77046412737232, 1843.9598415073783, 763.1242196884198, -2487.302680004749, -3511.0212104675393, -8811.217003019477, -5759.020305208445, -4074.3073582729153, -5592.9752886374345, -5414.372655501831, 4138.069279664158, 7184.028248152606, 3384.010488637783, -1776.6399743510312, -2721.441706548113, -3636.94398059677, 0.12490390818530606, 0.4964366200843632, 0.4074102821186072, 0.7198823717703086, -65.72897117942458, 25.413639476616737, 2406.232054614681, -795.768244810034, 391.23000556508293, 3230.0779550852126, 3571.811242155392, 2243.3224613405264, -3834.8722606140664, -7112.026068568436, -8133.120011871216, -5624.928311006355, -5906.482188122552, -10079.487985261374, -10701.17195868028, -4381.291767914243, 353.78007525204356, 312.43127579424197, 6261.06950117497, 9136.900028322229, 3333.4050119098515, -2184.1136431584623, -3421.8406824376634, -1716.7479422527986, 0.42711111005285896, 0.9826450601738355, 0.6236235090994439, 0.5301780968987964, -961.5102389551352, -1357.1168073206547, -1569.4997942306804, -4859.462623864693, 98.1593089945337, 4521.647527174773, 5111.986914732227, 5000.445047939845, 2286.6547700581564, -1833.3399617192642, -9266.009267309973, -5196.610984999326, -4541.941436683811, -8855.594403571791, -8231.755778329769, -4779.9503589005, -2921.9226233740624, 6019.355377173812, 10816.318692943689, 10363.891355487236, 8001.907616432018, 1638.1137790828382, -354.6952356275759, -1537.0660579031123, -1044.1742986901104, 0.28293980786090234, 0.2049395509612394, 0.23217374356525478, -892.8034026382953, -1604.4852795235372, -2669.6434382215702, -1708.8460759870386, 1335.1260517972432, 906.709376915745, 9.357959196461922, 6752.963394549338, -1572.4660308267828, -10367.204317205353, -11616.553752225578, -6240.236426430343, -10225.923283380525, -7023.331336829641, -2122.2286437021266, 2229.129105510433, 1652.8941411006401, 7869.999002895151, 12314.26972967608, 8219.322956243366, 4028.8484141650597, -2062.582648331558, -5130.04266303932, -4870.233309842827, -2799.42408513673, 0.6666192636769516, 0.9990576600153646, 0.09261194170391673, -33.30326188075918, 376.1477873978225, 601.6870041070586, 2514.261780554686, 3207.2788666016036, -940.9128513878263, -3242.054327751002, 3384.473933104377, -1371.4303737506157, -5723.991866931161, -5461.875119425132, -5331.055638752429, -7883.476461978337, -7036.832946022786, -1073.8612232167184, 5558.405989276823, 204.61810164584236, 3354.4021555161153, 2564.9647230695846, 428.2394979211857, -3455.53162606228, -6258.217536097041, -3737.909145207149, -717.1092072986559, -167.85157766340134, 0.05434153973361999, 0.0022811366778554554, 0.5406821637711349, 27.57502375542647, 2510.0353521770453, 2423.762946998839, 2560.7036423802383, 7006.294177568656, 3063.621883148641, -2850.914705434711, -3205.817967332198, -2168.303191473364, 1962.067135660597, -4297.607363608283, -4813.4816208018965, -7932.801699305071, -3888.208125984611, 1313.1505374697044, 9357.832728664403, 4998.28250446148, 3360.209019732298, 4987.550075391186, 658.4116974501517, -3103.7394751976603, -3529.0669153679673, -853.6273697740056, -452.23508609968746, -68.31875141439404, 0.6034179641840057, 0.3231506536292017, -124.35058706997204, -208.36515083239092, 493.1469652629116, 242.67760824664063, 1567.4608550295156, 4858.035645817052, 3971.7252976318064, -4543.6589901813795, -7111.400285487658, 3455.8829575041095, 5395.026034370674, 447.66904045163574, 670.3314835897119, 4108.4619083568505, 10082.951697906126, 9986.543477055415, 7097.312944650128, 3821.199527924267, 3232.465108697244, 1516.7008057198343, 527.9212332709168, -2566.116324483288, -1376.7830403370692, 160.20079722816058, -80.63426139150043, 0.41190696938335347, 0.3278041633848593, 0.7280262034202748, -366.32823742669916, -370.35599657202533, 44.17968368427083, -1691.1793730485213, -433.8771356057529, 940.2773832537429, 2663.6931402135597, 1772.563849543513, 155.19810401686425, 8291.34551803997, 13682.179867870103, 15041.257517355465, 8808.717821218464, 13952.285211589005, 9228.855604723138, 4186.695857404773, -625.0069872819251, 1904.0049030926982, -1338.1526169712863, -560.3245575626952, -1925.3841667426434, -1208.144611430899, 145.49308806425526, 247.26660646791856, 0.4237592587476904, 0.9644808646507975, 0.671281520945667, 0.8281758849425301, -1095.6800563266768, -277.5879905502129, 8.289357421680768, -1127.591746792958, -1393.6865551284977, -3428.0035320704533, 1467.9970569841573, 2494.16771208871, 7371.444904323068, 11555.18886470304, 14319.245336611508, 4308.254839096092, 1232.2740449678731, 4988.593770584067, 5907.587314954052, -742.9056251671315, -5534.000169111617, -1646.178902469928, -1854.7749805194026, -1143.893873295234, -1529.5221106110096, -892.5212524675812, -26.553560140372092, -170.05140736482963, 0.625530083938725, 0.1726095836820123, 0.3774801433617111, 0.35605039303760555, -1091.0124872493318, -692.0554902782089, -670.7865558842698, -237.40395623022783, -2043.425226979764, -3299.2394188387116, -2707.286170660189, 1270.7709530932773, 1666.309907597738, 7513.557060489605, 3136.797567237242, -3443.3370895307085, -2118.101948200852, -479.0329091129394, -814.8363347619678, -2269.9890050527447, -2864.463351431747, -2986.1160324749762, -3342.6795411688886, -3385.4588206146545, -1513.2853962499605, -360.1440575029937, -293.96606815058016, -158.34131315846733, 0.22684551420382404, 0.004307795767213185, 0.07410144504190286, 0.06836167830179829, 0.11197234304123949, -73.96366209222495, -262.1796755557485, -536.0660015248479, -2055.298636466565, -4127.830294147152, -1082.6952982569182, 3837.247844532966, 1935.9780693160403, 1743.7260998778315, 381.9227515880111, -1274.7925154012332, -623.4676938412567, 2581.419874670452, -3400.9981314200036, -3326.1774191901463, -4532.686830630949, -5229.401365419142, -4502.044857732122, -1368.7336661644972, -347.7504266066004, -13.932616228667865, -9.31580320557767, -1.4201205625643984, 0.564303209676031, 0.4613966931315673, 0.025442677288036064, 0.8138745159074446, 0.4754485608855835, -655.1467543629756, -739.7436349871615, -274.283614321409, -403.42443009528307, -2396.846958321098, -1503.5370352536393, 608.0448006735381, -1134.9585509150743, -1925.3560288088381, -381.58623966296983, -2844.8418194810397, -6335.226424703088, -5080.634159340904, -5533.804101506511, -4514.859792167162, -3364.0377205971104, -3485.6501189560427, -2098.2659612362145, -248.28319551283923, 397.42487948767644, 0.8340372423158592, 0.427863120569998, 0.7863172753395858, 0.6680891191884539, 0.5276689350840404, 0.5847238349481921, 0.5212226247417538, 0.810466716255465, 0.5222693185366407, 0.9270799804957722, 283.68168516392, 493.2645221698444, 556.6597405001908, 790.330155754519, -441.0924178457214, -2324.74013344087, -3219.8162343281406, -1475.378051486511, 348.54145907976954, 713.9648265144488, -163.55587846565143, -1155.6249698450556, 729.4063146331229, 1669.4459805065344, -284.2136048330759, -657.3753662459914, -4.3338475236547644, 448.0643807028626, 0.28218009376325015, 0.117801835307349, 0.2944610948488824, 0.5770059141450808, 0.8314139175174758, 0.58263656672586, 0.23723813125586968, 0.9146157835575133, 0.13390343308460517, 0.7437308516704924, 0.25722967232914584, 0.260839850459625, 70.50576537111313, 74.69183731286391, 121.60021580829896, -171.40400792345508, -806.7805641796075, -1752.4463488747956, -1041.5244881046212, 775.8677114925199, 1110.149735331822, -56.496705528234465, 563.5340196408779, 622.7805250938052, -31.017635863936423, -39.454484723484384, 0.07696214826193915, 0.4550663682126136, 0.09604474379902828, 0.8377372979437498, 0.8294377554535364, 0.40954936005478637, 0.18982031596799998, 0.402532524946033, 0.31882198468373424, 0.3282835562901619, 0.9806451474567348, 0.3247229057724097, 0.3840536793409095, 0.452813994310974, 6.380787270341851, 49.823208801263455, 0.8990361044565942, 0.4265372686767458, 41.09544249905521, 35.02671885944721, -18.421130869634375, -45.362190715221914, -52.23389376816762, -96.42597404807772, -37.89918336616975, 0.7999291303022671, 0.6427970414432193, 0.9253061260275879, 0.7295311038413185, 0.661129502793054, 0.9490210870746925, 0.7393220620151489, 0.9634036364917818, 0.24202539011092306, 0.42341320273594896], [0.07071623390305037, 0.14889446824771946, 0.1315709188995695, 0.8041308399443142, 0.05629742209780397, 0.40298462088022025, 0.5148366931964782, 0.8281103879018952, 0.2552198373680392, 0.5766953399310178, 0.49242973679462954, 0.9308836664290745, 0.3639215900301429, 0.5841088047501873, 0.6759862798577434, 0.37339404251387187, 0.33063661791436494, 0.22176013816549678, 0.05746611244673583, 0.5791350873090673, 0.37402823386408834, 0.34319244996503084, 0.12641623919020528, 0.8899622346951461, 0.6893265090306736, 0.9874571843344051, 0.5095141123609513, 0.22344760244749362, 0.8256824364494589, 0.14608563787447038, 0.12175176149335387, 0.4431397436394725, 0.6217664087806355, 0.549289731500427, 0.695251177134798, 0.6073516272084097, 0.5692091868602828, -186.65867003752822, -224.27413803703894, 0.31786306391467467, 0.07841995919333178, -7.215091098237692, -107.25983106252406, -49.41154286659256, 0.8254818436871184, 0.5605836501679293, 0.7286622892714224, 0.6762709402775892, 0.9488066045079411, 0.8093876232835416, 0.9161675710379211, 0.8167709902312108, 0.5921204566959963, 0.49289365215975867, 0.14744594116965626, 0.3971843660983322, 0.5707409692283444, 0.006928949727708855, 0.9595176939292918, 0.7431110023968637, 0.9326377653479405, 0.2591543358958447, 0.9416863754946478, 0.6653345640385319, 0.5544923304122582, -308.9231141845212, -807.5386106762646, -683.4736807761884, -100.75204721497457, -3.7878336433223887, 148.94764231272788, -253.3298842274906, -422.85894364357415, -54.234422297141215, -465.7273269141132, -890.6562735892466, -1333.9147520964925, -263.0166977666075, -49.20368482521604, -9.098919904109644, 0.967423048285914, 0.3834035708946585, 0.8496920077634109, 0.15436307052152898, 0.15013184750671027, 0.09338893734277642, 0.6530156121331088, 0.877517513999952, 0.750832616061715, 0.1582017851696017, -779.9277850315419, -585.0200075360783, -0.32169598531270016, -1184.193751695934, -2160.2413613364242, -1388.5480470339203, -4885.947684040711, -4787.256799600871, -3334.1345053576006, -1942.2821455457783, -2727.8699832500283, -323.75278676083997, -1197.6519398628345, -4084.7679101626427, -3627.996624885101, -411.4660777505417, -664.4748903331626, -1292.1637821275397, -597.122469704987, -183.17213860890655, 0.3337764573784291, 0.238590184797707, 0.9921091972199699, 0.017968241845949806, 0.3189022727724221, 0.5327030935137063, 0.6272743945493154, 0.09789487290754384, -887.7631698131735, -804.1326682429849, -977.6830122955047, -3428.842990909816, -3975.596594429691, -4033.9510959576082, -9405.264556336393, -8002.1751116369005, -6171.088540347926, -6466.6913717494435, -1372.4950183418896, 5443.638131992085, 6433.14138666018, 5233.486645883074, 3132.397440927507, -59.714237566936504, -516.8985106243343, -1830.5167957825633, -2442.585836874279, -1649.2916446970958, 0.07594130610616345, 0.3909348214228294, 0.9198094463247676, 0.7083818955106916, 0.48470427973737795, 0.9562490483568645, -334.382338288226, -693.5805568634095, -1957.8892926236285, -1331.7114312609528, -2911.758433335909, -3040.489493868583, -3330.4022070734923, -3143.05630826074, -4612.179295171318, -2432.2385580683417, -3777.4459996531864, -6100.883386502979, -2842.4207001430846, 2023.0096901973884, 9135.701128649076, 8147.038646917757, 7335.921768493142, 1458.4341741102478, 1984.8365916205953, 1353.0372440175574, -451.5929309563086, -1945.2310773569143, 0.2714209702584217, 0.5745837339027098, 0.33918523370878617, 0.4476103866427913, 0.3178985340111915, -362.85083812164265, -1096.4516459402519, -561.5970478506657, -3024.945102633349, -3747.7580511254705, -1802.9576413124328, -374.99788089301694, -2769.212689747196, -4848.3363502393295, -2665.1346428161432, -3332.7528573846994, -3481.799602073321, 3846.9396685010956, 3428.7916913572967, -469.61481977376707, 1576.1273382383085, 8414.141657711483, 11416.302917290517, 11087.811345391383, 11017.882143136561, 8155.236661189806, 3634.018606046789, -267.6072789023462, 0.3602629458095056, 0.8297351760209715, 0.6665732314712145, 0.3558214578354443, 0.16661373622507636, -1016.816287759565, 655.3085181817726, 1592.3028704947224, -2611.2778194385314, -1565.1192968392097, 1802.2001257910113, -658.6670134652464, -4220.908865394739, 455.85931210863265, 5289.35486667309, 967.5288102703468, -1810.2813218859076, -921.8721669148742, 551.6657781464477, -3561.705305545564, -2483.073387704304, 6614.9417396621075, 13018.502797887471, 13579.453140451702, 11401.784456521502, 9872.27725592447, 3954.5020292159384, 732.6310861545605, 0.5885807559069066, 0.2081849271419639, 0.6096124133772501, 0.32715323237736216, 0.19725083431878476, -674.5219614425756, 1298.9407576322862, 4008.541638693301, 1968.313114978647, 3777.2024980021474, 3083.1116819361696, 18.760389376244767, -1596.7514448457116, 184.07225902216948, 3194.773491478113, -676.1449584802403, -589.8598316512521, -1790.6715487765737, -5562.070116187611, -6126.407721175306, -1698.2962167502799, 4859.73757511148, 9148.210197290455, 4660.073252983733, 9612.0887027857, 10443.844190325408, 6118.475462287017, 2471.850499715199, 29.066528834069796, 0.09280196462934065, 0.39609007880687064, 0.6796386289457637, 0.16870705774557548, 1.4724476409814196, 2948.2553132700496, 4766.463872826062, 4882.757394812397, 8902.74006425001, 9293.23045121019, 6216.0554146285, 2933.1014085271095, 5034.58774159872, 1603.8340324143135, 442.31696106184773, -1967.055083645246, -273.9184929199551, -5164.394526632571, -3387.900733718816, -524.2225628762508, 2368.7551287654155, 7878.548517939194, 4115.951275272214, 4499.095652692048, 4178.067165048115, 3120.723263758711, 1696.638513482769, 1223.2569884168106, 1125.3133679635055, 0.40314323873311453, 14.119780730710131, 21.34641074144844, 35.59513083641986, 886.4056422398509, 2880.268418608901, 6033.816655024429, 13226.893174639536, 11560.000291482516, 5656.384278400165, 5762.34202183305, 6802.953026027908, 4302.69965497953, 3666.037765921852, 1013.0551833310551, -2509.679234013409, -2956.1841816229385, 3873.0655363191595, 2833.890409027306, 2426.06438232481, 1293.8610343536043, 1986.869222128457, 563.1723772032146, 1380.6485562684165, -51.29472705020736, -364.94572046094555, 474.1514991524867, 474.07582403799137, 0.9001912937560302, 32.312368805841324, 31.593074041957113, 653.7802633022504, 1589.8169101039775, 3904.8809394483333, 5896.976878610392, 8258.943321578745, 12099.322936699657, 8377.942817798306, 14642.77236963586, 10700.907028152129, 10673.01946722361, 5791.682519915994, 1985.4917505320693, -3533.0107905861755, -4039.485954139211, 1468.1498843272238, -1565.8681425197128, 1985.642259152442, 5163.976372231147, 2537.248896511819, -1567.7210901470867, -53.74912489990404, -717.1367755224478, -86.66583146785858, 0.100957119134225, 0.14864123182923394, 0.10727980099216505, 20.340344565955036, 19.420752616399064, 689.751832207638, 1554.9535179097531, 3350.358492072804, 4569.329876588038, 5261.996514325637, 6803.646190932132, 11963.941046757926, 12104.086963865722, 11261.847732207116, 8977.033778680045, 3582.5147953115425, -3325.5889662699237, -15527.080502942135, -7355.677738775205, -578.5955627232069, 2925.5357757243764, 2549.003315315241, 3719.8491085871747, 2760.7985611630047, -350.48709145663895, -763.8925104175936, -803.1028571187708, -43.18000630782337, -89.50166773581176, 0.6847077868524393, 0.26630464118329644, 0.4957438861424437, 0.9258178016673129, 459.7792806966342, 1778.5570556599666, 3450.168805641913, -415.0510663519023, 3035.172549052713, 3393.033098048334, 252.31894517044296, 2901.6870249535677, 4562.046303505819, -1166.507793669615, -1827.3924849496507, -6002.999712051857, -4528.937085073576, -1866.0029064702182, 3515.8167243688645, 2081.2046118567105, -2374.336757672398, 432.265760400235, 4707.684672947342, 712.2532575455126, 623.8902331492276, -313.8931324014032, -291.92294688911306, -839.476436438018, 0.9176440058839421, 0.058525511997203794, 0.7790501704787643, 0.7082189535580246, 27.914296115659575, 2370.689496345697, 2455.95879460927, -1974.5370316553872, 990.5420431547622, 376.230757922604, -4608.8892002092, -1475.484970548077, -2256.5966703144345, -1853.1812378308568, -6260.446959783182, -9843.352203171386, -3116.246433902195, 2099.2112477014757, 1130.878187982283, -861.7124760458881, -4768.52834663385, -3369.674857364801, 2312.1286290214257, 1101.798893988721, -720.38604912779, 255.68019359809875, -53.68108661533279, -396.3702782704856, 0.329674090657758, 0.8977854291228171, 0.6905735345563775, 0.9862562427941459, 458.33718560637476, 1893.9227818708337, 478.8229524772846, -1735.7835906219748, -1447.4030011141615, 391.7048255389378, -2321.0869662874015, -2739.3077563546617, -847.7878157579627, -2116.1768046738453, -5499.792512301071, -6348.791783154269, -1968.9144473515485, 1567.0843254642912, -2852.121939303846, -132.94443623483127, -1497.9702635616845, -5717.789535808781, 792.9552476620665, 1745.9655404315686, 142.07429020474348, 671.6670900459524, -33.93993091364498, -146.742737007925, -99.3564682238898, 0.6540293923008141, 0.18227128716902063, 0.0925996848282079, 461.8760276945747, 1739.1150486567176, -118.87024146628576, -3361.496509854356, -378.95122363498115, -3776.437030566817, -3979.244238989316, -4216.783625447269, 2238.3692975452, 2635.4152349680835, 1429.0904026284873, 2891.772329943259, 2844.267540074475, -506.83101120680413, -3456.4074747027303, -2639.0518736894305, -1479.3192769712896, -6302.745598355116, 86.94385703976586, 232.8793182498564, 842.287206694719, -45.87875079603043, -438.72468446395806, -465.65173799738886, -267.71667243785055, 0.7183616817554994, 0.531772135120614, 0.8408090801221337, -53.31404452712268, 3234.065810667522, 3774.0451895783585, 544.0272595377786, 813.1865238873078, -1411.6121884634715, -4429.706002993879, 744.2502846521302, 3179.7456665716004, 3570.777138867448, 5411.396889407267, 9127.491934339141, 4436.002768760369, 1008.3641154991963, -3355.495232305691, -2333.2796182839747, -4291.8976531752005, -5527.881616536527, -4002.3937547547544, -196.32919390945258, -403.4910647776783, -1564.9140582967236, 668.5089610117747, -35.80435599492084, 39.90950281832321, 0.2566788321419323, 0.048841110421251055, 0.834973677007781, -53.92804353149432, 3891.4243515243456, 3895.7793585188547, -1751.9665599587265, 1144.5286728673111, 1269.0018707713248, 4228.500253022491, 2221.1675984198027, 1591.5127230489068, 2211.2065164673413, 3228.908264653009, 5530.04960539287, 4240.183480503311, -2997.885038622611, -3596.950675186678, -1939.490710693925, -3628.7042666158723, -4726.152031034355, -5016.4561323266225, 1983.7073472516063, 257.4325851302116, -1222.382412817389, 6.362142947498637, -127.65072178485451, 16.54207195543197, 0.9706250000002464, 0.4634430068029367, 42.35980057332103, 544.2583598398254, 199.55754208465376, 195.2270217908259, -2766.477021639963, 872.9099608553362, 522.2864066309369, 4938.529707770689, 5218.073998195883, -3733.277014743735, -1222.8397093843457, 3371.044296563317, 7676.768143105468, 1887.8095897400171, -4295.855862246275, -2238.9759339819275, 1424.4206290587156, 583.7242691573997, -4501.9784009208915, 1159.4486107812427, 4805.7296415909805, 2068.629835720346, -753.5403615320766, -201.54956697215468, -30.284375122414026, 0.7856455532434689, 0.984180823117159, 0.1335535628651645, 122.18077630751442, 603.6526384891903, -642.9621266025472, -3158.631420513549, -1433.1258587026923, 245.41049198234714, 450.9113685194214, 5882.405080128309, 3900.8198422854757, -2897.3446381495337, -4808.05508398762, 26.239012021353055, 5299.5322609896975, -3555.1038325926033, -1717.962357189803, -1960.9115494527287, -920.0579393999949, 382.35914286152513, -1364.1894358047987, 788.5118579090001, 1968.1521657756653, 873.8006108989007, -413.91980418732624, -108.79314314489604, 0.8729286401737565, 0.2979316504500439, 0.8478164522090634, 0.1817417500646843, 364.4907921532934, -375.79304348789145, -1077.9107945620024, -3913.6738288275365, 1791.5956929204706, -942.0718682540045, -676.2513150183935, 5398.964711012461, 5687.5870880909, 1560.4061231145756, -4068.704595541738, 3778.0507581528154, 5509.496907995493, 3209.3553103779777, -1116.3612864194524, 1910.6685396043138, 151.69975852719656, 1044.9913421631813, -312.23596666161916, 914.8112261570059, 1525.571477283775, 318.6099125694743, -166.54330309742662, 43.14893438320079, 0.46996447003510666, 0.6187669910180276, 0.5358936866781813, 0.9209362339407313, 363.52467895770786, -904.1638645990857, -1488.553147179638, -1798.7550132858448, -594.3893110356678, -499.7286492561774, 1729.3468749985313, 2457.806789164482, 5321.684373724603, -4745.560648932078, -376.82148049605746, 10429.787708519985, 9943.617332864978, 9249.1749646142, 4345.493703949024, -267.8118744552635, -2452.0830575638556, 3727.171548276515, 1697.000671046079, 2426.409821360404, 919.6061752936264, 260.6913834820812, 55.4643659285638, 52.26482729855254, 0.6220652253123387, 0.36996998930286584, 0.3649699194531586, 0.5500499464054179, 0.4853925818045922, -304.5400592494349, -2424.189925161899, -4172.010637425202, 861.3012422785765, 1389.701567377125, 2362.9291623725594, 2458.621612086919, 5807.958307446799, 3013.807086551905, 4216.769450674588, 2491.0155115353095, 1528.154893756455, -2400.9521483787776, 1898.2160058785614, -104.01587929761551, -177.6123690249721, 1192.8317642431837, 3569.6068810201004, 2544.619627466999, 185.28297955190436, 7.203855813088621, 7.336513936135695, 3.4794564576653504, 0.9344019883947616, 0.7920638586307586, 0.8793812650167726, 0.7839820494876023, 0.2952389836712429, -1045.8594355171545, -1180.7562178061037, -1867.040766933221, 222.88565736551976, 5174.32520018435, 4973.863623914629, 461.4127487614318, -1220.568006243954, -2135.8999198779416, 766.0537483591584, -1659.0536425935863, -1292.7139730020126, -1297.6303673894718, -682.394327558437, -1774.7832696156654, -2888.4310654493315, 1068.1636149641222, 864.4336727535458, 117.62191646266815, 161.2152882153297, 0.4777318412971865, 0.4986401916651435, 0.08552866926852143, 0.8189124814487674, 0.16665634791487205, 0.30037796839769426, 0.513345041982421, 0.30539066088585143, 0.17581803867270673, 0.14668550324796803, 71.81935768731965, -439.2773923535004, 561.8148634830926, 1166.9409495567038, 1621.1237540580523, 1457.4186854987015, 34.67647384093034, -2588.332707387714, -4818.904998303504, -3628.504177229617, -2466.1579428420055, -1482.5116764147945, -1222.6093751408569, -520.7255830698964, -161.67972090810116, 155.72758378028368, 6.149033828770825, 181.40989176627255, 0.816266963270166, 0.05247356468603681, 0.7976236173797218, 0.731837539182007, 0.45519103680198225, 0.06807371320090372, 0.1267251321722842, 0.6648268913782559, 0.8372531081028278, 0.19421558427704344, 0.525449036564096, 0.14398873029821047, -104.07568388077705, -116.92885938349325, -825.0765665883631, 130.94240338589734, 487.88921399615214, -937.1082183091806, 137.40930829438972, 804.286808702451, 1017.3098604202661, 572.9969511491355, 150.9064471291477, 285.0956334495906, 110.91296201044092, 50.34264623034922, 0.5918214308558273, 0.03155770777319711, 0.6738201733498368, 0.6278714515715457, 0.707596377526215, 0.89001329523969, 0.6979291657051415, 0.7805445987706691, 0.51660847286013, 0.2726742906927042, 0.1705689550177324, 0.6171233550201229, 0.18628101888375814, 0.445614027355812, -1.9179828043921114, -17.362118279389673, 0.3040217619482293, 0.29363564690294863, 8.7845853571052, 6.942754769370249, 281.07233368800615, 387.3534821307349, 311.04234823370433, 44.26859362856095, 6.4366197433865615, 0.8605133498264375, 0.5351499257415451, 0.40994634954582243, 0.9026703878521287, 0.6468006794541769, 0.9167894681124255, 0.03240712689588887, 0.5242007475523592, 0.29357541738012405, 0.6437284141273257], [0.47870522553711115, 0.961860929783728, 0.057799636375542085, 0.9861288449532936, 0.3185294939411013, 0.3833207675778033, 0.5264161025175683, 0.7683796927065022, 0.638602223616061, 0.644647497881588, 0.9506821710684676, 0.5123887698075607, 0.3596740465846997, 0.656597111929768, 0.9366039577750419, 0.31792146670526633, 0.4079969771652535, 0.1889689662091072, 0.11215405857858252, 0.08327417421646044, 0.16432885587069535, 0.0824855995802416, 0.3851757230043371, 0.027408693132149442, 0.22134487252479196, 0.6578715281056821, 0.9277099243756811, 0.14819268188103907, 0.28374507363057533, 0.5007844400046811, 0.9006000725688726, 0.5243268640726744, 0.6485607260924815, 0.47818363909530603, 0.7134086067579194, 0.6387254634455121, 0.1446154818508003, -692.1050433344986, -827.9557361795896, 0.4527644582155089, 0.24010545536116024, -17.64314153223529, -258.3084581726376, -119.64526006560976, 0.6905471417128014, 0.27675095690843954, 0.8631687598868294, 0.1367856828714591, 0.4626150038171871, 0.9587970831791062, 0.7309276522973555, 0.3934340868244266, 0.9322447962584607, 0.7373438603029784, 0.36220978168662954, 0.4153056877326494, 0.2891098014751907, 0.32056215041319847, 0.17297983224669533, 0.4126583075835777, 0.45986400525613114, 0.28954476730230383, 0.2924099718753067, 0.7242856368352107, 0.7060130252761484, -1135.336180776216, -2131.4033992016593, -1257.4947049607456, -475.8090602347607, -113.69074548447132, 198.47851554622082, -1718.9084344000566, -1314.2895527594937, -18.656710463038646, -412.1735925568554, -889.6616680293354, -1297.1751123870804, -233.50935259532133, -397.3745888524862, -266.93913321834657, 0.18407549306013793, 0.650437814991603, 0.6387654083872947, 0.35922077636320227, 0.5032008372922468, 0.6647717124141982, 0.06664442251699443, 0.221320779224509, 0.6355614657964205, 0.258943778271045, -2041.5112949008728, -1531.3229389598625, 76.49540703576494, -2088.7914381669525, -4035.1263879386524, -3023.1300590211945, -1863.3133658247862, -2193.980342165514, -2558.08302449052, -119.62579648037051, -148.06393769727885, 2409.3018274059186, 619.1038820996658, -4075.0376887377392, -4833.552353972775, -1209.554606352074, -1640.4917613749526, -2355.6750116309727, -1052.115557347098, -322.0491393100643, 0.494430258756442, 0.8933099120159678, 0.3210856510778307, 0.9970571609410296, 0.8002913844884693, 0.35017550886361015, 0.23756551375161306, 0.41936485097620246, -2325.338649427261, -1736.163818720096, 406.69168678772706, -2070.0798594658845, -3078.57720628901, -1977.673255572726, -1486.7840610590695, -1497.5485327423958, -606.8244594977429, 2582.2066896486867, 1759.4930972367445, 4209.918455560665, 5705.699176764656, 1849.0413285448833, -3701.5976716691257, -4654.707999935744, -3648.4836532729564, -3654.0608268156698, -4292.791403254825, -2911.5193985442806, 0.2291933801987398, 0.04482808267933713, 0.5218610006445401, 0.4700129408501008, 0.5234696515495568, 0.43130885966976196, 181.31533505738682, 360.0465113104832, -2216.756989165219, -1657.8996492225983, 1172.7736081339738, -235.96669997883464, -1960.143635730943, 967.2179484475937, 2144.6932975078716, 6961.662001822027, 3825.59225505867, 5774.027801995587, 3239.904500475354, -1956.8406107399146, -1752.4620485211103, -1678.257421742218, -4268.1238583337245, -3332.778432641336, -2614.96961590649, -956.7616450019249, -1071.1561687658793, -3691.6816389021856, 0.3198859120469363, 0.5440036383765265, 0.238909717125255, 0.39797508407131965, 0.7803280906062973, 174.27948137186826, 11.746932305297149, 242.55273319830178, -1835.833612327357, -2040.9256471034337, -1963.705042398288, -4620.168891706877, -3428.469572351423, 761.7079459204265, 3621.4881823651554, 9949.825834593013, 11523.229736028537, 11179.125876855916, 11219.333610802521, 9804.467023999207, 1806.4840645230554, 4155.831401914829, 5379.6230571849355, 9020.19957350352, 3911.767889340842, 3471.8449589063066, 2489.043898644145, -921.8380015031516, 0.13090333458420866, 0.8555005345306592, 0.9478364873499224, 0.33725089850239576, 0.4876415524584983, 528.5189527138756, 13.08791615340056, -542.4015426400643, -3202.9881979640013, -2586.7377024687016, 1396.8687954172126, 1729.301425661699, 3555.29478908978, 5549.354410607536, 5105.2433701589425, 6395.5150616108385, 11477.84825184155, 17044.249950259396, 18060.92177406161, 11824.535894983914, 8107.179082182704, 6553.796798146678, 7311.751561584576, 3345.9759558219516, 3167.19809839891, 2882.9049477414974, 277.1106439351584, -606.6242334049773, 0.010798003160259584, 0.6731113801305244, 0.3781212026847166, 0.5423544199896656, 0.7586018492458447, 369.3554336546618, -178.2945977998511, -1372.662905168202, -2307.348368547609, 1216.3962861683137, 2062.586080748049, 1057.995507269425, 2437.0465570480587, 3614.5295739220574, 1245.4177041665207, 4405.69438831412, 9869.13703538546, 13013.883493183244, 11352.034726923657, 7341.658211056912, 4640.698686707815, 2600.980013571006, 1032.3913657582746, 2916.924766070018, 3816.848154313092, 1980.6723664708793, -20.798324845629278, -338.07337653998, 2.713122825693124, 0.4503105631283182, 0.8764059305205681, 0.023681632446540646, 0.4988364387411377, 7.939761072642061, -732.3074948329338, -464.4981476073495, -1302.2867930805028, -917.7275611582357, -1299.174396595213, 504.30136963671555, 4547.7969142390275, -1567.0898795319144, 20.03039359171891, 2301.1261263154083, 5393.115356393605, 10957.923245006721, 3800.7286915114614, -2215.0534213075575, 354.8674233236879, 254.453534739591, -1083.1695478981474, 1986.98994630059, 4152.012618909464, 3410.04765437102, 215.60324407124799, 675.8460582086976, 1287.6326392711353, 1278.8640077822836, 0.49857855876593415, -119.93188483216238, -182.61141843137418, -240.60690526700543, -417.5227234679939, 190.72666079192774, -2257.5854282564387, -5116.016389126846, -3352.1818711144165, 880.6174549376425, -253.64118399892098, -1361.5125139428924, -2562.3750901428143, -4038.4387221732222, 306.4128575722162, 931.6945812703564, -334.11486305598464, -888.9896356021333, 3314.3158246911867, 5517.98828086865, -2344.439908912286, -3300.596978441799, 2370.403905213703, 1537.7996437085274, 402.8549013561159, -193.08136059279747, 538.7178022971593, 538.6702402128835, 0.6245217657253582, -271.53048969275324, -270.80201557705794, -860.0799644152042, -1181.701980189512, -389.3541183461641, -5413.4321667628, -5808.178859730293, -2902.699153898782, -1704.0712196686432, -1451.6779667444475, -4656.6170372722245, -5317.328805728836, -10294.665405974309, -3239.637498070165, -809.5405235041208, 653.4733260159474, 2810.6711284312355, 5198.587122418769, 3150.740188456751, -4186.97431964662, -2328.5992812978316, -1802.7372926763103, 1103.5112845397107, 968.1819559773395, -52.82419192297421, 0.744820223054732, 0.2579301674618, 0.7733738170446431, -166.59692850610878, -166.08668371652746, -701.2423903720412, -950.0392613055908, -590.7711594113091, -6449.491756295207, -5343.722754387753, -989.9446757117606, 2772.377443792222, 191.10165538228708, -5799.952296293467, -6340.076713532363, -11511.79837525726, -4354.211365549419, -1784.46184766095, -6429.892380323764, -5669.511542815026, -936.1222919249306, 2639.1275995820906, -2042.4600515229847, -3790.4436249507826, -6522.654223780321, -933.2642432344078, 797.4502672430041, 225.95224317991384, 468.2791761045273, 0.333555757553874, 0.31480645162877063, 0.46721461820843835, 0.7341538410186111, -392.9480689524426, -1299.5283335204958, -2207.302423894705, -5008.545633154971, -5333.421656317699, 2137.7951098866315, 5784.79551313751, 4309.230857967683, 209.50878747389723, 5114.498067147532, 2369.8763824871644, 4026.39103239584, -723.3787422657385, -4913.042570193032, -4563.302751218403, -2451.053119948667, 4123.64901683959, 2507.86663313073, -1450.1466981636913, -3410.893097267194, -1543.6680350646361, 2449.3840492344953, 3050.636499666462, 4366.8146243409765, 0.6595933009791745, 0.9123607338453551, 0.3676360689665312, 0.3430972803647804, -85.71206508229481, -3067.5863206082, -2281.5048782314325, -1898.7800620763985, -8356.03097061251, -2219.3104341106914, 5971.840327124654, 1932.5022868723547, 4291.208066497623, 3599.9974070529715, 2570.1904329570334, 2900.852117363684, 2710.904665209665, -2835.8780116421494, 1210.2713302615196, 1374.0154320674799, 2156.5136905294066, -2912.1814191765916, 2304.9874716324603, -282.9435258504564, -2625.3038031462947, 356.04965384404045, 3391.108482391432, 2062.2086510411596, 0.06743056310578044, 0.8455515141872931, 0.3889132843016688, 0.9480453871958168, -1152.249838828927, -2500.4731324303093, -100.29173474426445, 2190.33860472983, -5525.55208714717, -3883.764534272865, -517.1183509668222, -642.0737399701766, 1929.2755409400306, -2717.4237153898234, -3631.7421381308, -7791.727345026423, -9336.566565567302, -6880.032669118518, 760.5492418038542, 6648.739377121792, 3705.343567975841, -5861.86123185192, -4958.158636715006, -3479.097912068109, -7131.685009134735, -2330.933298605369, 147.94956214236603, 639.1168657254664, 434.2771359400145, 0.2505559206842184, 0.28457347086067375, 0.0573885014787201, -1156.592639603945, -1160.3321314520613, 4757.836756449858, 1098.3506541972647, 714.1995892422439, -1471.331589383815, -3525.5962505436405, -6878.248569214799, -4046.7806696173434, 473.9134836429626, -7950.683543302478, -10304.81023354649, -8543.737484103161, -5224.264967453755, 3038.124740866372, 424.1825151834877, -4788.777840887218, -7279.93300347008, -6536.6360941176135, -4829.591012181359, -2689.4153503863163, 1019.1130842118453, 2168.866100685493, 2024.2938847845937, 1164.2506631390104, 0.31152036114073245, 0.999111475266616, 0.84780991609655, -116.71567133915616, -564.7741289175498, 4741.46690290928, 1629.9750027827872, 3804.831982379272, 1859.975905480139, -4231.921298871383, -10094.508437143362, -8278.792475769746, -4083.423372291297, -7957.827757946453, -2842.507071572845, -1157.1426843384684, 2777.8766829083875, 2743.4711825192326, -1247.6637544668363, -3222.403115565126, -3421.855918407204, 1402.5764392048886, 2845.886960843255, 4879.174063648083, 5798.526428005058, 2454.556194309835, 666.780018980887, 291.5906690334989, 0.30038249442585274, 0.6460389596935949, 0.8434578631781876, -1000.6714302033143, 1048.036797596498, 5318.942610367993, 1616.9644509527172, 2464.5575740012887, 5592.57308638513, -905.1932915243658, -7950.278595125398, -9411.343256846832, -14415.91425878177, -9062.169385459661, -4155.78110810193, -1129.9332014036013, 5658.966448928829, 3321.3406467557197, -2319.2642445910574, -6934.76792464288, -15.74478614238676, 651.7987938672873, 4720.816326988682, 6388.448219305531, 4279.873459767654, 718.2771385491337, 204.6610559405733, 119.74378861838714, 0.9548212219815866, 0.2382605959889852, -45.35004097058245, -1247.7399859896836, 1116.0064249798133, 4741.429933799961, 5728.786615963879, 4477.241797934296, 4764.144535804848, 5682.98319671381, 4708.0682376792765, -7519.279445545032, -10336.334863416423, -1321.3272900487716, -1898.1253432448586, -961.823310469442, -2159.2629095978664, -5314.33040384854, -7143.779464532431, -7539.259596613752, -2768.0671229521877, 2580.3481586005255, 4294.990272919404, 2903.516936815417, 1816.104016984483, 57.79950007471655, 18.526905209997793, 0.8650177646138456, 0.24286030747907583, 0.6297590658394332, -135.25990353743234, -530.8952009280293, 1220.0305694909528, 3277.937946927004, 6815.595617658986, 6565.0973679230465, 5121.900292850824, 3579.2097348350267, 5587.359006712173, -3865.377920233925, -3402.51272479623, -1250.181014195224, -5493.095360868129, -6560.7267290240425, -4487.763302696911, -4637.764861568039, -50.09787301659885, -94.79763619170491, 3637.988952405673, 4212.164130147786, 3189.005385443251, 995.8493310858356, 454.48830721354386, 38.035464382462706, 0.2680599357391338, 0.408177851272461, 0.041264081690522536, 0.840909901654129, -404.926992193263, 581.8078863129251, 122.48287129945949, 1861.2084005850704, 1962.0415246705954, 4993.4847234494955, 4309.3694100578805, 572.173292570857, 1821.0693453632286, -536.9775166042804, 781.4868377685925, 1542.2408711298565, -2035.031685996214, -1937.9725871537992, 785.2057035160568, 5265.998267956114, 9975.235139498393, 7196.601094255805, 4760.145610141809, 4242.43646373186, 1031.3839697281398, 454.22561143774226, 347.33564929484095, 170.08652930457407, 0.5712580374333063, 0.4656984709470985, 0.9266330462773372, 0.9732508836755366, -403.07517814684496, 245.75105073240158, 813.2525623794442, 920.0021690428417, 2240.630851778305, 1393.453568079471, 2753.626281033291, 5670.448177297272, 8718.691150948063, 4347.254155205545, 7863.950445217819, 1778.471309212378, -246.23835723920897, 5403.798407147548, 4704.539052807019, 3271.2689218242517, 7857.816305911384, 5649.839759507958, 4140.744512786665, 1306.704448924678, 514.5684629486547, 268.5073392532998, 272.4351205962158, 113.81905937353655, 0.4563216535962298, 0.28923184936168134, 0.031248154626824176, 0.5049508152319867, 0.04145644415890304, 1.1663044090162713, 343.7955487687219, 1041.2300109062312, 2824.1768798017133, 1538.1324518746706, 489.16765485583363, 2001.0618959294152, 7239.044037707695, 9859.787811052523, 6493.070630332654, 753.8405347792822, -1913.6748937917744, 3728.1250790584745, 4363.977363534589, 7473.430005494339, 5972.06099402328, 1085.8333791019325, -661.0145683554882, -1435.2756530872327, 106.49829613183645, 15.936076071922463, 8.609190317567698, 0.8368253952966618, 0.6710042976202545, 0.24993575062145912, 0.96797469528617, 0.16012574617308528, 0.4054467458212847, -303.4706913717586, -342.87062218546674, -131.23246074527393, -223.5560979731678, -3127.4931487393505, -2771.781239653728, -1759.1027299567218, -495.43100524694694, 1450.9698325032837, 2699.0050392621242, 2499.364805979807, 1303.5926263049755, 1962.8054837775153, 1709.2614242419356, 3029.2312180436893, 4110.253236729492, -588.1130882197333, -460.8206725412191, -132.10296947055002, 142.99240557960997, 0.04983051276435846, 0.9587332666550968, 0.3109547180456699, 0.5384063219249045, 0.7019836054903423, 0.5100154599215501, 0.36601406593961416, 0.13299754111310236, 0.9603010446065283, 0.8596891214056676, -409.05075961533566, -225.04580953411136, -271.69238838605025, 477.4131388283479, 2046.1550472508475, 475.380352501828, -1446.079118352701, 628.4780364228827, 2635.6156879021, 2816.960933466213, 2371.6920495470035, 913.7525493971538, 1153.622244974825, 1140.654166343631, 197.8886120696372, 67.27277290319223, 23.32921973133612, 160.95706889679286, 0.8025394218882659, 0.08378471427794743, 0.9791110753112279, 0.4234750736739392, 0.9329581099122695, 0.32870908231061546, 0.9225946403786491, 0.052531743606117565, 0.4732274239665585, 0.05692409066756121, 0.383122364336708, 0.3231470111151521, 56.59026255098624, -189.85212831233335, 485.17970129538406, 65.41278428277654, -347.4870808582935, -43.77301078756344, -559.0379272308452, -970.6970994956457, -1647.620742920431, -1496.5978085029694, 129.6956108120363, 492.69319278724697, 227.00243474606805, 190.29205843431487, 0.2938059642112789, 0.6907077124985815, 0.9947230161279197, 0.15570823375573106, 0.9386625906955062, 0.2555690521914761, 0.7136723045492188, 0.4198197427545116, 0.367291592194842, 0.042414161218535695, 0.9584178966886416, 0.36612051650245525, 0.45934242697172745, 0.8237800146139591, 5.501829768633787, 39.827295950013465, 0.2598538153701512, 0.31830552766045705, -30.49265144939859, -25.258835083570837, -159.41191352483287, -189.50757454401298, -171.33685033707133, -145.90818928250712, -54.482941253724704, 0.7041786731920345, 0.9496027987507872, 0.469695338994199, 0.41426174875947275, 0.6439730425565728, 0.8630148747682401, 0.2416910343924854, 0.7071212729702758, 0.024019021373458682, 0.48912467012160243], [0.8598386499723588, 0.834442117283764, 0.14890879011150826, 0.38584970960268794, 0.32549001397451605, 0.30659900435861764, 0.2910877584106556, 0.891053752593718, 0.31069315964934086, 0.7301920027921581, 0.6223452466461191, 0.7639749027889479, 0.6190817065438384, 0.08170176700778253, 0.5215402775906121, 0.35091862755668557, 0.9026055833155764, 0.8826056733609627, 0.09165808359806915, 0.23109904442544815, 0.8287113855886762, 0.04035090047683665, 0.27664885143107387, 0.3018699030286981, 0.16733444041211865, 0.8521948028717519, 0.008437556180697747, 0.7371372526833763, 0.45187684058174193, 0.21903496192006267, 0.3352738968173291, 0.23332474468519038, 0.29111310751057073, 0.22253969789361028, 0.5895969639925505, 0.06016881720536027, 0.9879441284383759, 1090.373777400475, 1305.4126044418322, 0.295087903690332, 0.8684433609018736, 26.604951161229316, 359.6404511227662, 167.13378621497026, 0.3397275417618988, 0.7783142430642903, 0.7538189809779118, 0.15715216579105118, 0.9446417410753517, 0.8896297821061261, 0.2349111775967958, 0.20751354901029218, 0.10166082372107377, 0.062099537480687195, 0.5105432174583052, 0.4198913357101417, 0.9856825669149573, 0.23914281835243723, 0.30259717946633946, 0.6022679396336168, 0.8997033296967589, 0.5818384573754046, 0.48699515563936524, 0.45694879949396916, 0.9467366235682736, 1787.3069758389959, 2869.289478484528, 813.4124104823472, 760.5416158937943, 699.3760238577311, 360.54963195361216, 3283.44597835776, 1998.9196048648812, 6.672444908435668, 203.28597528883677, 514.0580320330563, 740.6146495511218, 276.7678456403044, 328.0068939999585, 201.0346200691792, 0.6053805920842199, 0.45073207615709976, 0.46363732693139803, 0.7115351252931708, 0.6220687099396334, 0.4540637166172754, 0.158179240925032, 0.6880679961559959, 0.36241714100552447, 0.5491892670532736, 2773.9581397230127, 2080.001182716113, -187.69581437511798, 1906.3465534095528, 3044.850747278244, -363.3294923909997, -2869.609537697498, -2699.8922758747885, 1873.764061841271, 446.1449829248577, -773.466942304308, -6059.64213693562, -5338.298124852206, -206.57053153547085, 2367.862023018622, 897.0540573371678, 1490.0895014479186, 2121.188251228486, 935.3001184660798, 287.33609588335537, 0.6973858267760996, 0.8052711040913312, 0.9519003527982065, 0.4785087849587313, 0.8568941439911325, 0.5505645882860726, 0.7253720510917868, 0.5915254620759376, 3159.0231653274905, 2448.396333037777, -534.1974956041136, 2217.2963994941483, 1299.5204674974082, -2519.591457063247, -6686.612681362808, -6492.142851559821, -2003.4737176634815, -7300.380203491166, -141.7729744227013, 862.1257179234539, -3709.8864320810676, -7135.047907168293, -1972.9397289797405, 1416.4296788112392, 2636.082916156191, 3432.6998604937207, 3811.5411399218033, 2586.572041406422, 0.3064990162478337, 0.08841317895404488, 0.6699681726804273, 0.6233094359028609, 0.2531029117196495, 0.14730679283911974, -67.28846712109898, -124.2184550049688, 4089.8509798343525, 3831.2726192986083, -3745.1329558800485, -3457.198433905366, 951.4315193238086, -2374.3497130562573, -8730.736694315181, -7675.776081626384, -8825.950384510268, -6426.70144117546, 652.2148434949296, -1514.5118912938567, -411.26656543889504, -2007.8622981107296, -7622.998221037382, -8250.268087172637, -4667.9627082695, -897.5773867399386, 682.3580978184616, 4371.442043151925, 0.8045841266243294, 0.2599855819946387, 0.2506135143001863, 0.8735225979853954, 0.34737906548419684, -57.738714740965676, -57.23391041759517, 1084.4635437141612, 3894.0883938538323, 1395.2541717711022, -4617.98752442282, 863.451860254051, 37.94067320833521, -5033.8893189761175, -7794.014206218157, -7046.697328829763, -2429.5786939614704, 6425.177849784989, 6511.339165141479, 2782.7901565714556, 2467.0292983079935, 3463.8505542711687, 4537.019711909083, -1834.8011674741153, -2011.9984443618562, 2255.8275762073117, 3876.5228806248874, 2747.884092903947, 0.09139907030694616, 0.5641790719621317, 0.38421480464341706, 0.03446970270366634, 0.4879999929772897, -197.0555595684261, 1827.0557998393908, 718.8019983067085, 936.206981970689, -2799.8823790164956, -4696.598220433875, -2275.1198139923326, -2470.726297508515, 2277.335152670569, 1630.8181919319172, 6021.581419199336, 5735.643624879952, 7865.797419025054, 2359.2045824964007, 133.3415664656647, -2854.986048535459, 3780.9178066660443, 5294.833038784027, 7946.872287559383, -1236.375261580222, -3202.633860283138, 708.1697892464736, 116.53254669502604, 0.6963439155483295, 0.8022931117242245, 0.04956590629401014, 0.8546305550468491, 0.6982029930799429, -128.041917056102, 1012.1573221775149, -537.067701783427, 3017.877563484118, -2228.438257455977, 2519.971633768038, 6201.674875579681, 5288.041707284932, 3041.580432590042, 2531.2287111418286, 4810.6722122782285, -1450.6585577736978, 618.5308558193793, 64.26317380956455, -8312.329621467043, -7058.986463634161, -1615.7084461993527, 5233.326046529695, 4385.573309146731, 1839.5166893002388, -1141.3949578490744, 1097.5334512760337, 1847.4097925411156, 8.40376028460721, 0.03446223850907959, 0.443023385032708, 0.7100554451227351, 0.7697956104716336, -29.297239306750118, 2081.9961299360994, 892.9738022340343, 6909.566913412313, 5654.416376524496, 7838.020261626835, 6179.430012141919, 11032.80576363993, 2591.643085931241, 1214.4268044046785, 570.914614823333, -986.5646112312934, -6098.936849068202, -11427.261305903776, -10577.84450158437, -10591.211376111341, 638.9673764998051, 4072.8960568408656, 1368.0103249247993, 1173.7538162178164, -2488.0078016586153, -582.9348433480644, -164.68653555281793, -677.4501447855027, -706.2279273749551, 0.0010007132197887847, -53.23199573729385, -81.67910658811745, -151.87501358523394, -919.0556606035026, 290.4135669657471, 8288.967356302197, 12805.58111563751, 6768.150319159611, 6304.972174592143, 13556.261327170841, 6632.087995668493, 10593.388263803512, 6426.330181846393, -902.2480433411829, -9524.55468771189, -13428.071225315121, 