{"inputs": 784, "outputs": 10, "learning_rate": 0.01, "model_compiled": true, "layers": [{"neurons": 80, "inputs": 784, "weights": [[0.16720492985770324, 0.12916620094785208, 0.19515418122302325, 0.163705037221973, -0.06053843168684864, -0.20552007011828188, 0.24927473004615697, 0.05130973627426065, 0.033313211170102164, -0.03265866277486363, 0.22092784878855476, 0.08582610827586093, 0.027447842989128553, -0.14904321415576666, -0.04794034712951137, -0.4854753026691744, 0.2375707868380981, -0.09824497678909164, -0.17513338907390436, 0.07235378688934392, -0.04675412258245606, 0.07891100766014036, 0.01016290501570358, 0.05196445759037218, -0.18105013516399387, -0.4015678759936188, -0.032194394294423404, 0.01891351590814909, 0.2550999295798158, -0.16745298512948412, -0.2658207119415406, 0.037263090393518, 0.22562229299127476, -0.26372407799107656, -0.19027437170864392, -0.038219385795981796, 0.12355502153153261, -0.0376743684520675, -0.013407995089247816, -0.17065673356305128, -0.20973834043208087, -0.08789647818335662, 0.07258113489581709, 0.09931277911985514, -0.18493405301525284, -0.014661183830608196, -0.06220307291412947, -0.04585521970221883, -0.05007097378046567, -0.030673863084142966, -0.14081821924931534, -0.06507134393498772, -0.4134911963890665, -0.3604792778311729, 0.044184703493459494, 0.0006046581864660084, -0.14129901365552872, 0.07858558938702381, -0.18076256373267646, -0.2654805946470359, 0.0719630858616544, -0.17894631747213902, -0.1734972745317064, 0.12172591298933205, -0.09023135160036377, 0.2005808421885189, -0.13077477131822518, -0.04840309438391787, 0.16356812207126217, -0.2893900379293495, 0.0836752800074006, -0.04240256624101286, 0.12436662922227941, -0.15470903983908205, -0.4378158819862862, 0.07097062642858175, -0.2824702099545439, -0.21696983626932587, -0.05794928718921728, -0.007403134136829639, -0.16310754173155542, 0.2281092107118813, -0.05533248360755198, -0.02369105969385802, -0.0448008614685919, -0.1860036518443834, 0.0053100218124004115, -0.19283535116916697, -0.06827726184408578, -0.1439968292929128, -0.19035277785811994, 0.034276937387323285, -0.09129273276150283, -0.1386345983757363, 0.3003340944643997, -0.19001011365375026, 0.04746780941126075, 0.10656590771798254, 0.14513845768709274, -0.10759803035841195, -0.052103629774348674, 0.028661161735814514, 0.09463013137853202, -0.22682791655425533, -0.05950380832476749, 0.09853011375362873, -0.24735856146343344, 0.04308899172010926, 0.04398326021994101, 0.06008323097218986, 0.10658810928382444, -0.004969494152080271, 0.13280195821415144, 0.1791471003434991, 0.15920344369614178, 0.02340020065307352, 0.1774551711155031, 0.09327264296455827, -0.11118107503167748, 0.027174957954788262, -0.0157743666682359, -0.06281624775415663, 0.08511237923603156, 0.23951367235150633, 0.09837959359129157, -0.07325362862606431, -0.2632448175765377, -0.1292406942223326, -0.3828958048658818, -0.15818719045996638, 0.0006724623246906888, -0.08477998457659869, -0.14412619280630792, 0.23460184071500484, 0.07909511904675699, -0.11223988796859444, 0.166295066453859, -0.20833965726496492, 0.01053810896294121, 0.01721265219360432, 0.037746919535860596, 0.3176631686816874, -0.11721912406014408, -0.1648483259551609, -0.22061490694453145, 0.08451971817781613, -0.1166501487005803, -0.24106586085106538, 0.003308109602815432, 0.1485494755958025, -0.1538746124664653, -0.08305122353337416, -0.011375261209042047, -0.11364576690209083, -0.04337372947731406, -0.04783832561704047, -0.04931228861992874, -0.09516540050022886, -0.06346066560344754, 0.0154345009322979, -0.20433710725564766, 0.030153022707519316, 0.02223525126479931, 0.2992594620268495, 0.08296083314822247, -0.08997472200221264, 0.025837752830350294, -0.09388851087522637, -0.09068606730315386, -0.18472747039475843, -0.053183949815978446, 0.08781590182548663, -0.04473094252281919, 0.10814818952445553, 0.008829207103138784, 0.020753179460673395, -0.1202993793026499, -0.1356566510867454, 0.02051459406114305, -0.1300716803966361, -0.04230967320666985, -0.04508301552565997, 0.05578876116493448, -0.021931991070783304, -0.0962567528199439, 0.2161717072776815, -0.13203991358124134, -0.0582458394789714, -0.1016545408891084, -0.02744818705027765, -0.1720123332217119, -0.0525114186003243, 0.11848871161663078, 0.05708332605299126, -0.02947220690055242, 0.17198541492164746, -0.15267640086502074, -0.10942503720484675, -0.10223523799421362, 0.2705817380694158, -0.19860336523090108, 0.047872780191419, -0.10938025263760721, -0.09757184153961658, 0.14880122703481788, 0.19870042541392888, 0.12337341239881867, 0.18541403766476827, 0.19965164659187268, 0.26590679236618603, 0.29015447772959974, 0.28288772870691187, -0.074740774177124, 0.399007186048792, -0.08261464498358008, -0.34660936609751225, -0.3150296362903095, -0.18800630712830657, 0.08164467970048431, 0.29800043546478266, 0.05162660894330823, -0.11625100613040823, -0.04135920493743993, -0.051364577692399015, 0.1429392519448694, 0.09548366829343775, 0.14559528135247965, -0.08172752982389306, -0.09047010774986919, -0.014264376283031717, -0.21251510957645234, -0.14426218408611874, 0.062300794043206015, 0.1074657973135534, 0.08718788582456016, -0.11184453462519071, -0.11054768932194566, 0.017087357166851874, 0.04096635377514044, 0.03331603598512161, -0.1161496436519103, 0.014067166152786435, -0.13625468229234106, -0.22869369461028982, -0.002012546351976593, -0.004006313780455207, 0.18093921146343153, -0.12237453913965213, 0.25037543066594853, -0.14491627316193245, -0.0011302855218957787, -0.2641768512378258, -0.05762991837128227, 0.1023122087356863, 0.12090440952322416, 0.08398370170796193, -0.003932639874691231, 0.10206695369100764, -0.056703112641540994, -0.13219339170486272, -0.08380850348887685, 0.37520519539015645, -0.18009083783641697, 0.3257251775063945, -0.0012934582874300328, -0.022218403182176685, -0.1045013405488978, -0.08803052653590124, -0.0518367010872366, -0.12794207005563474, 0.13188218460270096, -0.22930463556022657, -0.1671266726503072, -0.0916489136543799, -0.032197849798131846, -0.06667892690387503, -0.0919738966429355, 0.004310782455984067, 0.1444552217296928, -0.06422916159040201, -0.08012573603555243, 0.07109346395285475, 0.048434389017728376, -0.12766458398512648, -0.06037394346483271, -0.0820060915592041, 0.03878121127576272, 0.2090226157308021, -0.005236019322623515, 0.16916602121879626, -0.06339690409093987, -0.04910659112219379, 0.2428218362455951, 0.08888605536592495, 0.16652292301801092, 0.07630585626181476, -0.08964453192523134, -0.22363024239289658, 0.015286259003345423, -0.2204987953144878, -0.05223403129319731, 0.044269011351805984, 0.22185167255692953, -0.028358494042335584, 0.11333248614563482, 0.12877878916469043, 0.12982149931502776, -0.06571293141295487, 0.02156889969189078, 0.11384976700101912, -0.04638319365969364, 0.033399330561879666, 0.05215424054131668, -0.21686827421942767, 0.08780168621379464, 0.02078569364268789, -0.08848010053844921, 0.2837288062685122, 0.38541339357567833, 0.12510986818540146, 0.10574136225832173, 0.3580353293555083, 0.12321471595576415, -0.3028396308507535, -0.32627105740851553, -0.1345322897031712, -0.11924640544003645, 0.12718662596248878, -0.07652001592987816, -0.2567867274686459, -0.05286088522975951, 0.16759960204459848, -0.13127023127020787, 0.11431877002442299, -0.07443196887562008, 0.18223745771656186, -0.08565952151657952, -0.0974198019340215, 0.15021369910823945, 0.11294747270176282, -0.26709207772590354, 0.08391922369367888, 0.05744451332451595, -0.09074077680715477, 0.44699502918195005, -0.14164240594451022, 0.23315559707388894, -0.16928311169785348, 0.23640932078804125, -0.015567380972624596, 0.11329916128288992, -0.014492663204245311, 0.03873440824442161, -0.11588895938066249, 0.09407486113958556, -0.06551053214623942, 0.03723348894338706, 0.32000479275796195, 0.05701829796186663, 0.0962650834559696, -0.06276698025059504, 0.22826591902246518, 0.14632789762918608, 0.0524989440323429, -0.31076358573914326, 0.04236623776349238, 0.15673519876307915, -0.050081441569306454, -0.15001956401863126, -0.098192137298929, -0.0636477173218693, 0.041243221634616946, 0.072281679685312, -0.21937988609668876, 0.018961807005299064, 0.08263668390825601, 0.07830304352585783, 0.22735065000615862, -0.10860354610512803, -0.03789401597936463, -0.15612973039669403, -0.09735426376012926, 0.10437635886421166, 0.18719685162387167, -0.11867599132599542, -0.18494262936198952, 0.15361043450297998, 0.06400283290417343, -0.09648437407504838, 0.06999954257090131, -0.2308087691110258, 0.2211190793960678, -0.16482407597737245, 0.0926052724802245, 0.05513671679816285, -0.22049143563247436, 0.2115583295286839, -0.16368099954096874, -0.22111332490567795, -0.0069615745900611275, 0.1386881173659612, 0.2500565047416177, 0.306818255072216, 0.033165951840730346, 0.19061212094043745, -0.11722974608942094, 0.18665048890274452, -0.2734094070334765, 0.03615045234848849, 0.0961132023669434, -0.24655377754948135, -0.13654727178051312, -0.20719956845230522, 0.11181551634376627, 0.03433364939957764, -0.038954055764835016, -0.10735889621731241, 0.1292488657585973, 0.09922157245136386, -0.07778741985249354, 0.45279901688450824, 0.1103933181941389, 0.03417067668253106, -0.2051117327181114, 0.049423711422824305, -0.11996300274013975, -0.019603630013551237, -0.1435990802182575, 0.14150490720562617, -0.053347054129728864, 0.16004164888042763, -0.19713044087831, 0.16805908046209744, 0.14950119204415488, -0.14335472975789912, -0.1671338784927777, 0.16054576245175575, 0.017001540397004477, -0.012139827146921158, -0.165233247716899, -0.22055680658495222, -0.043587406620216936, -0.25451369479576985, -0.13392173741547023, 0.009260275468729637, -0.028069621024690208, 0.10578234152982607, -0.1396803079962247, 0.3277650894864845, 0.11837568900202841, 0.04344923040890036, -0.05844542136198762, -0.15397351134727005, -0.008088624298311973, -0.2782730174800003, 0.09624801758004992, 0.07988588720915768, 0.05221830703439794, 0.1594132086145244, -0.2421094830462483, 0.08732226705608578, 0.12273689341808067, 0.07492570921682566, -0.08268874159667867, 0.16672082113837136, 0.028048839205702048, -0.025282275778267693, -0.4595169769129117, -0.09482469009759484, -0.24151399481784067, 0.05974388118170244, 0.15164489432905506, -0.04550033798248194, 0.11062614915826258, -0.11612335809098225, -0.06477841512764336, -0.0620450147574259, 0.015831715173084265, -0.11905840337692523, 0.05710979805792474, 0.09200742071505305, -0.18793687215357566, 0.034563268847208645, -0.20001180733849722, -0.22759220304077535, 0.05971753002738141, -0.4130728488809132, -0.3678085366822249, -0.21506647160180398, -0.06119087846323233, -0.293102908551264, -0.2896041759059488, -0.3453739198609639, -0.10386105434846725, -0.031458740317803935, -0.2515698837502131, 0.16741301018379118, 0.01990594509012601, 0.3002489588329387, 0.22255407538252442, 0.06428092616394349, 0.26990556902751617, -0.024134183243366428, -0.08983692995273447, 0.016865184937708586, 0.007065665756049809, 0.11282110192516524, 0.20775968531203037, 0.07121910793554938, -0.17304608365413346, -0.17630027655582456, -0.14500351142699167, -0.22318734644774363, -0.22473208434778885, -0.23053084062992446, -0.16355385945058534, 0.11817881258869567, -0.052715687912223946, -0.019232028279641156, -0.014829856786900889, -0.2586557337844316, 0.03298491213190371, 0.16115122260791548, 0.13584973819344276, -0.07343733384568357, -0.15693595371700608, 0.111688963772644, 0.18311213672521717, -0.1538957852167833, 0.07410615165264367, 0.02427449168487636, 0.03359990983529622, 0.07891284565247005, -0.017917866636599323, 0.20539861014684527, 0.049554472717455604, 0.0993023465070739, 0.0919109553046946, -0.11345791735096888, -0.2236874640307975, 0.03626677300708673, -0.042790543964170855, -0.3015584977278184, -0.027702062888525784, -0.021960816596824088, 0.2885080182431956, 0.047352192894315234, -0.012413094166066518, 0.07529011708236709, -0.015522063037241164, -0.24825355606315064, -0.20476159348683493, -0.2046586590752458, -0.08060589970025576, -0.1686105669554909, -0.1641248666942073, -0.2131662039902925, 0.0798593879310204, -0.14343920836990795, 0.2057842320603949, 0.13640178964684352, -0.11645509414442734, -0.11383399904481376, -0.09675615362305658, -0.0013908922785424126, -0.2101092261289362, -0.2283302562931863, 0.04501729355934328, 0.2841206780490585, -0.08776295762813668, 0.17616564810310475, 0.06881443580522555, 0.2528198822419588, 0.3497573290233138, 0.131151670080238, 0.21832855220974454, 0.19061268208587193, 0.06823833780987305, 0.043295526578298583, -0.027687117881541264, 0.05609725770731049, 0.16782305165881986, -0.05611332641910164, 0.13149114490306832, 0.2595905565609944, -0.022275331951556843, -0.0007068049690121666, 0.07812019801580357, -0.0839904460721148, -0.17132658135405168, -0.008416859960997123, 0.04633580648516881, -0.19690867956350647, -0.13433111647724313, -0.20048205255375626, 0.03847275183796632, -0.2756357634870384, -0.01033427405174267, 0.1404768518378786, -0.1932395049146492, 0.13652094440578338, -0.01885994894205537, -0.04024947713606183, 0.09148852920080534, -0.07108842497757478, 0.05648767503520713, 0.13855065614969128, 0.15943826756599527, -0.3291965279979074, 0.12080585538942619, -0.006433723684670567, -0.13004193942200712, 0.025235661953181214, 0.1014155621300878, -0.003839287641228734, -0.26902798665427735, 0.09277033112043732, -0.5539624734183862, -0.12932622160925594, 0.054547112177850667, -0.19115376545708748, -0.23173779726274632, -0.012853151082839399, -0.3375450363150387, 0.022471410882709354, -0.20822475637278093, -0.04433980239111884, 0.03708082974545568, -0.034228901564394, 0.13514460020669947, -0.0032084765715061315, -0.04444822877390386, -0.06758939569243766, 0.11629142175560483, -0.262132345877977, -0.24126845664568075, -0.02888342891298046, -0.13622699208593023, -0.13556589265870672, -0.14165170424854856, -0.18870227228793907, -0.12661753387778937, 0.04410962277686684, -0.14640342289204944, -0.05661187081650434, 0.058441441189875785, 0.10742393155880987, -0.00617837242099356, -0.04363384276410486, 0.29199864039815593, 0.12052271812701103, -0.1650376900538693, 0.004924324400693706, -0.041699267500111006, 0.3802574814920598, 0.16648104685715773, 0.04543859504284955, 0.08537564881868077, 0.32346854451713203, 0.09512659372453493, 0.11195591313757466, 0.30275690111579584, 0.2590641755446122, 0.006120199948430113, -0.062160366827182775, 0.046850473143222465, 0.04343803971382652, -0.027452734793039436, 0.13843633543386155, -0.13339790516785904, -0.10140504161483811, 0.03548102915284743, 0.22660251541523513, 0.11479021901686039, 0.058790842297997026, -0.04643941383558133, 0.18333218555233732, 0.02482948534517762, 0.061229315460416135, -0.05714591888849939, -0.18194281220697353, 0.33918323398376554, -0.13348480117681744, -0.11050399814268626, 0.22505045508716007, -0.06818089866266752, -0.0302645523565625, 0.040214762985744695, 0.027485332194208338, 0.07701163252962921, -0.09308508560375192, 0.02924146532690038, -0.025540529409088845, -0.010131610616465246, 0.10615922297240314, -0.2544260136343385, 0.06939943445749469, 0.29777720888076853, 0.033695289520828474, -0.030568619887887963, -0.0876900544618118, 0.2403870080443307, 0.08309112427804842, 0.017971412757320858, -0.04899025780652901, -0.17518152376878007, -0.2225869098773428, -0.17892110624827495, 0.10763701198009805, -0.2144339090435642, 0.12868698501150977, -0.050221013397742036, 0.03447151566114426, -0.0845967502049985, -0.02125540072645375, 0.23374094000555662, 0.13198713855648686, -0.19130777794199041, 0.10231118203948966, -0.10954201492727882, 0.12753441846967625, -0.22537669763935525, -0.04327136075135533, 0.18051372141513158, -0.07781883163329388, 0.18885947382038812, -0.12904981974123506, 0.28868447809332676, -0.09577676182413003, 0.10963365472446769, 0.11765357791129387, 0.11772245108246462, -0.24492235196809847, -0.0865904406453416, -0.2302888703400179, 0.0134961869657216, 0.15145827803381043, -0.11672474064870025, -0.17646087113132816, -0.22203466956851203, 0.2061176725728348, 0.08734599382613556, 0.127131768481051, 0.13575881867336212, 0.1791187198370671, -0.17629284970304437, -0.1390834579263844, -0.25297164807925604, 0.08832893848277687, -0.10531273512901193, -0.05457477348550654, -0.03921853745644903, 0.013212795249251461, -0.2102968623552521, 0.212873495708724, 0.06185631076063438, -0.17574028288253346, 0.03138134578646541, 0.02439861660611263, 0.035288724249319635, 0.17772407291399606, -0.018263206225952837, 0.17644853765893748, -0.06624716968776607, -0.04484439252459551, -0.17135994036129548, 0.2944411269951787, 0.017697435130192715, 0.1632649960725126, 0.20373132461455573, -0.14038297633073415, 0.25445219586701745, 0.28921093101742984, 0.0009442553626233607, 0.1366323447963484, -0.07328466699622567, -0.025561481108043505, -0.05378829114357235, -0.15098907594553956, -0.06924344988167926, 0.0031423819535076813, 0.05844006906623286, -0.03661690042556889, -0.27579717701935147], [0.27803681868065466, 0.06625435676742404, 0.22204174585070852, -0.013281546538286875, 0.07439634796380194, -0.1835179134971145, -0.21457658269391777, 0.15685541119384905, 0.2677086685495871, -0.11882967560669089, 0.21295620285993205, -0.22303055945494743, -0.18657496317994268, -0.10323152328080507, 0.09888887242069022, 0.08215649185297146, 0.0792110375954849, -0.13505950631337488, -0.07492547897442943, 0.12432206762152606, -0.012580798457647698, 0.14892026439579192, 0.06964464145938809, 0.034094581336939, 0.3331085365144881, 0.164562884094647, 0.04484731820363867, -0.06768608134681782, 0.13259670355073935, 0.08004089682900982, 0.11622653253919833, 0.1472062042137853, -0.01817090965136316, 0.16092882253332672, -0.13836425987508102, 0.03884116752581222, 0.2321211685489763, 0.15770367442523245, -0.13096142275533407, 0.34349135020974025, 0.1282066222567265, 0.12919902428232377, -0.15600111701206396, 0.13443891747787814, 0.0213981208560586, -0.012542443089795127, 0.1709419943355943, 0.11144423887589586, 0.13213889817776597, 0.20144775737626155, 0.10501435211438609, -0.025732866786884537, 0.2508368859698876, 0.11434091295572998, -0.0632749540609364, -0.17042187867534356, -0.028078429487045833, 0.03081970121379547, -0.22360036060382119, -0.22973903709646276, -0.04240467283642355, -0.16281754237035653, -0.23887430585063843, -0.20909262052107438, -0.4178858562441006, -0.06105597367058839, 0.13247060728598242, -0.10237902564006524, 0.0256942010408963, 0.017893390024085826, 0.09396809196808488, -0.365005655735922, 0.4226765157713185, 0.1665484745906569, -0.18981545312123566, -0.07145056813885568, -0.023078836120681023, -0.3978477448701494, 0.011724036178412013, -0.06538487085296259, 0.097104905805114, -0.2817001764928167, 0.0922408326480856, 0.4728982764681823, -0.2610521071481343, -0.13987734068726393, 0.013838836200999674, -0.08404166067755194, 0.1840358961854878, 0.1852168745107605, -0.0389891064534574, 0.053800751444233706, 0.01601904676872659, -0.06878092752203262, -0.12899490989840284, -0.14381004655817925, 0.07907139028357626, 0.39063429735034255, 0.04492424810652891, -0.008759301754873966, -0.14804122006626935, 0.059787574854697725, 0.13426354463852602, -0.22121743869664207, 0.07585015210097514, 0.16411660080790916, -0.07571584483828127, -0.1640335152683835, -0.1562914832995709, 0.0017039721079995657, -0.11911616329344343, -0.14538813338222112, -0.1351945564901952, -0.08064907315425329, 0.12821971619611086, 0.12844273221774316, 0.06653721046887552, -0.0459078678312711, 0.30840224677356387, -0.10244258207467413, 0.019939005541911314, 0.06458345962774524, -0.012721129886389158, -0.12413555726047507, 0.061862034948404705, 0.06263438590145211, -0.17994703014911365, 0.2788876646754407, 0.004423067602026394, 0.14298038273978092, -0.022986622005547006, -0.04444079990334891, -0.04157595038468104, -0.13540947935954603, 0.02904147489698666, 0.2233208778463199, -0.011274198141348661, -0.1936599255576662, 0.09972662633964173, 0.022258357221951845, 0.1480332028898871, -0.14462060789301148, -0.15306663506383478, -0.08253590790999825, 0.049652198645460575, 0.03717114820262364, -0.13488539996910098, 0.0011519927140394633, -0.07281778800391055, -0.20779212693988702, 0.14456591306954375, 0.0630118745695178, 0.27365692753764054, 0.3394707117501882, 0.11758284489143589, 0.09482472413385228, 0.020982879376488572, 0.15539563570184836, 0.07905032703291397, 0.1883454565023618, 0.28181443023018343, -0.2259083856789013, -0.08627613277899476, -0.1253888445720754, -0.012096099928157125, 0.09693675930500224, 0.09457034952954421, -0.337968415351998, -0.07381149510497197, 0.014970074356941148, -0.34388907394361556, 0.11180322305238381, -0.0600608564911256, 0.00898248940308274, 0.08242822002614958, 0.2883077124563276, -0.20737982161947358, -0.00213471006911982, 0.25548206348941704, 0.28231234676181344, 0.1411940377265618, 0.036809046896924665, 0.00041090625394879716, 0.07547564331202568, 0.015610900922182105, 0.25029881232953044, 0.10532203021383459, -0.015598312855668905, -0.030736263908661302, -0.0336207346378827, -0.08552171227061071, -0.08896523131267342, 0.10531125103756445, -0.11371711928156784, -0.043964358790042075, -0.06438332140187021, -0.19202221333665295, 0.05326701589856035, -0.07225004180254094, 0.039330716488970935, -0.2429374830706791, -0.04846763847571569, 0.2311717044441592, 0.02215602232969324, 0.33144111467689646, -0.31787194507363586, 0.09346246706904342, 0.022510510354334892, 0.011894835275159143, 0.10618832758460976, 0.2749707249529361, -0.06655110997546837, 0.23602958372226626, 0.02856273219862871, 0.2705951212894633, -0.053583277965635924, -0.07636976928131686, 0.2498365525646191, -0.1293054712464073, -0.200591257292815, -0.3254760817258601, -0.3139040256067909, -0.21916255017823477, -0.01651954717859405, 0.0015856303235718657, -0.11193356610564013, 0.2715127381820549, 0.09711442558511119, -0.015265394011105759, -0.44827333901981226, 0.021374882154862756, 0.2905606204711328, -0.08380589157250111, 0.0976319415522186, 0.24599637076202013, -0.2470004725222674, 0.1949157591808438, 0.10229608805076211, -0.05492918500887541, 0.181496107278633, 0.3376826447583467, 0.025441030073415225, 0.185810132686966, 0.12882651886581503, -0.1921446975879829, 0.09217116627001792, -0.043997926789686954, 0.0011117229944328138, 0.07274716619515623, -0.12395831474486493, 0.10974331684169611, -0.15307874807235725, -0.020179336528515827, 0.20703386413060476, 0.0886825132982641, 0.06425492119137831, 0.11904784366888034, -0.011137026987489581, -0.15105892833934437, 0.07960093164121747, -0.12637491272536902, -0.11380310869760257, 0.1020832715307265, 0.04186621933693117, 0.09221032071095486, -0.02967690253752416, 0.02773734049546167, 0.0443078064752499, -0.0020040603642057513, -0.09720927540606615, -0.36203171483142677, -0.20739609973952758, 0.15769594185960709, 0.0020807124785853642, -0.3480372103729445, 0.10461860130534517, 0.018502759131173534, -0.1884670738834806, -0.13093297513331156, 0.17387945705779254, 0.31177952851616814, 0.10013054079954083, -0.15199003203085998, 0.2405457390401312, -0.05715086364287061, 0.0076465189572853635, 0.04726795252337115, -0.0931783882417674, 0.22319950388173893, 0.25123820994202667, 0.013805573306930205, 0.03656868353316721, 0.20953799441500745, 0.09737871879689693, 0.1448522620491979, -0.4534871855559072, 0.2999964822019787, 0.0893199520478963, -0.24452088792634635, 0.060056083020975204, -0.2300075115811865, -0.27307361406503255, -0.16388197597351833, -0.13105825024704246, -0.10202680821139826, -0.11616582248065482, -0.0495718368070969, 0.1335433437262341, 0.014089297021324112, -0.2639775539893561, 0.0563522682253923, 0.02755787601721718, 0.040011481331394844, 0.06426835964787836, 0.08691001087655645, -0.15876011767747442, 0.033928698323285635, 0.38187955364392645, 0.20835243972397757, 0.21495130858198805, 0.14319128519901195, 0.07762507895846148, -0.2291502905801199, -0.18422296032244978, -0.18099607872199908, 0.16305211145196313, 0.25252271191917797, -0.07167640954681219, -0.2620060060904808, -0.15920818169604728, -0.0724410949537476, -0.028619076003881257, 0.27461423809943886, 0.13914985044847047, 0.024756143335273824, -0.028871794233870398, 0.3066971395469643, 0.07395278087873261, 0.09749530929853621, 0.3071095565021338, -0.27535554249828414, 0.2815793896987453, 0.09754543391488403, -0.06891127008211671, 0.1380825852798644, -0.17686476429411732, 0.05982238648217662, -0.17215570468910646, -0.12515433139629778, -0.19017005902181858, -0.14249231990669411, 0.10246280953986273, 0.028262045313275665, 0.1497352141573281, -0.1570895215341061, 0.040711193136650614, 0.2996745246558595, -0.05471049464496062, 0.10014103249383646, 0.051993374296412834, -0.2798275472659693, 0.03365901569127616, -0.07179059541178227, -0.024373344889979887, 0.20474101867141659, 0.016066484320743788, 0.13995407469444746, 0.12229818971947037, -0.025055059289710833, -0.09398368757584578, -0.11743350663397123, 0.12262631477411376, 0.2954617465891895, 0.35374457166307155, 0.1411057495583127, -0.22621663687997132, -0.1534627656403483, -0.12433893929569456, 0.25974287174717925, 0.12816148225413226, -0.038312745186155364, 0.11978673539798838, 0.09928327014890478, 0.25126739222597216, -0.017511203375072573, 0.04320341623233832, -0.32232561668977516, -0.11487902564078235, -0.03287228517903709, 0.05852163770669368, -0.09562110256865516, -0.023684059069353256, -0.17726305741280998, -0.1505073885767653, -0.23701462060759507, 0.17257911566515313, -0.1231704924293134, -0.19994752562851956, -0.10549745240873167, -0.04847101364586608, -0.0008516732682031286, -0.2749070262322582, 0.23032809587859462, -0.036146829075458776, 0.23014762256607946, 0.07852363294668663, 0.24723925953932985, 0.08147762020733992, -0.027840549482301448, -0.024150476809199708, 0.3971288311188279, 0.1450946297910081, 0.16264937317209024, 0.11065036726739971, -0.034955402859869145, -0.13092891354780276, -0.08167352761479361, 0.011442269209027979, 0.23465553438439612, -0.25084311774687157, -0.08892499926535295, 0.11293249329844333, 0.13453792209056742, 0.04892302544832942, 0.010204010594335398, -0.04892363584572181, 0.1936257896899694, -0.23624963327562154, 0.27395048006847095, -0.12917071077181805, 0.05583789130979361, -0.06181084190807191, 0.22722694509946156, 0.14345947113749222, 0.07306753914518319, -0.023258233961865927, 0.30065143545882, -0.3270775325573568, 0.09091282733442312, 0.29516067955596065, -0.013514545390743296, -0.06023841233400443, 0.32023495048053396, 0.07398121124265633, -0.28531521206606875, -0.2492152013582272, -0.3187106931472655, -0.03863056765404436, 0.16313242565721445, 0.11753217813807268, 0.14572790662373383, -0.034281780143913254, -0.03905396553571196, -0.1592890790597259, 0.018930501687038557, 0.04313416591240911, 0.09901886115212319, -0.18548901726877037, 0.3673530289058676, -0.047558571258137484, -0.15180092339031193, 0.09482953770279542, -0.11035264859228314, 0.23103581912172544, -0.17959832149818916, 0.15228169317594079, 0.09049042872278068, 0.03775405160771507, 0.17527397100905617, 0.012735724606023185, 0.18219118190581512, 0.30979733864278874, -0.17598781331865032, 0.28680392819542955, -0.07242061407457882, 0.08248207277982121, 0.2509762725432544, 0.23996338961618094, 0.16963345808970914, -0.10354541054703677, 0.08853663185694818, -0.19088565256678264, -0.16647445847566053, -0.11742694796838463, -0.09801523529378564, -0.1958446463203301, -0.10874692401771098, -0.21155134134242046, 0.035169957065449634, 0.034000022187285685, 0.1378474098308428, 0.2796539566381222, -0.12127952821137246, 0.030023270694410683, 0.019509285794496616, 0.15930362862318564, 0.066193584106957, 0.010396087349479837, -0.04410734634349516, 0.22698293547609097, 0.0395235065994833, -0.24416544795953407, 0.10957945511676626, -0.08249786299877881, -0.04951843798366475, -0.31630989362783574, -0.2156176032826278, -0.044641919678907356, -0.16847129839346986, 0.17232780496901215, -0.09597291379053466, -0.05313266055534958, -0.3274771124972101, 0.15248887545017187, 0.046915717160306424, 0.007363742374788299, -0.06726549907388452, -0.005489601759341263, -0.08452096052715613, -0.0042099544721478374, -0.16338368921891758, 0.3680092072699676, 0.193672690763806, -0.04631122423631456, 0.002682245133418242, -0.36144634008863674, 0.24358850116366468, -0.0937115656913269, -0.1577985141023717, -0.05267890298700772, -0.031588807907637344, -0.002700150749451631, -0.1535621186384449, -0.1531454992101648, 0.030289591012440237, -0.0716976524965062, -0.04346152911316029, 0.0441384107977206, -0.42115873761026645, 0.13473937809317058, -0.044360829168957575, 0.08394328001149699, 0.11109840949502035, -0.44085951064359885, 0.01710205735507773, -0.011749754480412445, -0.04431912363179041, 0.11416176407309922, 0.3895064381697688, 0.29780183552425277, 0.21854332742292493, 0.06528543348744383, 0.12336696049058216, 0.24110186353921823, 0.031375520722884846, 0.019480359208030755, -0.15320706970918477, 0.03685591529376242, 0.053458503418246164, -0.005936063993516047, 0.1311030139814407, 0.02451769305715138, 0.06488014539438325, -0.23908538139070531, 0.14243950773596273, 0.12414159677322444, 0.29362406423240356, 0.08551695370274168, 0.1382833767645951, -0.19908647237977842, 0.14904362396799903, -0.36687899068204655, -0.20034170772294468, -0.3007107284237463, 0.18582503098849792, -0.12002245520210537, 0.21099844366434758, 0.05750653677707478, 0.11580320682892248, 0.2536426950216638, -0.15094392770920648, -0.35385002650897984, -0.22759701122560355, -0.04406055946223826, 0.13189803841124295, 0.11859940123432856, -0.15597779607406864, -0.2500278042727893, -0.021970399129585202, 0.23617070619072544, -0.11442046885468664, 0.1125444293780096, 0.29342015400998434, -0.0800004350680251, 0.08147653327463854, -0.2994350973222391, -0.08561419939284345, 0.06784933178706783, -0.22178026277438836, 0.21441588844561033, -0.035582056483411506, -0.1989125399151366, 0.20859529981532707, 0.15525719404317515, 0.2605933169157691, -0.018826196331988326, -0.0017634696702522599, -0.13305209395770984, 0.022961498692935192, 0.18557235740006253, -0.11975980321973223, 0.005362466930224411, 0.008475722505309606, -0.1405290654206648, 0.07570311762059025, 0.08405241839829364, 0.09896636746512057, 0.29280330265823673, 0.06699182071575194, -0.10757695784324632, 0.05196754593043985, 0.17559141812704596, -0.02533166724190662, -0.08380961296475432, -0.1583555262685145, -0.1531555238691535, -0.08248693073220113, 0.11067585210266938, -0.18768206478029753, 0.29942602505985133, -0.14764653437055153, 0.13651980634097952, -0.08981682350295436, 0.0348384199430253, 0.044939560116973316, -0.027483592476789668, 0.45987843038818876, -0.03487901747676513, 0.010266339615143085, 0.30496056404447014, -0.282494434167813, -0.07570586001073598, 0.03717155950480124, 0.11453288657676815, 0.04382895638826473, 0.12875942871915813, -0.08377224835770568, 0.24394137288043669, 0.0171488413082222, 0.04671455669985518, -0.17444439215551308, 0.1104834793461492, -0.4005568253411226, -0.025795324226744517, 0.14531940334022458, 0.16164332678936513, 0.09860954427967852, 0.1916794393036527, 0.0024541016514494224, 0.14066578109197758, -0.17824917713292754, 0.03069832791198408, -0.06125391176981263, 0.19346070059824128, 0.0483406073439757, -0.26820399910946213, -0.03079216910889967, 0.0003791085755901998, 0.06498428154563422, -0.2922932727619889, 0.15568590631016396, -0.1626114204561599, -0.06722273657865725, -0.1004901704499145, -0.18413659752639355, -0.031947320721471814, -0.2136189296154792, 0.28906968754423573, -0.12179169452485154, -0.04562633232404689, -0.026600613077542096, 0.0368289383754534, 0.06739810846704122, 0.2893206353017689, -0.03135678153127798, 0.07904176996235944, -0.11139597151283084, 0.02044598894477384, -0.25135064919246375, 0.11667137760266097, 0.11210294861316263, -0.04972391420315986, -0.22012393108722314, -0.3170233207698396, -0.11998410196164719, -0.22356963387214823, -0.009846370912321174, -0.07299033852649202, -0.11908729581000486, 0.1441326628956461, -0.04275956097461977, -0.0732446532560488, 0.2066252483814674, 0.027258746789646068, -0.08895030992041571, -0.13781059431410134, -0.019920519657849845, 0.23670648147063753, 0.03745945135704219, -0.01593190731132881, -0.03266897989604469, -0.2311424954455723, 0.21846285386634698, -0.14858235749293736, -0.2046151058973178, 0.10495674476264508, 0.20813145920532086, 0.1671872872677296, -0.181436930740573, -0.02413600658546742, -0.019185853217357805, -0.07144287780659103, 0.2828481397654955, -0.0599751820231078, 0.16895317882898767, 0.0826602840064086, 0.02199619240756558, -0.10065620706646064, -0.01522754433226027, 0.20023551373547674, 0.013830577959063933, 0.03846727555725259, 0.021884444998833474, 0.05416625931122624, 0.06177290185429095, -0.029656576161287532, -0.022003929224414322, -0.10370731859293378, -0.08007882354541812, -0.02519869494659343, 0.2024348234717306, 0.17490494214272975, 0.034512930888783336, -0.07501121976732235, 0.20611536704802677, -0.1027197195533678, 0.209568104438298, 0.06008787712802883, 0.0043356646867653064, -0.1677997569695944, 0.21520917443709434, -0.1705980797903877, -0.2031924653056723, 0.1502495872657023, -0.1494265491773864, -0.10955255648645815, 0.17416054996369582, 0.007613920005251097, 0.04306108473944492, 0.1424477067886407, -0.11275758569059603, 0.206155598789798, -0.18694214881501356, -0.12619141780734075, -0.08822744055269999, -0.11274458385972842, 0.1750570161497046, -0.13989663176390948, -0.24771536439452582, 0.11723643341428035, 0.2637556175207736, -0.06250784577735888, 0.13489584749957104, -0.0492498695281186, 0.008038935291016498, -0.09111974542121237, -0.16380947208027802, -0.10848764035786908, 0.04075812564476888, -0.025121766826125127, -0.05051074209405524, -0.11829547831939226, -0.05821210416685782, 0.09338803660418872], [0.23612605274400109, -0.137634650749536, 0.09748451494830686, 0.06575377815709996, -0.020601107870656943, -0.11529158799603093, -0.053739984480404485, 0.06654930161822999, 0.20218158828596025, -0.17724347325466852, 0.26195013804697437, 0.026050429574781896, 0.12318016335007964, 0.0669227912060608, -0.16506988154067292, 0.2764437079888561, -0.06994153675206612, 0.3148487292845206, 0.004434800188531555, -0.19455318146816436, -0.26075759428484374, 0.3415235340165331, 0.061391972576751705, -0.011420053439069296, -0.19786948878461885, 0.11525148780929896, 0.0036124946630842715, 0.3677988934985688, 0.052326140024794965, 0.08485469962172908, -0.1136574996787078, -0.19730648121541025, -0.3129563871535334, -0.2932504947081153, 0.11295701192388558, -0.34007107818222637, -0.28255857683517993, 0.09521090823573092, -0.12327813540223957, 0.11794947203007942, 0.15550505920524926, 0.1324196254459346, -0.04622960773402625, -0.027658028272180387, 0.17425179471683916, 0.07123530319341737, 0.18205155029172074, 0.04795534437494842, -0.09987497537779594, -0.16114104362968773, -0.2616596433912414, 0.43320497757272225, -0.1325827290674172, 0.06841791570837195, 0.06403504222242759, -0.017533216686530996, 0.05515941386369167, -0.023039823524177896, 0.057430521347753415, -0.05382801785094275, -0.18686328980945974, -0.02777411309657968, 0.33394236725620857, 0.251477891970409, 0.30663211900367704, 0.08046019329270625, -0.0002878828075289499, 0.09864080898192586, 0.10667263744077725, 0.1487965549985258, 0.05479759461783424, -0.1452789949387848, 0.07313998100104692, -0.1796916895540857, 0.09819964776376139, -0.16329599560951838, 0.03546381436722513, 0.0848782229407757, 0.056464223705867345, -0.18061423026268159, 0.3865053346981673, -0.08505256054397349, -0.40576200927534173, -0.08688284525094932, 0.23850037391365014, 0.04239591747715094, 0.015685553206443863, 0.06713473621219823, -0.03196324652365912, 0.0037322366346242, 0.033967626690152984, 0.004350539652083246, -0.19526139619909946, -0.16031448367830883, -0.16971339940918753, 0.02848653707856898, -0.019397296367935152, 0.12380283629107923, 0.08902870620620433, 0.27089994508284215, 0.12108372738666939, -0.2586577212908969, 0.13753632481272632, -0.133476242885646, 0.14053213370241324, 0.1777647355346434, 0.18924839912973213, 0.18605775096153337, -0.29009085600590595, 0.04661223853468616, 0.1878499686367109, 0.13452608998675747, 0.150039225313169, 0.29975123610870563, 0.23440121571637085, -0.28505495269668707, -0.3105660251782208, 0.22268054081147914, 0.008678751423653283, -0.06250575680915477, -0.018243081641675683, 0.27661225888818997, 0.06974328437936875, 0.2484751672816692, -0.188743476818951, -0.1966361073112349, 0.15480139231974882, -0.14620572914198599, -0.10203469186489428, 0.37500431589355415, -0.03258162125028585, 0.030815385971365798, -0.06781495080863921, -0.11437754578273089, -0.011650589090335837, -0.06973425025837252, -0.28214294847709676, -0.13573640141356805, -0.09815475479354661, -0.06031540197869869, 0.0067157217278320525, -0.004684882976786455, -0.0493410065584921, 0.08503625009223921, -0.03209201328180294, -0.215843226625395, -0.10203749826574705, 0.050621662545496326, -0.35635085419596774, -0.11271806242726676, -0.2639199391684902, -0.005002773018790414, -0.23639169498666143, -0.01983199683266604, -0.21050041616414814, -0.22932537871395683, -0.18383084869220487, -0.06471238892281457, -0.1611628079966726, -0.2258017042354923, -0.04692820765110083, 0.2175024770410705, 0.24435608346182983, -0.38326882778332344, -0.17359329521767425, 0.16591270128384766, 0.19284528506198254, 0.041263729432558544, -0.0875041526047818, -0.060885161940056824, 0.17062169162295968, -0.022840145148036332, 0.22147535058203502, -0.09944036380659811, -0.08184258027875549, -0.3141625623686731, -0.06789431449550301, -0.177631441551301, -0.27152440305403874, 0.2783567387006883, 0.007130903701725, -0.05770379581245151, -0.27515720427049095, -0.0008113408203476061, -0.2997993649403621, 0.0024180784807109144, -0.12368515243191117, 0.07435842058211661, -0.18301020663163475, -0.06585190865588493, -0.2197849720418969, -0.2233951368286817, 0.07262973589913535, -0.16125527140179474, -0.22112118462878405, -0.38743281083879355, 0.1881229811682781, 0.01629839470333774, 0.12497164567274792, 0.26368065652347994, -0.15810087807664475, -0.07769595685467942, -0.17207880261710412, 0.119265714150041, -0.07821291322118472, -0.4597273154704041, -0.05321691340143755, -0.11038124033807503, 9.309485834056971e-05, -0.1497013518265331, -0.0436751102971449, -0.15015972695285568, 0.26245212091492215, 0.14395840032350704, -0.12334613974836912, 0.05648209173954459, -0.2206036537729049, 0.21662051995899229, 0.04125617858140898, -0.11481099841954587, -0.09946638157638085, -0.10141911061304214, -0.025094438363936957, 0.04482153850490387, 0.19454542980925624, 0.006980953830186127, -0.18768367905042682, 0.06759969150751502, -0.3139141635136825, -0.14044191853937787, 0.06910449932271079, -0.3126064261977489, 0.027928994671366166, -0.010970584617711374, -0.0972559804046086, 0.1320223007374258, 0.4010301313198938, 0.11236747184685779, 0.13260934781253025, -0.10787072230450125, -0.06883855542706309, 0.06758537559121705, 0.3144154903153134, 0.23395013289274, -0.32731754666296814, -0.029832828310572535, -0.04423100182771248, -0.2720515294341775, 0.16441231098897013, 0.2331489462808732, 0.04045594418297022, -0.00634128966425166, -0.028528730016159527, -0.2819729993480494, 0.07745245616821868, -0.028725049826637927, -0.03619164662545277, -0.062024263822637024, -0.088541490482417, -0.09215895570468613, 0.03300309534723861, 0.24458016455615386, 0.14239599507728165, -0.11207445978332271, -0.0643808334407325, 0.03597707436630047, -0.35861439319853555, 0.09030095032152172, -0.19233468118067684, 0.33128797193358533, -0.15459578022459158, 0.0357977035288811, -0.27993902284838024, -0.17065806841925538, 0.02305865265172625, -0.1376848006184573, -0.2807137097189982, 0.02809455614144785, 0.19319881274038023, 0.022961825722176175, -0.05169235194433993, 0.3640898963903422, -0.05664054849897124, 0.04933097277161833, 0.04774595282884548, 0.014277652739573895, 0.24990147880440902, 0.2395908861775767, 0.0886280615301289, 0.31434834691773833, -0.059228258156508486, 0.1460703460402994, 0.12303277968690651, 0.03803861601913912, -0.02598161346568961, 0.08830660373124682, -0.18432348489849026, -0.01600498400426735, -0.1258797856905572, -0.17413629377349119, -0.2102636407351341, -0.06364167656547198, 0.035451634161029824, -0.1833946248911578, -0.1771894509923113, 0.028024750957036076, -0.012091772917124264, 0.19349085714562952, -0.09050539544047954, 0.09047971203092679, -0.2668533082619751, -0.2036176549686055, 0.3493132123432922, 0.02455041742503933, 0.3536884371250379, 0.11833980622455599, 0.01617737856714035, 0.22580902129783345, 0.2207078965626802, 0.118744706487358, -0.10279731335914273, 0.046917288828921704, -0.2091268912524573, -0.2847594859641918, -0.019721028620184818, -0.16411003957358863, 0.1867663055953305, 0.03471197829493851, 0.1936602304906809, 0.0918822343622807, -0.015388028779115688, 0.42451358384073107, -0.028083232435074965, -0.10172698565901014, 0.05330419946661673, 0.08124000266347065, 0.2367011542992877, -0.14303448055440582, 0.2166634856040088, -0.035014006787285036, 0.16816110439142334, -0.14259708823467734, -0.1480437289815439, 0.3997569210368764, 0.18510535667227532, 0.04181405967720324, -0.06313792982790443, -0.011977322608537498, -0.12627035969491135, -0.3415940754313956, -0.08732378415008094, -0.08734208740780998, 0.03551545431550063, 0.21569077248101534, -0.11356026365882722, 0.27565685777766297, -0.03139526615646025, 0.3393880557214475, 0.24050880888077011, -0.001371849760353812, -0.1799734579109566, 0.3666854211957845, 0.024739632913705376, -0.1611027113272623, -0.0597652039811029, 0.03851216799255806, -0.0008163180479819636, 0.009261603737099102, -0.17792548963123422, -0.05046244008201475, 0.2725264503324389, 0.1878881358039583, -0.048461258180965194, 0.09813216240282017, 0.0021396917565816467, 0.008686883896592926, 0.06547003369669721, -0.18796814783402618, -0.19197099959803268, -0.2200106754904641, -0.14671225417534825, 0.0314452102976063, -0.3160453407037501, 0.05947399892148963, -0.07890481535780036, -0.24528661949505537, 0.028920803710147727, 0.039107323393393095, 0.2849853408501623, -0.03478681694088713, 0.160918507030787, -0.01653649079286931, 0.14450022165724483, -0.5230163652696411, 0.16435710302055906, -0.15424665136587917, -0.1382825868234651, -0.04910434468274137, 0.19357386911902566, -0.2524036161439896, -0.1764722997841224, 0.06033944378801499, -0.16124725323813555, -0.13642738238838317, 0.008933596780834541, -0.14671543455108402, -0.006459958525705979, 0.1931794764226532, 0.11288858174546865, 0.36006322268884194, -0.010360332974088447, 0.04797530467375122, 0.017927963040725012, 0.22280293706413226, -0.1646840907046575, 0.13413801980733406, 0.1817146030979532, 0.5533380338342033, 0.23443167773392598, 0.2426945442977421, 0.2952039092658881, 0.17776916754744312, 0.04128739189549863, 0.1680381819700018, -0.14025074946123442, -0.004288891215088539, -0.15459231867789974, -0.10482773520146428, 0.01490375143883261, 0.04179050741283733, -0.12868028109503246, 0.09740717590937159, 0.2510771932116011, -0.13824179772543535, 0.24988873799742828, 0.16856610735809888, 0.25928809222991744, -0.11510435614807993, -0.024646098498836505, -0.15374909379124424, -0.09616184734323865, -0.2909717482447927, 0.16366288366633705, 0.07580506009175551, 0.24479092328565133, -0.08711373915333674, 0.29939945995515865, 0.023676709708975275, 0.09796743081512775, 0.02949107129980717, 0.002302640835831957, -0.0040571073462065885, -0.033881646914846894, -0.02229906727026397, 0.16582887326938, 0.2660847992744011, -0.0926286903556098, 0.0574755812946633, 0.19796265675348118, -0.03811460903288651, -0.1768479740904827, 0.2985132320624109, 0.2915950331481163, 0.25706087001675787, 0.15122338505080962, -0.09064931294456206, -0.022408796690026888, -0.12767718570329148, -0.037180275541180516, -0.14583326726578508, -0.3010609460152398, 0.1362384996092542, -0.19787872626180972, 0.30119115056828094, -0.16530128799821964, 0.07199781343655116, -0.08048428301832072, -0.09762073773852781, 0.16606739570299425, 0.07481779529154904, -0.004830771980989891, -0.2214584890006725, -0.08735226996076376, 0.1281319622886034, -0.16838635693440354, 0.18330431764099966, -0.25909106254533976, -0.03486221480228774, 0.03298184297410339, 0.04660798461750303, 0.16227911778136644, 0.26360571667247373, 0.08971583651797306, -0.16886058140246663, -0.3687887393688357, -0.3772773246683343, -0.34288558580784484, -0.3063538736184669, 0.03061527331731427, -0.19400134088968016, -0.1695398902305487, 0.24806216463789324, 0.00201585724430293, 0.04522627832427116, -0.22783779682350047, -0.142190752924005, 0.05988149034114858, 0.20910515107898472, -0.29264926260863644, -0.02298972156346006, -0.3510137115737208, -0.25622635787432674, 0.026948728299469253, -0.19033296148134787, -0.21398714936879976, 0.26335032487848353, -0.09371575652336658, 0.05933348824223734, -0.00578392828653459, 0.18038434203822365, -0.10103520948706707, -0.15787707943857512, -0.10685458664553375, -0.09057737300064142, -0.12971832879253625, -0.28140436967627336, -0.25274383461260647, 0.08598436015199844, -0.30098118470045016, -0.1351839357764588, -0.14389612253968087, -0.10801592227883161, -0.04058872420882952, 0.0959049104574392, -0.03139956232416676, 0.2207208700325226, -0.20230097234405703, -0.1564548234255297, -0.48264136403999724, -0.3082325103721683, -0.12660961788742195, 0.01943125671489372, 0.21323454337037598, -0.14202792194728914, 0.007656336022874602, -0.07529516579954472, -0.21082563929667214, -0.11187123263036475, -0.07933990913365216, 0.10383334862778389, 0.09959787595085746, -0.15389057228078878, -0.14549082794748983, -0.34660116643749783, 0.18538748693108165, -0.08369026783073072, -0.0841454572004427, -0.25905537105101983, 0.03823419590730297, 0.021123472943764692, 0.15366341392118443, 0.2672117509909295, -0.45073844729064216, -0.025285355824250375, -0.23983700933198437, -0.06910836067636074, -0.15316202390864997, -0.167689282987867, -0.3256403602859524, -0.1868349898827622, 0.11511482918127121, -0.2204401455096618, -0.0921417728954168, 0.03752207006575774, -0.028004823620064387, 0.02175018318300761, -0.11682035742001441, -0.3125164244251357, -0.12104101341082976, -0.4838280008088479, -0.028520061236970894, -0.2544176892771844, -0.08319614482621102, -0.07718989819135934, -0.23523221062924501, 0.09026497533310258, 0.18140824019519403, 0.04047745095241981, 0.011025505940774305, -0.21719631862388428, 0.0030978232766549416, -0.33741264934039306, -0.0040947329407403565, -0.19710894237427223, 0.2220511433165989, -0.30844924215249436, 0.12366931328549151, 0.1746817831248703, -0.3175282132852963, 0.1390853479105787, 0.16127513621601972, -0.061318528327570655, -0.04550856009330848, 0.2961513443986686, -0.10497517714569223, 0.04607766535152471, 0.19960692398615618, -0.17881479410075934, -0.05326129949724869, -0.12178135515137574, -0.02851677515037901, -0.058214223220770994, 0.21058342429888594, -0.004189956594642827, 0.07921723037014798, 0.11217194709874709, -0.1273685021292477, -0.07569955913870152, 0.14872002268965087, 0.033991493742188725, -0.11514547094852884, -0.2834261427788407, -0.26405237429366507, 0.21878259888882667, -0.06057391529003419, 0.030280517214274588, -0.15155588109442622, 0.3037683169536289, 0.25419987943219186, 0.247197520877447, 0.0722158316454058, -0.12419564819507883, 0.2507027148731829, -0.1431630930187057, -0.14480969211893807, -0.36678141987219476, -0.05676987863135464, 0.008200866808904509, -0.0786531233058458, 0.1268100943390508, -0.053656134768383414, 0.2924878731266634, 0.03553969215972698, 0.31293232195658155, -0.2992746603993387, -0.16779938784775372, 0.15209370214050588, -0.05117941648166363, 0.033952565705802726, -0.08182615735591142, 0.27633631338537384, 0.10424981445568175, -0.02742499830695959, 0.429050819979793, 0.038964572677352545, 0.10801669483948782, 0.2726319928020444, 0.05156511672609614, 0.2972329177601822, 0.1098320089127405, 0.18742699565064228, -0.16701517424604015, 0.10439614090040962, 0.16613471570053162, -0.22347560155775759, -0.10856498992519367, -0.16644715857723386, -0.14179791465432115, 0.16414739011944673, 0.0217478132424442, -0.004797366172707781, -0.4574103141052759, 0.021308031896324364, -0.12461284808452677, -0.054071231967373984, 0.3820701929179369, -0.22982417115069706, 0.1506881874530665, 0.1825344810928984, -0.13459698976360812, -0.1467196080292423, -0.29030469336739767, -0.024377840664388674, 0.1880251823465732, -0.09282653689948533, 0.0015340503436409385, -0.09022452217281166, 0.22363277708698487, 0.15740471771126383, 0.08066204270697909, -0.08848707149165001, -0.0347849186752392, 0.07976940246928935, -0.18215967934194977, -0.14566455873918896, 0.08804027434900061, 0.07493869543236159, 0.1698552754880868, -0.0691749929042376, -0.0011863128891162783, -0.16176653968280605, -0.07107571893193708, -0.1304183115146862, -0.22742117782241805, 0.1857483073679045, -0.2663375915992842, -0.11386913867149481, -0.36177060558526275, 0.03998950822445033, 0.15125370486040096, -0.20295927032300762, 0.11775733399583457, -0.009057601062132346, -0.014526656894358968, 0.11330310839814267, -0.1341888500273324, -0.16510195781245282, -0.03588774478265798, 0.5097441736153734, 0.14916452989349308, 0.03754412313094286, -0.1598794080437978, -0.11052158330146225, 0.015356337390965476, -0.22559086820019336, -0.13326288370012926, 0.03580603973604273, 0.18246973380188786, 0.06814031662618987, -0.0007480770161801095, -0.24919341266169137, -0.12357165621512599, -0.18279577224487076, -0.016807003646565382, -0.3756096542144218, 0.04643056072089327, -0.11315297942391814, -0.024389927206496236, 0.18825453751763624, 0.20095085061393858, 0.012288165810550436, 0.11988574934164807, -0.12567668045138825, 0.2074932691993535, 0.14904990596516152, 0.3336543606831852, 0.19707772740736937, -0.18248889812073682, 0.3667299374076055, -0.07363824130295843, -0.03384514172797855, -0.31217688626071466, -0.2907528694620867, -0.04338436816247358, 0.20174640736347324, -0.17219448479591412, -0.009580751139604972, 0.1301183643666231, 0.007291002955726987, 0.09693932170912686, -0.06338149569314623, -0.01634478915760332, -0.29566311221225194, -0.08027129345032588, -0.08906599978231022, -0.21247730920138636, -0.08417095042009903, 0.04929084749709175, 0.2989079859835347, 0.31178347915097915, -0.24696712535194962, -0.06901088497318246, -0.13111360489161483, -0.2157055620391051, 0.10935813108140444, -0.19452927067299783, -0.0016971483979163044, 0.02769017889113519, -0.12984208114756837, 0.20480977767042594, -0.05181992409336035, -0.24554222998490371, -0.165327325289088, 0.034671242951287796], [0.0964984602673144, -0.14847576482768327, -0.23746120994210518, 0.05276267531016813, -0.030791290262229067, 0.2878251807378483, -0.24543495486608521, -0.5225240813151623, 0.02282046466162596, -0.27804099779975106, -0.1466015325487274, 0.30822561381173674, -0.018183853897922625, 0.11094216106863537, 0.08476125460535391, -0.07389200561176901, -0.06335755780846689, 0.0843259963570063, 0.1554103199321236, 0.03758023438793087, -0.25279388513816586, 0.0032013462980277126, -0.10530497789841832, -0.25604126228468216, 0.05110452828185062, -0.059679740362792534, 0.28114212783098597, 0.12812387396564354, 0.14649976683086693, 0.031270800112796523, -0.026026921869657653, -0.012898289905020205, -0.11305385880838911, 0.10185433921987569, -0.04433219637532985, 0.12770144924476867, -0.11884089125974676, 0.1686796309462798, -0.0992933561620329, -0.07980646251485762, -0.08462464780060078, 0.359145971162302, 0.010763064383660734, 0.057153967108957364, 0.09320963717234562, -0.07279164011886019, -0.21450395264746472, -0.2000729162588087, -0.04277344777273893, 0.08159961256289419, -0.007456974402331268, -0.11895474526747384, 0.06420845439253191, 0.14296289727844125, -0.09628798008994666, 0.03891712571588891, 0.051164769715722924, 0.21949812942809466, -0.17327131676074836, 0.20727832052835796, -0.14143985723834032, -0.1474616122504664, -0.04799990399068657, -0.1734072419407448, 0.3248674150541395, 0.036688986451995725, 0.12268082552567262, -0.045409043949377365, 0.10260162416248976, 0.34731288934794335, 0.13998485133539854, 0.35486750652403, -0.1619018557098254, 0.09572412689016842, -0.039149305653831686, -0.14700598283879135, 0.009480356570789104, 0.09584716518386148, -0.10970636499428527, -0.03563225306983311, 0.10445678086705087, -0.05287301645530492, -0.09080819153627, -0.04992049821995533, -0.1725180602948558, -0.1465819095608577, 0.08069510561896241, -0.13112939581251049, -0.20589448968743118, 0.2321714207373713, 0.07903469434240586, 0.034097843487982976, -0.20542449245067768, 0.24188507689680247, 0.2650575265988513, 0.006086939357188982, -0.14067436610826342, 0.16431918451709138, 0.15353375163692873, 0.13743820778329344, -0.03758416018828402, 0.19995959722757833, -0.07899373591016383, 0.16535292483924952, 0.10420392131105025, 0.06909074989699165, -0.05038623845675568, -0.07805110308023525, -0.16650654459869504, -0.3507844450285886, -0.01055349370125328, -0.18750234993969078, 0.13686226286733794, -0.19307486200995455, 0.20699219709511893, -0.15353826293227665, -0.007758503335411087, -0.08166735274367086, 0.07826842430723625, 0.046216728068649404, -0.0826363094836555, 0.018583671967880883, 0.08258754420648132, 0.20166733713995003, -0.0056474568636662136, 0.21856235948790526, 0.1633310390628657, 0.023806832382352153, 0.12262596380931917, -0.20671260305121486, 0.25696518291814807, -0.19660574778100434, 0.18670511307927384, 0.06303468540343936, -0.2122712599277977, -0.06868590292634451, 0.39638644853060245, -0.06934841170944818, -0.00906641728885916, -0.07900888873769925, 0.1482452550499482, -0.30516911564121946, 0.2347297111241126, -0.11164966378045857, 0.01177299116512224, 0.11981530256250289, 0.11715702112297106, -0.13715142094799188, -0.08617155317709158, 0.1667437479636221, -0.18367460705112093, -0.04195457653774435, -0.04656282737083291, -0.16330842374001928, 0.27697297897395334, 0.14613934757053243, 0.09213958880786004, -0.0749434710726038, -0.0017447630489965376, -0.025183044323109458, 0.02246564593801056, 0.07493578899310858, 0.10628081680595226, -0.02470583142011515, -0.03211016952269694, 0.28865264312567657, -0.02069965312764056, -0.054405417134854146, -0.0013229985363230367, 0.03573720983548783, -0.008541965471355616, -0.006664024844557045, -0.01782077365430862, 0.07682929703869246, 0.13537577565162134, 0.1120984901115655, 0.006907318555250111, -0.09326503623551034, 0.23868745819343126, 0.0659425129916159, -0.132157661681739, -0.0525113721030643, 0.0023562155618955566, 0.2233743552450218, 0.08254194388614133, 0.05627569459090694, -0.2278159254642682, 0.25538086615713573, 0.0024180189750721607, -0.018409815788450922, 0.12051441297060102, -0.1387372826912826, -0.029635268499344572, -0.025200725296211403, 0.11028868606835829, 0.19131690169995136, -0.07716226426258453, -0.26365235528094505, -0.4299466571861783, 0.06310749425784913, -0.13744862572013036, 0.1265068216224001, 0.09940375863909198, 0.012627954056684423, -0.0410979751981507, 0.06904926934268753, -0.03732513601003458, 0.0969624205156417, -0.04355046245899992, 0.2082274017138909, 0.10171630856112028, 0.061920421753818046, -0.023364721832129492, 0.040578263816143816, 0.10207069848963865, -0.2364887727162142, 0.16320499531351448, -0.19495970955189024, 0.01090534669021764, 0.08720240852700481, 0.0848867958596825, -0.08592749059487696, -0.18305442692498222, 0.06845826481566764, -0.007573725271816843, 0.2224197412070192, -0.031559848411856176, 0.010520646100261325, -0.025515324891491366, 0.06152202459363894, -0.21438571174776974, -0.05526188951337651, 0.09468233913601325, 0.10238397234867624, -0.010332928016807229, 0.3369532125852862, -0.10598516343794062, 0.15718187671191164, 0.026998819000085186, 0.04493564822400698, 0.007981697639385959, 0.07760634713722958, 0.163673322610623, -0.11935431939855047, 0.12533859283582824, 0.06759581108281847, -0.19029353705431565, -0.27838781641088595, -0.09020135725858994, 0.24549197808343498, -0.09566034620817983, 0.1538285970822905, 0.20812963573249257, 0.05709320168397296, -0.09240654473314142, -0.029580675244039265, 0.09474152316396355, -0.12709032875440915, -0.16320063539811058, -0.0470857197486287, -0.14171425990782116, -0.022350579000175126, 0.07526839331868254, 0.04957904908573584, 0.11470235277106386, -0.015804397907139618, 0.30207042363730136, 0.05136737591309113, -0.13657583991433367, -0.06828167178822744, 0.22526004441692152, 0.4383085355886197, 0.1218830828453396, 0.17785578034599944, 0.0038725159070447067, 0.2043444010001661, 0.4444114531569892, -0.17146694261095252, 0.06296671909168952, 0.09960481920562049, 0.15305171514578994, 0.16605630211890132, 0.34540660328923073, 0.0745907126553239, -0.06213443071399456, -0.18130371563522546, 0.049365391381882076, 0.08382444443941792, -0.06903453000196004, 0.21414648024772334, 0.08472904370764482, 0.010580449244339166, 0.13694480016474195, -0.11293490946097896, -0.20535966986610477, -0.09497856353514107, -0.07066939197598159, 0.2651891594116368, 0.05264126601645735, -0.06922948296313071, 0.2739569032898357, -0.10473451453933345, 0.16221698097110945, -0.2040574747453953, 0.08916775248591334, -0.033077992758087975, -0.005554464063594178, -0.06352959997713463, -0.1048749023305685, -0.06105890383953939, 0.13766995086182318, -0.26690079397130506, 0.2648233476532114, -0.1759281037629003, -0.07272977617618014, 0.05311421986753212, 0.21245227330975122, -0.2642821660002079, 0.07936465626804091, 0.2530627613821595, 0.007436236747278919, -0.04511730049545244, -0.18600296819510467, -0.2183925105749951, 0.17590791649825951, 0.1687042306027082, -0.09203953018454321, -0.22261384228500117, 0.09886762917504933, -0.029869150045693283, -0.17333214656038207, -0.1793674589847108, -0.05823981961966692, 0.047474316545411295, -0.23974003195046512, 0.048891325002791336, -0.08102417705564233, -0.0017656292795558807, 0.07766691990088985, -0.23177159597771665, 0.09412882223227215, 0.30934082426924825, -0.11715197143345323, 0.06172924307653476, 0.33451430479266614, 0.11945295692347817, 0.002338334432573063, 0.2561696937894802, 0.19141614205433788, 0.09302451987035217, 0.3938013511778983, 0.18717620751514508, 0.14773378390433897, -0.005957987556917468, -0.08862054499188102, 0.2933762962680524, -0.10199667877734953, -0.049418115047289414, 0.06502451384789758, 0.2854780142397578, 0.2202439497665377, -0.029889177573747885, 0.39422754974134977, -0.22935984134145188, 0.011117950812170556, -0.05783570715197257, 0.059598234029648464, -0.02575923085101343, 0.03566656749113538, -0.04679791773357444, -0.2954026250437262, -0.10368429674040196, -0.023629558746191662, 0.4087885268966667, -0.09949407748612697, 0.4377122618016909, -0.03782281464421866, -0.31149892602603724, -0.1179968945126792, 0.18497027368948654, -0.07361503963306601, 0.12606860714425214, -0.12386573101593573, -0.03464467576161499, 0.20638516652056574, -0.12116777872827464, 0.05662738478912956, -0.18927461187129588, -0.16391243658823546, -0.17063141701980114, 0.08665723724689074, 0.2128755793781639, -0.1494229370602958, -0.06835840644116775, -0.015138844759364768, -0.22355542360488426, -0.03392036290640518, 0.11203266989258992, 0.256421086418013, 0.05551548962855624, 0.21208050892097952, -0.06422936760319854, -0.07854251676815298, 0.16681800565906796, 0.2269257325817625, -0.05080285532466291, 0.3084011655573679, -0.03314463424618222, 0.13597790844381694, 0.39076157731401945, 0.17382461325469553, -0.06499938444059143, 0.4286740366621015, -0.07297762513516837, 0.15795990126580636, -0.12155679117170373, -0.27744523040789487, -0.11490411405477856, -0.07242317765107915, -0.09963880575321075, 0.1366148637574551, -0.04574691596347769, 0.15152625518056229, 0.1450931217247613, 0.1697482306768262, 0.18592427701183217, -0.179166730300325, -0.061942609877838034, -0.1652080628084177, 0.02139880424505678, 0.07718657392635689, -0.18148348373410142, 0.25890883714188867, -0.020336071165613364, 0.14635606323451605, 0.3114853437700554, 0.27778940550843345, 0.10354024231530984, 0.305797734609262, -0.0004174038020473695, -0.10070095837803461, -0.14124814921139173, -0.2194976263095029, -0.008744683902881687, -0.005393895303061084, -0.0890866628229725, 0.05357149755021152, -0.3668244463082994, 0.30324513717569335, 0.3176911941093792, 0.4661376544747578, -0.10141919842536158, -0.10516181125214939, -0.0917155859365033, -0.022566001485313503, 0.24827410424765586, 0.1536737834014796, 0.18130661159573852, 0.03426251713936601, -0.12510177940127534, 0.29667934656201017, -0.29241084106133947, 0.3038716352190227, -0.06711074275164743, 0.08990585510620087, -0.020019137103570554, 0.07307657345690421, 0.019661674916499693, 0.3309682041267841, -0.033885852126779206, -0.22034184545318963, -0.04906698809696267, -0.13280881671229033, -0.07154714255089525, -0.11183333289321748, -0.3271478592268955, -0.02396693815004812, 0.1867249609605808, -0.31556445588905135, -0.011157372049665097, 0.024929913079834776, 0.05054973679347046, 0.049957926741682264, -0.15103411247495419, 0.038469807000250024, -0.015754431245927677, 0.18657713297582873, 0.055776716792237904, 0.29670314358048694, 0.25487081500953357, 0.1894116612659452, 0.2860098418449574, 0.24504020101383553, 0.09224629266707769, 0.08971192402411814, 0.22124634905716486, 0.14339015003351474, -0.0014839292049432249, 0.19634462717866472, -0.05361416287992477, 0.017568486271225505, 0.1061886888552891, -0.07443799691813895, 0.021593650242884392, 0.15433383499774547, -0.14375971254353612, 0.12545497150070611, 0.10100689124392885, 0.04922633911230527, -0.30654969420230366, 0.09707272957458056, -0.08139406698773904, 0.11897154951493932, 0.015211352234625063, 0.2030601981053036, 0.14434722418344967, 0.4046949540298229, -0.019403136674633503, 0.22054704526034152, 0.2381818741999446, 0.26978608405678844, 0.233207226015072, 0.2548481516986416, 0.0158812725469463, 0.1642977566942491, 0.0980230272583702, -0.12854156119167956, -0.10863819889991629, 0.013673669764382279, -0.03682715598205672, 0.15844501961925636, -0.002616337670000064, 0.039458518091028495, 0.1317459058567025, 0.03730757439052829, 0.30800956623803394, 0.05226790849115633, 0.3090703059801269, -0.11309861465939483, 0.06245611347783735, 0.04595785750207766, 0.006840028125322845, -0.026402911528718258, 0.006692693487551931, -0.017686067964491476, 0.060253387318419435, 0.1264152684988349, -0.07723356484286724, 0.11232877464133542, 0.24646029731045624, -0.051900090281486844, 0.11233121675546968, -0.006156021438712781, -0.2067946365489069, -0.01888178425882301, 0.10201205399125475, -0.23228306532267137, 0.28787005571077257, -0.4346906296768541, 0.09976986646620443, -0.2062735754290077, -0.09131481825389359, -0.28897219465684276, 0.011973078856876132, 0.13934928340156463, 0.03719059068751064, -0.1488525058080645, -0.0035417901489643265, -0.3078792148016396, -0.14548086633330767, -0.0770488878407285, 0.02955339490219701, -0.11033848141263054, -0.16135578972330283, 0.31859879617755044, -0.110965864294847, -0.05488219124665702, 0.06600515537412979, -0.054422639078392385, -0.1676780184987316, -0.030215631742964585, 0.3040694222190276, 0.10988927270067769, 0.046944862869289526, -0.014060982528966195, -0.08175549570025753, 0.22981410108413172, 0.06217186053774167, -0.16541621597409983, -0.025390694279417463, -0.03547626194370514, 0.09829897682092999, 0.2853892727595221, -0.2745567209481817, 0.04788184903698842, -0.05197033645042357, 0.009558251010135846, -0.05765257991829608, 0.2121881920236483, 0.20387033345447378, -0.02920227852895902, 0.2955690956707688, 0.03970714411385954, 0.238081936371638, 0.06167338693337483, 0.016368320271291648, 0.08646000903295727, 0.17108061726150106, 0.18960123939920248, -0.03383374206887742, -0.19737946291519484, 0.1811436649571214, -0.0595719963136972, 0.010176033362310611, 0.16504840366967188, 0.2735356135437701, 0.0843233466723349, -0.04573535818914048, -0.05903388295411259, -0.020819684444463086, -0.08030716524431285, -0.10412015429862724, -0.2206013921579231, 0.07211505021481376, 0.20886591567214974, 0.1424978114907003, 0.06501781303438921, 0.1021086073865592, 0.01646585520890531, 0.2280257866383831, 0.27370715946754554, -0.08057127884779507, -0.15732812737191387, -0.17177020013108252, 0.06665574559185299, 0.1581107583206546, -0.026676973825537763, 0.2387817880352814, -0.06960237599062548, -0.06253686220888452, -0.05341415093258377, -0.09478392735306171, 0.2443329559732265, 0.019860590295144268, 0.08536861719180536, -0.07914177075561636, 0.009262210443084767, -0.15716416827156454, 0.057170546165298104, -0.017133973313475524, 0.019940867261411123, 0.07311195898353927, -0.14711365925268258, -0.2423877978826817, 0.2648662486511006, -0.06096398903933313, -0.12712238231234177, -0.012150107653053225, -0.06563246217657154, 0.02590248306321466, -0.2510840503239816, 0.017426960398341126, 0.07448011654216637, -0.2014267154814219, 0.008666363720996825, -0.10790444249543443, 0.26775837901422345, -0.030712164599218984, 0.04537229189089495, -0.27908920802866133, -0.10663058974737478, -0.046380377250250335, 0.05488270616940046, -0.008891439205620263, -0.0481081101820618, -0.01878826853312403, -0.011405197680088302, -0.007342197862055326, -0.1270752475668306, 0.03163957240083593, -0.06732698470667012, -0.02729970639234801, -0.28891618215489695, -0.020191968323616635, -0.08181697688239238, -0.0028192123075238946, 0.15378331306949866, 0.18461899175050228, 0.15902874140372986, -0.051504800454500385, -0.12001164830723215, 0.053874544895896, 0.0264144527464534, 0.21829901741321706, -0.09212548957471281, -0.10252585629917237, 0.04289369283895697, -0.15368748023785558, 0.09592311301734195, 0.07297575659054462, 0.17492397942166035, 0.06011108624729217, 0.22874067123192848, -0.18229500212304212, -0.0735669262779216, 0.266832927157199, -0.11341876795157603, 0.12939987792341548, 0.09985958168422289, -0.18851731900432103, 0.11687699456454183, 0.08066635923772693, 0.05307079867324155, -0.13823341697249708, -0.1355566584033265, 0.05932970705746498, 0.29732305328598485, 0.11661433611062656, 0.03872972426990034, 0.14911865334167548, 0.22343012667953827, 0.12302721545640069, 0.1807278744715736, -0.24630796505833114, -0.1930970723112267, -0.16771703603452368, -0.044045869755258184, 0.01131284850175232, 0.16137466805016243, 0.2614197074996378, 0.07122581193285595, -0.02979894505474778, -0.05431281411380632, 0.05641035896402744, -0.13630163973104717, -0.10997018877869867, 0.21309315389186853, -0.009157231548456149, -0.013274781115649809, 0.32062889391090976, -0.12891952357848063, -0.17561933242122402, -0.009155574087383935, 0.15900176952829415, -0.2704826909243702, -0.15201172547315026, -0.034909378765909715, -0.04768136013724957, 0.05798587735079074, 0.1046196793819511, 0.179789100514224, 0.049741690676973566, -0.02347292014553015, 0.1688716672068555, 0.01143531290548246, 0.00716980523927531, 0.14639209625016195, -0.31600464891704555, 0.100526449161577, 0.126686472659388, 0.06462733476318526, 0.10250982463552437, -0.05360667949258995, -0.047659810042764594, 0.027751514824768335, 0.203814660266084, 0.005165915343854405, -0.07611123168953432, -0.20650765889913394, 0.04563835441557963, 0.1753828173672903, -0.0010635313982493373, 0.09400838104941156, -0.3451970904824301, 0.015321707123476656, -0.3220614103708147, 0.16075930232661792, 0.11273944408096606, -0.09951536178745851, 0.17229714046900765, -0.06749373401376933, -0.009122586944026376, -0.23313473390282047, 0.13138808293466792], [0.3083418345921463, -0.23025256101430636, -0.32380443562940847, 0.057734654463363747, 0.24556124792183753, -0.0775955633056312, 0.06744226974944573, -0.013555429789259195, -0.11629378593162261, -0.14850359987785786, -0.032407050459559605, -0.046595097752835636, -0.18453391928732862, 0.055649787674199334, -0.10380325816929853, 0.052469203218310195, 0.08966421676807623, -0.17266829394031258, -0.041324401044099485, 0.20088467961477324, -0.10535074759181613, -0.059402132259229606, 0.13140026190709783, 0.10041667553916996, 0.15800338944099016, 0.14794755171528423, -0.15109506234983866, 0.13338698964814152, -0.006075755927678729, 0.02824454708834047, 0.11391621189452765, -0.03518602237668, 0.00711377250142247, -0.09032268589479306, -0.13507251167386222, -0.1658420590346968, 0.17515784834236814, 0.06161841237242752, -0.16543905308395218, -0.1346184620353378, 0.1568683274045193, -0.18552330369655012, -0.30425399825283256, 0.17191786612214524, 0.0010312126915200765, 0.061506404452914075, -0.2157859342698039, -0.17438662790990095, 0.34506476250953083, -0.07878968103637526, 0.1711571358736205, -0.31181522313524923, -0.10613650188334371, 0.2455771859165931, -0.20829845165984487, -0.27450154831476303, 0.19464903394002192, 0.007613755286882747, -0.15698395859893205, 0.16019151892844405, 0.1816564503823063, -0.22307237635046478, -0.17135541913394617, 0.08385016031330791, -0.10543081608664828, -0.11966202957358901, 0.026048305344425416, 0.31668749960786924, -0.16582090444459363, 0.09074286341617024, -0.09178795762158953, -0.1959943555180971, -0.21657818411745106, -0.18818065730292183, 0.09497920600729086, 0.18357142673622262, -0.18045606619198842, -0.10185192445274531, -0.09894480297383619, 0.03849917016698229, -0.040978153411358194, -0.1293444737452221, 0.09512343985640458, -0.05919299101746194, 0.16087703196504727, -0.039774461639630304, 0.1834573739998567, -0.07386171250295741, 0.01747365402074911, -0.14810116139403945, -0.3421366149634575, 0.11102716843992873, -0.20057804387093678, 0.23920523494875573, -0.09215988457362274, -0.1413858048831746, 0.19228481149138466, -0.08610918947895187, 0.02244153186319922, -0.016373685646074755, 0.039734529426808926, 0.02692244907873973, 0.12364161610172067, 0.14013851325341492, -0.044296997008620796, 0.1655766006670057, 0.0235647996322014, -0.02802300918257239, 0.003426521098854988, -0.2501423320785678, -0.20777878585325998, 0.028713626883419968, -0.032247901958270514, 0.14245468043143583, -0.17650160246319327, 0.047283353423235704, 0.09825246977331072, 0.07192474664653421, -0.07299408635773048, 0.01618231616292561, 0.1045426273934478, -0.014067662857785384, -0.009525350940072423, 0.22124806441251282, -0.17825908847170213, 0.16712285585471887, -0.14527238308807505, 0.1692759934046778, -0.07346212645711885, 0.059379653515186315, 0.28145924331879174, -0.03403344634571532, 0.07117045912882321, 0.06016856019168345, -0.0651686632273459, 0.25856460363886424, 0.1705586073327383, 0.077864048113427, -0.029807975218500343, -0.014310304833311235, 0.11675711563279591, -0.048044797403675094, 0.15659293522457227, -0.04923685740896513, 0.030861404008815284, 0.06794707513971814, -0.11717446206581603, -0.24730223788795305, 0.09379899834880248, 0.06252417537043535, -0.19376025045602838, 0.14455821249770326, -0.10142827089827994, -0.011694943793121929, -0.13847624554799867, 0.07639418791262484, 0.1919853230699742, 0.17504529184175877, 0.02771260851008167, 0.17884424389269504, 0.10570302904481288, -0.05773235359910533, -0.141483114342517, 0.1106423115532277, -0.13738058392150096, 0.12266793712183735, 0.1888562875843657, -0.03808272755753408, 0.10804380307921203, -0.19097936279266392, -0.2492758370959529, -0.07362059312897369, 0.15001923780970197, -0.09116761771392674, 0.05555591197795044, 0.15216177804277617, -0.09165084251458172, -0.12592618047532939, -0.22973767783695487, 0.14540763301947654, 0.06713786586247936, 0.11962443799527962, -0.2579678127919073, -0.002823983954609043, -0.06217992710651034, 0.0489159875509117, -0.04957103166487803, -0.19852841309876945, -0.10089199919497067, 0.18042120914710694, -0.11986659344516666, 0.3591471976780798, 0.20741128501715983, -0.0032679025805271962, -0.005450783941988602, 0.36928308500583934, 0.047760416553650445, -0.0617815274082649, -0.01182464958695381, 0.2224652430664052, 0.15869986020858326, -0.3134837306928767, -0.06955892605829865, -0.07876087007480206, -0.15263435751438312, 0.19131735405686193, 0.2795534514501327, 0.23107982790091994, -0.05590995153674119, 0.03088394489314337, 0.4096910222161379, 0.1512298005354731, 0.09661306816006375, 0.11752011562333893, 0.2562869721775382, 0.026411377506151485, 0.0470686654848863, -0.10927361331360844, -0.09782549629353575, -0.061117383997541096, -0.09017146731674547, 0.09805934650681497, 0.13354546590677013, -0.21717078974477674, 0.2794869230013911, 0.25791163637407727, 0.01323823926414598, 0.03828359057123144, 0.022928055947667805, -0.10524454091222951, -0.03303339006912678, -0.14586864620774861, 0.041337537381312704, -0.20098783497064654, 0.04115448229419974, 0.39695143186671117, 0.1462077113000703, 0.05828888202482472, 0.06621389399462235, -0.07975259028884868, -0.08568414438301347, -0.04561507586955626, 0.3546564005985513, 0.19247905989490025, 0.1764208486119256, 0.10492028908670377, -0.3081185881688471, 0.2962572347846284, -0.11266209345970854, 0.04238580619229593, -0.2242094075874624, -0.10013976570381461, -0.23418747827699266, 0.12366178675809614, -0.17998870308743753, 0.12626122039209695, -0.10859999015061372, -0.16562762566550443, -0.13011413348388806, 0.1795584879491073, -0.007263236661208238, -0.051810610691735176, 0.311850677202652, -0.1791323003948718, -0.09539012264729414, -0.12595666401154, 0.3039298729320377, 0.19408449924132393, 0.36894500323646684, 0.22402094570116554, 0.00551039605784446, 0.0497700794467523, 0.014462213951218333, -0.10010120318974586, -0.15165831250841944, -0.05303053079404762, 0.10926703065325075, 0.09800910573006201, -0.006339430288552242, -0.11923231239381067, 0.13023472186978424, -0.24431528786853288, -0.184137662943849, 0.1489704994558813, -0.10934056517402685, -0.20224474880679302, -0.13608020250388367, -0.02211936255818523, 0.09377141221547312, -0.009653363676338742, 0.25107008208610093, 0.3556809591971304, 0.2213849360757408, 0.2895196521567232, 0.17322137915145724, -0.14896216545609858, 0.033385249218045414, 0.35557373522119795, 0.10560025473356918, 0.11199373483711317, 0.06629224025291326, 0.05507193971176702, 0.12198120283434456, 0.11907276438574078, 0.06645937808153247, -0.012175179153623029, -0.03207836487579872, 0.02338494856087753, -0.1577558730248654, -0.0331468805909104, -0.02323594424821922, 0.024541333669127433, -0.05103202110782149, -0.33918567835378216, -0.08151522964334006, -0.09965830926921213, -0.011085177198660645, -0.048926902582505906, 0.015426591544868768, 0.32174000634049554, 0.281465222718724, -0.0628372909240134, -0.09963589126134594, -0.27623442946129856, 0.15397671368240032, 0.16560544836776345, 0.09569170193022306, 0.03687563866071328, -0.03581803478197616, -0.019753686472919696, -0.36655363071941593, -0.025366831342745623, 0.07652996356640955, 0.23843763582990474, 0.0015644846552644494, -0.10982436589689008, 0.06558665378268431, 0.009117514022740032, 0.2966311022679508, -0.019699106310924155, -0.4593741080405536, -0.05030398048666744, -0.08135832756068775, 0.04484288521376053, 0.28449437558968227, -0.035675853979572986, 0.09975423230317514, 0.29682830226895074, 0.27914383114751923, 0.062379196216816014, -0.228131434679931, 0.04957996647814056, 0.16510328890577444, -0.08718052900407695, 0.35437987018767125, -0.04687959802370715, 0.049543930783175906, 0.2908743615623197, -0.03735241659301316, -0.3333410557955704, 0.08965172174432266, -0.2610423136164283, 0.14616377175951809, -0.14107646000238236, 0.10902482320150232, -0.06222190687932883, -0.06689951389848792, 0.03400474185140286, 0.16965394195012248, 0.1861713813068336, 0.032924858681836, 0.0963748755426133, -0.2015401669361748, -0.09328040845500736, -0.3062299877180001, 0.0813324650433194, -0.1626165327863798, 0.1630452719946807, 0.10185336995706476, -0.04080424344256692, 0.0932612560795501, 0.01925049941863573, 0.20763677663345637, 0.23452512628027775, 0.061869347932751985, -0.06579948912985038, 0.13490203627364364, 0.31540240320985613, 0.15478417062603206, -0.12871194677604936, 0.20740720875356944, -0.002213714794102912, 0.08515832575816726, 0.1097296057437309, 0.0018180904012455072, -0.07820698186197561, 0.07660860861299507, 0.027442555579905607, -0.030692655751539653, -0.10269557634503805, 0.23788655730305103, 0.1731707151578411, 0.2955996700705136, -0.10702024780036608, 0.23927612944697263, -0.028042003688894913, 0.505140235050137, 0.212319078844611, 0.31139541483386346, 0.013025414535542028, 0.13658949740062906, -0.11481356059849632, 0.13667758604714833, -0.21602673522614768, -0.050027674297144234, -0.01453961511298562, 0.15571490720731768, -0.03720038231500067, 0.10075887521565967, 0.17628652302539016, -0.09413205102939337, -0.09309507382290749, 0.04642279038359122, -0.14066248869579298, -0.13307763158592353, -0.23337646199572865, 0.037237091803542545, 0.1449772554479017, 0.019250282598360265, 0.03003714334705617, 0.058529091591578514, -0.17057754936146827, 0.30173995743492443, -0.09507426067483529, 0.19141162730431743, -0.035449614995518935, 0.10347703072518225, 0.09798856963737505, 0.2707402759638945, 0.03951072584462012, 0.18548075698992472, 0.12358304378149078, 0.3597189283483814, -0.13075604829873624, -0.11230357322579196, -0.015889165113980884, 0.10200809045380232, 0.24417202068655477, 0.17743772598290286, 0.011793674969946044, -0.05574691144734483, -0.165542146956442, -0.28738084046654655, -0.03441417884878869, 0.10336957209941591, 0.026615346653276067, 0.18120179194073935, 0.31415768683401696, 0.22337366954677576, 0.030696529179821883, 0.4155527100891191, 0.08175928745451666, 0.12190326858021952, 0.22970355972419151, 0.23817492162577492, 0.002329869044776832, 0.0018860300616488177, 0.12211374110392692, -0.007315786643596131, 0.07770390270142816, 0.16025969900602224, -0.02545230545925802, -0.1732041768110559, 0.3262223405680245, -0.04739441396203514, 0.082493719166737, 0.17299882436585154, 0.00864687100789774, -0.007118851815904304, 0.020594427996704693, 0.10308924018915687, 0.18787766625209834, -0.23808513648775023, -0.028447015731621506, -0.04017616327673682, 0.24579707957261332, -0.12911074013280086, -0.1417042517512256, 0.18851692978802684, 0.11357099110320824, 0.2043779633233625, 0.39263024188426654, 0.1637685220494079, 0.24595113328969873, 0.12397262616791709, 0.1614310538784861, 0.1889027009319714, 0.1360013736131706, -0.14509480735240346, -0.10767869117883047, -0.11647445526727063, -0.021441530400862118, -0.04371417061393949, 0.018245943611592756, -0.13514804426889868, -0.333164779187857, -0.022802363942490623, 0.23566754633020215, -0.061533949541127855, -0.10126920190495887, -0.13633605878340907, 0.05808686691140132, 0.21552160485265462, -0.0735635808838239, 0.20910354595092545, 0.039322516028309704, 0.3667179771023143, 0.06344795051701303, 0.2174595941027846, 0.38308126770574774, 0.043990250368134635, 0.27333414948038304, 0.06132796580191332, 0.08969492579939926, 0.0880461377892862, -0.01387055238282823, 0.17608504944726852, -0.17375343559524545, -0.1382735198400985, -0.1319506868174589, 0.022340227619388885, 0.019584369760514673, -0.12444098280344643, -0.2670200613623261, -0.005495130518042169, -0.09788388213947569, -0.1706221695826486, -0.06168951851685515, 0.09943372271265659, 0.19008170695182872, -0.08395187088603082, -0.012544781296899005, 0.2578190068491097, 0.10756177437958567, 0.010532089476597088, 0.1525719727289191, -0.07100831182293044, -0.03328111716513318, 0.12761599803788737, 0.015937764540346476, 0.15759199776666635, -0.04751929796417499, -0.00948551225167012, 0.27805646992074823, 0.00029051666460287446, -0.09563423054235962, -0.2315678469211555, -0.016731767729526954, 0.07279736076862621, -0.0016881642171356671, -0.14490755933264374, 0.022275722506924677, -0.17263508680064968, 0.1288512657980851, -0.06101717895092455, 0.05970232412114881, 0.12598395976157145, 0.26126865746174566, -0.34075845352343037, -0.16134769459454487, -0.022709469532394323, -0.13877931879590144, 0.11413545002842605, -0.0844889856096513, 0.0929546008458121, 0.08605934455283828, -0.20165041801156444, -0.10224485515775694, 0.0852661621473719, 0.22761201175498835, 0.07338519961945093, -0.1471568848052215, -0.1502896320060453, -0.06183963003869641, -0.12750580820697052, 0.2394058980364276, 0.30002445652623766, 0.14613764726922995, 0.11466674869255924, -0.1471645012931022, -0.048373353286855734, 0.1975995813680017, 0.21618641191552265, -0.44279060670207115, -0.12415170385690015, -0.012510673018315899, 0.22069585721180493, -0.011208105641944818, -0.01553648716575819, 0.08483083252445366, 0.18686773499070705, 0.28071771458088207, 0.3281321116650429, 0.0460504037412698, 0.20572347078144013, -0.005257536294185604, -0.03152873556903473, -0.0725372041056929, -0.035303418035507905, 0.04440787579042356, -0.06208967581929338, 0.011686472057755751, -0.009720700021215103, 0.15977995879341209, 0.2784873962635571, -0.18212948786694746, -0.07315207609188616, -0.013668350927171263, 0.17560114673286215, -0.140883630336257, -0.1116033679767306, 0.08512425147966267, 0.16029132384115954, 0.2937962781981345, 0.0049418277547573115, 0.08588511008823635, -0.008220712485298912, 0.12725742166352283, 0.3281333832082814, -0.08992897738019075, 0.14049583385482023, 0.3430588516255261, 0.11309618977851957, 0.11598361467792366, -0.14613404777379452, 0.05939159147329587, 0.09306788880716398, -0.018574820406969297, 0.026558607984380235, 0.16203679997571402, 0.08104670492216544, 0.10140062963826085, -0.1491435616309627, -0.3915796996348597, 0.07244946508585016, 0.07456173263129467, -0.3385226723562222, 0.029070581704664415, -0.023775637407355003, 0.18563830977632165, 0.034307519496703506, 0.013129300116660319, -0.042981328370233274, 0.24939125759610603, 0.04558309418219064, 0.18762645232172492, -0.03952426485915322, 0.35499231334497616, 0.13945699327505798, 0.0601405898223086, -0.10661428684957726, 0.18103213810359514, -0.08783086757824188, 0.10774109363530648, 0.21068149666170005, -0.049220567021468466, 0.21672210709560236, 0.24892136801099912, 0.05728494422754841, 0.09450383889313488, -0.056294020367545466, 0.20635766192377122, -0.18985142191511276, -0.057621000843154094, 0.11687289051937148, -0.04790131459239659, -0.048130703753502174, 0.02601476471139894, 0.14688025697579193, -0.17536201676766483, 0.11587615801067594, 0.1365872943751066, 0.10639185004802479, 0.12510231091820018, -0.05373153095949703, 0.08087166086215444, 0.1442986141861952, -0.06458326285182678, -0.014370515929855167, -0.1514639182070658, -0.3178874497420261, -0.07681471604485654, -0.10319553164759607, 0.2929551960480071, 0.04032366692143735, -0.0630752503748598, 0.131526178673084, 0.11904018906857076, 0.050533731625514756, -0.04600538225616251, 0.00591762338670711, 0.07386417550256526, -0.06138027079708825, 0.19578917280827624, -0.02170241910931093, -0.16307029492719455, -0.18137716598122283, -0.013966191623379554, -0.11687626018250151, 0.23944536620277798, 0.06471532743311816, 0.17478632222401577, -0.255034492716103, 0.02842749211244451, 0.2963462588702853, -0.10200109574966285, 0.20306808051370892, 0.36078142673858504, 0.03403639933158172, 0.2617513872519352, 0.08008055845401728, -0.13732172185424102, -0.009691754599915935, 0.23698362676453497, 0.05657032724546528, 0.16741150407328764, -0.08343121774954779, -0.20197487959838262, 0.22431229716075504, -0.11608754242701137, -0.0641819330896793, -0.13640163026512342, -0.10060917527093306, 0.13143932600986016, -0.15482798872155032, 0.3013821741566034, 0.20540859459150895, -0.15972081179754496, 0.17369431791968964, 0.38077853448000326, 0.18402966509818194, -0.06691063270362695, 0.06548408106151804, -0.004343495207046814, -0.21429838591465641, 0.05523627735197083, -0.09543836156908041, 0.04509425613488245, 0.03289961812939856, 0.17352076802700606, -0.054176481466794546, 0.20336957001132558, 0.07412390538637478, -0.1302223597589921, 0.1664125039045002, -0.07760166126887953, 0.04379248089628575, -0.1274445656894512, -0.054182268678432184, -0.03874171686751829, 0.0819650022081443, 0.0588217800432052, 0.03132891128219635, 0.06624278126629721, 0.1158602615469739, -0.06759435368329766, 0.41544754550127105, -0.10187237685178746, 0.21440501003180662, 0.1523337509779356, 0.03581091517539105, 0.03930691163766096, -0.08715675051729314, 0.15512365550460883, -0.1006662569596921, -0.20785092721218829, 0.28189003619047337, -0.11158848361343775, -0.19071613808709784, -0.04788888305944731, 0.1592330779313412, -0.19990894030741255, -0.06576131899990512, 0.27889983681878683], [-0.015523151227818093, 0.09373875965859982, -0.3446590931126387, -0.19655450116653406, 0.5037191707491951, 0.04517691449885436, 0.10779618956342238, 0.2103085988263119, -0.22997774523913778, -0.25278399526034645, 0.08059555623707591, -0.32848184475595243, 0.04098759708769883, -0.07983967744311206, -0.01391626898379588, -0.17941737130393337, 0.0770828941672024, -0.12251814676596381, 0.19028104372780835, -0.1688415480178475, 0.11696601303079004, 0.025722087690283647, -0.029021807029537584, 0.029656188972675263, -0.1647229512860719, 0.1426472529217865, -0.28566421207239534, -0.09851803561692112, -0.1730966908121414, -0.21146956619481105, 0.12448190184703012, -0.021093692274532724, 0.1888859121555832, -0.179019954705584, 0.01110123378177287, -0.17803263062036784, -0.36633000762691814, 0.1445928063246185, 0.11376841788185656, -0.09246634092897563, -0.03566368996774977, -0.020772798730233553, 0.08770556408575114, 0.17435623030167585, -0.10741973538124416, -0.0025297517988052006, -0.11114919245358909, 0.023855522268177238, -0.12254398436961642, -0.2300254533688736, 0.08838569866577027, -0.2125240137682244, 0.20135287741306318, -0.006270688679663336, 0.18164173453556876, -0.17476961224795767, -0.01318082945836373, -0.12599081165300585, 0.10648577181949252, 0.2583255039893546, 0.09726363224903888, 0.042993718178466894, -0.13721546184007846, -0.023280564000780452, -0.05727332540521926, 0.17200707190038284, 0.04868728636081632, -0.1300524249762014, 0.19113003657007852, -0.22070531275044133, 0.02100002710259727, 0.25797698035541977, 0.19422077183273628, -0.038271933872306985, 0.040767422137972215, -0.1017780124132267, -0.03875273525114906, -0.06492522885445948, -0.1867320767092622, 0.07952930680684292, 0.09185767111707464, -0.07505432481949889, 0.1398556866784637, 0.11706474800426915, 0.06855352120816546, 0.19693297730117182, -0.21700566474119704, -0.09802558017201447, 0.10802330183953203, 0.093737941642727, -0.251414838044194, -0.5060098871040785, -0.32893668044116814, -0.349551925122841, 0.009286297063996946, 0.23752923705857382, 0.043950094965552196, -0.09586200135553297, -0.12449777622661024, -0.08374103218406907, 0.11663000766898347, -0.053129735379609, -0.060404303230550765, 0.103345761404154, 0.0015546052839117393, -0.06177871818462151, 0.16241713894387982, 0.0637807963523618, 0.04203050507043591, -0.12029376326720481, 0.0746554205053318, 0.21640112833790595, 0.5752110478593597, -0.252798815565275, 0.1262468545599484, -0.006700731456186894, 0.36514869303573816, 0.23810024062192278, -0.16296388132577405, -0.09673734319770877, 0.25492013584448914, 0.12373342417460846, -0.12096454674983914, 0.050033220437144164, -0.07308409668758502, -0.03252549042908608, -0.33087980289140195, -0.15278543435746603, 0.249235290142974, -0.08497162266910427, 0.4162271183232283, -0.23153417997995762, 0.34475337058736577, 0.0912006789037279, 0.062316624706592424, -0.04352319958623464, -0.13972836906901842, 0.06781596200873893, 0.04555561567659133, 0.008909151747440265, -0.06839668358005986, -0.04521036909524326, 0.25115343547389074, -0.11947698285855825, 0.06777904823957875, 0.09087921669157625, -0.15349054936302903, 0.12975548496255232, -0.055265751698050196, -0.11974551691989085, -0.02283744738412271, -0.3112641609574094, 0.18362518777889766, 0.06572011820432193, -0.22105572623868605, -0.12509324673164926, -0.23064677463754807, -0.26538818378392504, 0.14016292528505034, 0.31502916851100216, -0.2168958201915728, 0.2059118378741965, -0.012670304193055048, 0.2189184176861055, -0.13554740702990123, 0.19239666562880647, 0.01594266644002293, -0.03558975931314608, 0.022208696543168593, 0.002231385096879723, -0.12822798787851422, 0.059315022216152466, 0.0018067056755712422, 0.09610276007574498, -0.011793315816647625, -0.00802847549250552, 0.053570706890578634, 0.08550073335809633, -0.03747025391931652, -0.1660566596464823, -0.20250410246355127, -0.29058572533686056, 0.12116702558156266, -0.13577357975158064, 0.04597632634454722, 0.03279352554581237, -0.12214424970138459, -0.35540473587514787, -0.16562499993809776, -0.05989310025960447, -0.11251908327291238, 0.1294630620071014, 0.2305422322228294, -0.1150018123298592, 0.10252835610120556, -0.20921857857886086, -0.031064405523887208, -0.1900526247716717, -0.0012009068724039512, 0.06028745191397816, -0.1280432443054818, -0.007509934980441671, 0.045098939599473045, -0.000987931048176272, -0.05526077522213549, 0.13780005271199605, -0.13714921368354124, -0.08926049973153675, 0.1620348627908677, -0.05981456314657453, -0.2050766096347485, -0.040746872166813386, -0.0013057156946498646, 0.06259465145425483, 0.10490786686860078, 0.18776824007501083, -0.10254755341836433, 0.10744467174712874, -0.052062674536151474, -0.10333218505251862, -0.005760733891306813, 0.18598236160534462, 0.12203382216150403, 0.2126436245314385, -0.0671398771950331, -0.022114322307713048, -0.03109507838015802, 0.0557437289877274, 0.0408179379289596, 0.23843193840219976, -0.06965325547782429, -0.0855263438854084, -0.2261752850044635, 0.30131195851300985, 0.22695473014706782, -0.05940838294003942, -0.27473355178090403, 0.012797560835484608, 0.024106513134483663, -0.16282120353627427, -0.2497994159245729, -0.10240737047105755, -0.15655076573491275, 0.2234963669658336, -0.04229609713470744, 0.10906759321299533, -0.04215992124697898, 0.12165782266355618, -0.08217060833235597, -0.07073452643322087, 0.13977293615174505, 0.026172422835219138, 0.03458368753683275, 0.27304962563273144, -0.24618703890255672, 0.12456495430660791, -0.2647045781321733, -0.06212994063806459, -0.10514959856068606, -0.005447435886136044, -0.18408015326655552, 0.29884646406031395, -0.2971919059931756, 0.04118441137383883, -0.1750182139415736, -0.019768788157569474, -0.20937532589148034, -0.09494482642022277, -0.08090927882104362, 0.35418843424922913, 0.02607789501025191, -0.23536294867996388, 0.06637870751166626, 0.0019053110753979856, -0.23839602336936327, -0.11677730417662667, -0.13809104548897738, 0.14437149800159868, 0.0898585491576621, -0.49588442743099725, -0.051707075442891604, 0.07401138738964191, -0.1589155988458377, 0.17231978695709615, 0.027497789023219196, 0.006674068920904762, -0.1060662921426164, 0.00455008048049089, -0.32776108285154765, -0.10874658318115782, -0.2957766175842124, 0.06355194125313023, -0.09760041908475267, -0.12598837059749063, -0.2434567808266705, -0.2331681652100242, 0.06511012018622939, -0.16291325700150278, 0.09191094002762136, 0.008516115781571989, -0.2736676181668308, -0.14905501408434008, 0.11970893240354598, -0.40887136082655745, 0.027742791817935694, -0.2274126388846236, 0.19689541470689553, 0.07960764168179613, 0.07630420692854437, -0.157709519705108, -0.37974206194423166, 0.07546841075226725, -0.06168281604539412, 0.11243163989493242, -0.23821228552852294, -0.0729157860293549, -0.26427369380647975, 0.24544764256798687, 0.19279651986302876, -0.14778261766839604, 0.20034303716556484, 0.0740874565412386, 0.07655626380368884, 0.1685197764913988, -0.07614079946469665, -0.15819915256337239, 0.20053560653143962, 0.024304154412368953, 0.042457840815472714, -0.186544707127496, 0.0015066791232937746, -0.06794947956316812, -0.13820831203510836, 0.01579044047547915, 0.1075181438124664, 0.14886228175957722, -0.15506946234090893, -0.308198463553944, -0.11734257447265722, 0.2434161119457819, -0.34689756107488984, 0.08079079412176797, 0.1227693164949132, 0.05941939511925034, -0.21224184624791198, -0.0023876451625987737, 0.11327836076632793, 0.34910344444657576, -0.06638619593092006, 0.03995595228930713, 0.24813635378772753, 0.05055806994541121, 0.2809339932064929, 0.08193307223379624, -0.0069493333243732785, -0.05918807196428257, 0.006460142647519857, -0.005352884879306706, -0.526416418711975, -0.048376989679544444, -0.11485159544370882, -0.09539744237322154, 0.14062732107241716, 0.009956378603449082, 0.1654874952006334, 0.16089435636861726, 0.3293971433033873, 0.2883497658624332, -0.033505251863610454, 0.0427152461458016, 0.06967351078718186, -0.04944816089306444, 0.1993486491754927, 0.48950767134035994, 0.3983740528405395, 0.02266260338591177, -0.0034659466511021866, 0.05973121211432952, 0.21611084676832443, 0.11191088397936721, -0.1801571833381105, -0.13250538379245214, -0.1533306787339835, 0.003779825280881628, -0.011353684555562281, -0.22001062871888405, -0.09783095352830365, 0.02376208131055179, 0.2070096551581055, -0.14920423876833835, -0.06907308275406844, 0.28682137505396055, 0.06474722317858707, 0.03570097787375684, 0.0237399067880878, -0.22107379402630473, 0.049056089652616285, 0.1644519492117745, -0.11188200099002779, 0.15900250622465914, 0.21093077511950206, 0.19431714008118703, 0.07408667556518142, -0.011426790383081602, 0.10383317462965147, 0.09652115284714724, 0.24725984529094994, 0.06918205668050262, 0.205090616054586, -0.01978944239590553, -0.14972310358194643, -0.10398061348628548, -0.04579650658675781, -0.15651853338137203, -0.12379750879849268, 0.11089782881743594, -0.16734811623697762, 0.04457795147567836, 0.059059913044458505, -0.039957057484501526, -0.11842377032502376, -0.1898263291899746, 0.16144516195419592, -0.2451116594130867, 0.08846746130498347, 0.16162944127060555, -0.2252400765226655, 0.14499297981666692, 0.011631208919952441, -0.028754803682902952, 0.022298451674199547, 0.014790589273191653, 0.09434586244708798, 0.1821625772845957, -0.05548408069959474, 0.3111864735395951, 0.358296064972067, -0.38130254508724115, 0.20012060602112147, 0.03804365112491506, -0.5201562940262969, -0.2235096119214366, 0.31618779838345684, -0.18076424487580028, -0.25966329039715896, -0.0651266409868437, -0.09832559351519952, -0.1703497599231881, 0.06983790356418022, 0.2714669402264998, 0.03464530900052406, -0.25158044696486503, -0.11833520451847936, 0.059412136606891215, -0.2090516295249469, 0.06733198445906682, -0.19404466727110975, -0.06726229761091891, -0.12017447468281807, 0.12958306061814936, 0.19702938225058125, 0.13229454089545162, -0.08536375917031666, -0.003490349976637799, 0.32592190209981114, 0.07291259367718961, 0.025346367351495574, -0.11916357822604676, -0.45673374529718475, -0.17702728954343525, -0.21261311928374793, -0.14816283024084226, -0.017460420178207287, 0.0047473883894167505, -0.18454957893200002, -0.020920236953623474, -0.20049763868132958, -0.06321307179253231, -0.207769941403428, -0.2699920057422361, -0.34577073011403703, -0.3170006426307795, -0.30681358505418194, -0.1116274869329073, -0.10309899202305578, -0.1867866807585309, -0.2495279557204141, 0.06319300183088981, 0.14142172424502308, 0.11683776365799786, -0.03906484237702385, -0.12213491777489917, 0.05016881836332096, -0.19656748565515564, -0.20457329335284877, -0.10390650997527079, -0.27836148121640225, -0.1770428314468381, -0.1330431583791823, -0.06761815873748593, -0.23209110754182338, -0.2026069999276622, -0.3000499926974829, 0.2984551986738489, -0.1492989861328461, -0.30272114097114916, 0.2042358386393149, -0.11770174065630713, 0.028484265930832427, -0.20934362421450153, -0.27165095397654776, -0.16201103241756443, 0.020739883849380924, -0.33541423022073, -0.37133993154367023, -0.2824616960461243, -0.30234267248285895, 0.1663618838661141, -0.1439216011075519, -0.097402954717675, -0.2054449407248595, -0.3163175986224357, -0.2275305339252256, -0.46700944625928537, -0.15709772478371303, -0.013458058004175849, -0.3540576614436826, -0.37213999745685056, 0.18089673435792655, -0.39143414865434795, -0.1290762269616665, -0.30803720798141543, -0.23363653833946327, 0.23266419710514397, 0.10473754975438536, 0.08191318504491699, 0.1485315502606198, 0.11351389608334657, -0.23312623213813075, -0.1433986968507315, -0.1896217658231644, -0.18679749813651977, -0.25077233329819676, -0.23888260901799677, 0.04421429831581537, -0.06457500759771859, 0.12739844084281557, -0.06143912044629921, 0.14768253700569298, 0.02412474690251246, -0.04973684864796829, 0.1237917822744145, -0.08935617041310462, 0.14363480049602412, -0.19997270300378936, 0.09404101790338519, -0.004069337838925114, -0.01979698176548211, -0.1930923561632933, 0.09402142961493844, 0.3039934873114941, 0.1447649823672428, 0.12168427950964174, -0.08842508392724266, 0.0872004016851695, -0.21694990609446618, -0.2594500515908696, -0.3667186358371404, -0.19286154493379176, -0.28526983617703094, -0.2180482249961406, 0.00506549474711784, 0.20258793843456924, 0.2154774798988779, 0.058859636405289205, -0.08623092001849526, 0.2529198043689893, -0.2766605168794508, 0.019950922211156304, -0.07024799952957349, -0.24562048718343388, -0.29574528261289756, -0.08265887667519148, -0.27365550947708245, -0.2910367954296753, 0.050782487709245004, 0.12783352289902122, 0.28729947562200214, -0.15463035601256603, 0.09044811723771486, 0.3446093782754145, 0.0190157819836502, -0.13920269265710172, -0.15419338573645144, -0.024890410993699486, -0.08381535215345486, -0.12858554093290456, -0.16157301530776338, -0.2128777870816911, -0.07631938180284334, -0.11616829839132387, -0.02033900146668356, 0.15961633322042534, -0.10918265528500566, 0.3034521908762412, 0.11223344554239559, -0.34986511933168607, -0.1898872407321017, -0.18511271935437684, -0.3582295682105894, 0.2336338066597918, -0.11154702484843247, 0.29235653236587134, 0.040870747727747375, -0.3051041493393788, -0.17209732263760963, -0.17482807937231784, 0.037570286739454985, -0.053505827903337806, 0.2077377694796469, -0.11231911161033364, -0.06503123065338053, -0.4054144523177435, -0.13458128407537906, 0.24146410340580907, 0.037623462544105396, 0.2101128677843988, 0.00047565185798487364, 0.016876725244966015, 0.1401030059322889, 0.1975906615191129, 0.016765370088328593, -0.09597922151958958, -0.21279414948101005, -0.33554198350237985, -0.05521806873553434, -0.018903711517116582, -0.30282708688066634, -0.15210815292644705, -0.0009322394382510061, 0.2595144526396106, -0.09497380442682468, -0.028694031387670314, 0.06089595319389367, -0.10743638292074496, -0.02121523127950716, 0.17481903464603432, -0.030245178429823084, -0.17234626474913384, -0.12219619293762066, 0.1077793512625857, -0.07914027800779187, 0.0071155638999159205, -0.18920942264967308, -0.1833475923140112, 0.06683481915432037, 0.22638577192317727, 0.10963005259435035, -0.004659224379259082, 0.4641818840801269, 0.1981577725963631, -0.06317374742086866, -0.02607690190393019, -0.1506339782634233, 0.18868229509570128, -0.16215535893009486, 0.1705299311402512, 0.025314508247237688, -0.026108539553175894, -0.17934499515445096, 0.03942978854775898, -0.001794723201420572, 0.14801792256051943, -0.10818358935415205, 0.11058116006157169, -0.061254981932869795, -0.13400286704445424, -0.04677204023553046, -0.044452580863814914, -0.1595493182344973, -0.2708072263913399, 0.3219754190163251, -0.015305713783869381, -0.1331684007967157, 0.21095897662512925, 0.17301719995322307, 0.035585070588042875, -0.09407541862612696, -0.2995463413604672, -0.03661856516534462, 0.10485881817693081, 0.09518026438778039, -0.13410472847388677, -0.008092436075540365, 0.09047439378497509, -0.011922394057703222, -0.033738447253045666, -0.01201582011675159, 0.07750518459279149, 0.0005749822714463637, -0.19524186474567204, 0.16276519206011839, -0.10677399316885346, 0.08631750224226059, -0.10761215629735617, -0.013149886515751103, 0.07937330366007808, 0.04986918877858389, 0.2797513259961861, 0.06915529434584604, 0.05622415192373283, 0.2723095380418588, 0.15125899079698235, 0.05160388381149192, 0.08237914359249458, -0.1952274280897507, 0.08856516418869788, 0.27504223173095815, 0.0709073767677982, -0.13309566427333513, -0.11408226280261864, 0.19277833325724528, 0.32647916330425514, -0.03305585540256987, 0.08317830124389132, -0.013348147831326118, 0.1291099249504606, -0.009129781723931725, 0.07805185501613777, -0.3248708054825037, -0.16779871664758517, 0.08348650793532947, 0.054063602297422894, 0.14548659581282575, 0.018159660626178083, 0.25636633831415917, 0.15989467594454979, 0.10121815310930532, 