{"inputs": 784, "outputs": 10, "learning_rate": 0.01, "model_compiled": true, "layers": [{"neurons": 80, "inputs": 784, "weights": [[0.1664430995554384, 0.004302742698787767, -0.08328593464288774, 0.16477441807438287, 0.15994687658105247, -0.6462990523378951, -0.058589070958796834, -0.09787655786797986, 0.2702513045984008, 0.07598452256227663, 0.048473955325519374, -0.028198162989478165, 0.006802410891299502, 0.1970382211250303, 0.06871969961325002, 0.07792507965614937, 0.23063271289006823, 0.11250895389588128, 0.2462051863394276, -0.21112033447229703, -0.1752337663185203, 0.043807615260031824, 0.029828833977218867, 0.10456274047538545, -0.05832525675533785, -0.07905404457716873, 0.017918160515251694, -0.047154887235650714, 0.03571953819732167, -0.19142438066403455, 0.22743888376405277, 0.05457274748605226, -0.1784887880134496, 0.08499650737214716, -0.24182486744037585, -0.06018716875368134, -0.0652946338433532, 0.12840782929461442, -0.20220088741152653, 0.1525540998760918, 0.22011302226645207, 0.05031855801778084, -0.03368857553634336, 0.11455957568635936, -0.04724295913162318, -0.09313223750293713, 0.10639963125777335, -0.24064138439650853, 0.34550117013637843, -9.043029749534809e-05, 0.1062977926771595, 0.3350622306859864, 0.015550270291947981, -0.017041724897578804, -0.1529610698887748, -0.09291384609757859, -0.016281735408496492, 0.16064606615122692, 0.03686480858484482, -0.20187280576274316, 0.10725249606431472, -0.0026566729757258895, -0.03047419788325985, 0.1291582889665929, 0.12806022120416072, -0.12162872978541472, 0.23776415603181328, 0.0501680928696359, -0.11305637783779857, 0.016122669422130916, -0.04130562447545829, -0.2332839294879675, -0.21520945883597214, -0.17368068708140397, -0.1493205720209134, 0.27904518608138845, 0.3252445688495211, -0.29470822990149, 0.14133457962979334, 0.05008914708291527, -0.3524544663049338, 0.09757955317552065, -0.14206878661823932, -0.00685592989407316, 0.0818927910989131, -0.16195324535126507, -0.08728773857171349, 0.29010955398220345, -0.32721628407862785, -0.20609243104211597, 0.026496621215019237, -0.139431369930795, -0.1509360986813444, 0.008497357556985278, 0.07413452842455666, -0.024638115882945604, 0.10615321697065772, 0.10999526271587919, 0.3884422384885635, -0.10152789505573304, -0.03855361753143844, -0.3478131911662003, 0.12472030510779163, 0.18553212338378886, -0.04385414365505473, -0.2066591935068671, 0.16297610440330165, 0.22195143337463397, -0.018380992117820807, 0.17091386132136213, -0.0027644461274014564, -0.2821228407499107, 0.1332865037444147, -0.2049782554054767, 0.012434199850583246, -0.21977413250961464, 0.17102377805992813, 0.2079405227061069, 0.07775644818970319, -0.09003559822842945, -0.13680026089392658, 0.20691163204242385, 0.3332865629440892, 0.12217063430136121, 0.01887129667883666, -0.013294831009321849, -0.03124073226301219, 0.12104148414490826, -0.053451193837606596, -0.03843509742002576, -0.08733142700480377, -0.04029630377410333, -0.18294256196642933, -0.020632023396535994, -0.19971675329785288, -0.2111086058541343, -0.07828067098630177, -0.15555665155600318, 0.026110618402892465, -0.06322795447486627, -0.1824475083448674, 0.24057861688600418, -0.013755455803580167, 0.3158101021164698, 0.30479571644495995, -0.1340167809068649, -0.32265112757184305, 0.08692689227159629, 0.13583946039986944, 0.09203544381753949, 0.03834034168985265, 0.11009969953786909, 0.0898132847699289, 0.18546633957386632, -0.15471425515338252, 0.28952381650663417, 0.08427539270723047, 0.07581943269044954, -0.04700967266878249, -0.03892494243764868, -0.2068471899565281, 0.07771367493019182, -0.23810412225904465, -0.5011288501933323, -0.341881699321395, 0.024811524441837107, -0.052688926509850256, -0.06963586690356213, 0.09877341842326448, -0.32070091824062696, -0.006841992683106482, 0.08339861067104444, 0.004409781933615008, -0.04038048361246971, 0.24683214880948556, -0.2892682920152138, 0.14856464969581612, -0.11269827542030823, 0.0021050585639918106, -0.0031578087903338936, 0.19827802876512604, 0.0505266326341173, 0.024337449757077197, 0.23102061946219973, 0.15722663283537835, 0.20201186589422737, -0.27448510848306107, -0.33618520053470735, 0.00981900662236815, 0.2340255644890137, 0.09035167760110425, -0.2984291795213, -0.10030898873425076, -0.14101698130113352, -0.13193935119056444, -0.1359587439703479, -0.0030779134804190308, -0.06271910890207992, 0.06980079476317994, 5.746933328855316e-06, 0.08984022494536008, 0.11815521067351613, -0.08075087807654913, 0.06285644764964239, 0.05250127180748519, 0.293450129486269, 0.22872919027838923, 0.2419172086878756, 0.06768693759746314, 0.35262248197347673, 0.22405562188140649, 0.0505553149783406, 0.37870189203688936, -0.007987357854594073, 0.354890351844811, 0.19011595591777677, 0.06874356802423086, -0.12632529778675136, -0.28309729097628694, 0.03276798504943256, 0.17267601001872693, 0.08270023793559421, -0.2007690976293374, 0.04361970201087343, 0.02580231824982559, -0.2278083577316005, 0.20157408596183377, 0.04323489470981507, 0.23468153296957633, 0.17010970504954334, 0.13952462220140488, -0.18123725989434164, -0.20732578673507465, 0.046829060678524305, -0.10745134597352314, -0.0393397267048898, 0.014927296074881097, 0.36853422000266955, 0.4038918851368864, 0.26589041293419513, 0.09693713271535837, 0.10172665502204546, 0.2830195611573368, 0.3710019446891704, -0.03566594474304783, 0.5168906228097225, -0.1097505398132483, -0.1258074458867847, 0.35875904625280514, -0.18423927389461553, 0.23623441045487706, -0.29762572918989694, 0.25134800240722455, -0.001235104603988849, 0.055408880141131066, -0.07155788879867758, 0.06572235623844894, 0.05001194979438319, -0.09578648059669688, -0.02826791123719782, 0.07074523808973918, -0.28589734962193897, 0.12177634939746244, 0.012442784850460529, 0.03696490906681639, -0.010884660145599625, 0.4735723504579782, 0.03153757735404462, 0.6026037205189835, -0.005999463511869093, 0.18723633401869216, 0.34892360350253115, 0.17472254425091568, 0.18151955940212075, 0.3235685617170542, -0.0631107410910334, 0.3935155335270521, -0.17980236482341594, -0.25180786384952236, -0.09600704085425434, -0.054353444519192225, -0.1271511419755854, -0.11160948886987353, -0.27731404339702226, -0.008457104971438789, 0.10902346401467901, -0.17670274690589735, -0.036837525909487225, -0.05018975823126317, -0.10642648469515253, -0.14973314314728886, -0.40017256932526796, 0.04162905101075883, 0.23639200435989302, 0.3927682227427011, 0.293049813335141, 0.018906750824998257, 0.3618821395209845, 0.33309145576115784, 0.1866814414773331, 0.46267775795952426, -0.1172168065651585, 0.1420289278835248, 0.08785922831639706, 0.010824981103138683, -0.25741632902456074, -0.14432278874642737, -0.24492208316744032, 0.09733833479880742, 0.2532317411909461, -0.22854907852152512, 0.18872055402049806, 0.065315960862232, 0.10039351984130783, -0.25759754146641983, -0.23601024827505018, -0.23104474848829823, -0.41136720616674244, -0.08859452221730015, -0.10953692175388748, -0.1312083473664652, 0.05123783445513286, -0.08639082730564364, 0.33691558850048436, -0.03515837344514776, 0.18113727424242804, -0.02286039982903099, 0.41788352545337065, 0.1854396013098892, -0.05669748286377062, 0.20100311806175755, 0.3022573835046495, 0.022197599531014137, -0.037758373386391327, 0.04410781623286212, 0.1432495001634646, -0.1630581840687161, -0.011587994529496907, -0.0744823093663067, -0.11328644418023126, 0.04772319848073164, 0.06436932016367791, -0.3304505845133119, -0.26575524058098027, -0.18775338708373646, 0.0056690109415520485, -0.1386281783168444, -0.2609684547049433, -0.1479872361002762, -0.4009464674964307, 0.04885730682246757, -0.2354183906122391, -0.06259791761890425, 0.2401564260186922, 0.3910640784749314, -0.3556901636314755, -0.03591265954569591, -0.2144003488375876, -0.2250940338003808, -0.11222012604879834, -0.05262108413971322, 0.29194009630487733, -0.012598507583064444, -0.12581333642176296, -0.10785371392930627, 0.28901922506633604, -0.12910819702987744, 0.0712866263635745, 0.05303316476722472, -0.016769208301914328, -0.32285003948616114, -0.021141182495036135, -0.3441964968021438, -0.3027474883724886, 0.10373775073647076, -0.30551045424538004, -0.2230488839946253, -0.03159494484123589, -0.1843296057945731, 0.008534186236293994, -0.08098935173531574, -0.3324006527460794, 0.046937406817705966, 0.1704251278395781, 0.09769728395898633, -0.08415093444050106, 0.0546726887114098, -0.05519868774127158, 0.21107948405558857, -0.11977490523580442, -0.006024726428516341, 0.036203071622227356, -0.341609110752916, 0.07499977360873869, -0.39903425490725974, 0.004863671461835515, -0.04246522254867197, -0.1037589774713332, -0.2010933414603059, -0.13091994299086362, 0.008613676670750236, -0.08926220941680053, 0.054580931981225454, 0.07597717600221489, -0.36194515773921104, -0.28800803422566384, 0.15728205377903146, 0.07795713513703795, -0.1875974537633572, -0.18832698052195276, 0.0015358337907155637, -0.16241372659495293, 0.06646015459931649, 0.2271588052431225, -0.12733673159229192, -0.36250028950939467, -0.1736993667415008, -0.045004953560938386, 0.13475315598220197, 0.035758751268833266, -0.015935148623939473, -0.14792163222883922, -0.11124451814657495, 0.32057622251778317, -0.08341348071057167, 0.16110947978860288, -0.16373289256326132, 0.045678887800487254, -0.2747132188643036, 0.046637318622257645, -0.26070976291424225, -0.03023655879885339, -0.3028432825630185, -0.17924236835701296, -0.22568903860132933, -0.16620271008930032, -0.04499134716787188, 0.08469276376938852, 0.0010361929294472757, 0.017386434702449282, -0.024610784529027194, 0.14064516560342957, 0.04732360986129562, -0.12190039780110686, 0.1969782998976392, -0.055588077900052706, -0.21399483634925218, 0.1308336824572345, -0.3323741905554054, 0.06976677488568916, -0.015037522756109948, 0.016128438254956547, 0.3272041496490208, -0.03149577063381746, -0.032012448924807035, 0.15101351427506313, 0.06137701323581193, -0.0968338027968318, 0.05793491192984309, 0.03061316417747533, -0.1895794740156475, -0.4094024353504091, -0.19731457970866018, -0.149138105383632, -0.027581852452345866, 0.03154660242329941, 0.14813325609344308, -0.10171311573065411, 0.0029632533645473974, 0.31882570584419956, 0.034886631991682, -0.17490055686271566, -0.14543700614543073, 0.303327809311288, -0.41013758456693156, 0.27035367466391724, 0.06206403284418085, -0.2804667506357401, -0.18745792919913076, -0.08616685969748374, 0.20517587409021748, 0.01717202516575721, -0.22537539185706648, -0.32942351747925386, 0.039475566186344443, 0.029692205594229068, -0.1317651483819675, -0.2570887640891672, -0.23617571879399368, -0.20394051108929395, -0.1746472569709234, 0.3863202912609831, -0.02584010540159711, 0.008353917346120596, -0.06730874010400126, 0.2442103670946811, -0.2505761597985135, -0.1484244146522154, 0.33996718865640513, 0.09966944854585051, 0.13955394693149936, 0.027604539719355402, 0.14398026533992148, 0.015190447850764949, 0.07580731669990527, 0.11602609735285159, -0.1307296856911639, -0.047883304191448484, 0.07797064123956587, 0.08848746315713626, 0.05001253236467086, 0.21246439309415138, -0.11590062422846277, -0.006183138034435509, -0.3138794504534992, -0.03327315891439175, -0.3541914562740618, -0.09250978102528404, -0.2891408611485839, 0.10006135231568553, -0.17701656708379374, 0.037166381727787405, 0.1398147566221367, 0.13030187022211742, 0.13581519909303985, 0.07228061640146892, 0.24825779535820466, 0.04982163628824973, 0.09181991599335565, -0.15431436536911752, -0.08989456656083791, -0.24566198459321065, -0.06217458770497096, 0.09120930094624617, 0.07831369163388695, -0.01662045266116529, -0.32814931231819816, -0.13044729075250225, 0.19371912268687683, 0.0014290357142642722, 0.2635038900507308, -0.17495090997344817, -0.05203656362561952, -0.19193775145321923, -0.14468698176316233, -0.2080503497576629, -0.056201675626460605, 0.15511853954546564, 0.028599207636738535, -0.18121496844004814, -0.11457187529060253, 0.18652020938244443, 0.15697777128328683, 0.018232207005242862, -0.09920313311382045, 0.02499318970512474, 0.18219547240418504, 0.06799996141462124, -0.11524071230053651, 0.11756214404170393, -0.09415340327341026, -0.02907989310596891, -0.13224323277983072, -0.19970840830716638, 0.3407753378661439, -0.11907964398261735, 0.20086265603600714, 0.06203593103290699, -0.213918656179828, -0.050376368062840064, 0.20594537594902362, -0.07949372620852953, -0.1717109617763192, -0.10060240827478399, 0.07896945106772167, 0.10315119204884564, 0.11037152224315565, -0.21459098598561785, 0.10150991111480509, -0.0033306875328919508, -0.16192519530863395, 0.1288479175491548, -0.2855220809399161, 0.1072604571254606, -0.23604647528851755, -0.43020817228242564, -0.0589264711842823, -0.24814524263376292, -0.29286847796308685, 0.031116684364924232, -0.05990943296933278, -0.015201706601943915, -0.030479391584951963, -0.03644679371335217, -0.22109615455871304, 0.09181810733630305, -0.030983485738488404, -0.36464888382900745, 0.15284515279171818, -0.07038346291524164, -0.015211336312925509, -0.09991499369366333, -0.09885597303489461, 0.0032063651356475263, 0.18510052266627694, -0.1232405297185522, -0.24959461189105456, 0.12577525349517477, 0.12397664556276483, -0.13671001057895005, 0.1613885876342536, 0.020648610713588308, -0.17110653812725932, 0.13312095111123415, -0.039772251951260336, -0.21842894766066973, 0.29734151083735905, -0.08658681598074079, -0.025605152043850315, 0.3392043646081615, 0.33742198898778, 0.15368127085558816, 0.26049793901452234, 0.02178954568074783, 0.17811647974985978, 0.04114951164106648, -0.023935156055955874, 0.24641947279522466, -0.08520173238200701, 0.12088355584549879, 0.07966248495481314, -0.14590148032170344, -0.18018773047067257, 0.14129018621617445, -0.13386070772143127, -0.16333993161809457, -0.07889696015936995, 0.08585811827115883, -0.004936704684150134, -0.12802810091108552, 0.5159423632927589, -0.06211265308528036, 0.0759889728259937, -0.18316710128080216, -0.19189278920335148, -0.3694628301006862, 0.02039307648180801, -0.12509791010323165, -0.012566746244028284, -0.08517891510429432, -0.24278068369272068, 0.16351916412794515, 0.014285032518306333, -0.05686642529381371, 0.30972729272832517, -0.007975094124294372, 0.17471736254003595, -0.1870086714635264, -0.18412505011496866, 0.14047440001310346, -0.12404453633392282, -0.3311287431317723, -0.17907498448481296, -0.5723136038510388, -0.25388062197621436, 0.08982240864770911, -0.00015464363817899087, -0.020363311577355107, 0.11965956961058999, -0.10969994629028873, 0.16948989476553947, -0.10484911643762686, -0.05565139606090884, -0.10936449884937818, -0.016393884214561713, -0.3691449435984721, -0.10074671393935124, 0.15032649210053997, 0.1628509804165212, 0.16156366405680653, 0.184554260471849, 0.2384689685258102, -0.06614859381784338, 0.12148203888191098, 0.11004106817835804, 0.07848150119065292, 0.030480875611796188, 0.12678938693151953, 0.10719981460404657, -0.004091148060404085, -0.1493511475534553, 0.042256500935982676, -0.15451594388521572, -0.09008467468149522, 0.16972136305514068, -0.12314845775490503, -0.27314302478554914, 0.10156774135025594, -0.13737931462466121, -0.02012664347413537, 0.14760544212247476, 0.2743911865778236, -0.041537718807498535, 0.07168286990661708, 0.012372719014124648, -0.04601569185615436, -0.04754759186747878, 0.29094163644165255, 0.17991294054309134, 0.010491219259737011, 0.22416845180018016, 0.15643150764333413, 0.05572866204065568, 0.17080945095830818, 0.3421676646350783, 0.061350641946428065, 0.0857171246396432, 0.47819181408819167, -0.20678407003970367, 0.0725862938278496, -0.06402110186905692, -0.0634626951045174, -0.1492441027758762, 0.066716217046746, 0.3242801763480322, -0.03957885714163601, -0.28475962929545046, 0.32851758611349413, 0.01761961168144351, 0.018955795739885945, -0.013773342502511715, -0.011535967004063834, 0.06809504843724241, -0.008569530277070248, 0.16859163951449388, 0.2568818927679143, 0.15334661863149784, 0.044487748491349045, 0.15629492914805382, 0.14752690602996743, -0.11227456137662199, 0.10300331472250973, -0.015097999871210313, 0.17105912188823497, -0.18419904111948182, 0.0730872593591909, 0.2757333111621148, -0.11126803819625725, -0.05534728683072436, -0.18589978282786135, 0.11990953591436951, 0.1186603836898614, -0.09572770628719769, 0.004530510558238727, 0.20869966171417817, -0.06610913977836923, -0.11701201429389035, -0.05364637879093612, -0.17269050785459125, 0.04575528781592841, 0.05072608671821657, -0.1988058059066269, -0.27741151706126793, 0.10256292057307016, 0.12905856283497888, 0.2875786915176212, -0.1220499302433417, 0.2901886518337233, 0.05110996178229576, -0.03616989686884134, -0.2091184609656666, 0.12686781511320183, -0.03702234355987352, 0.0460724165153374, -0.07523046593771494, -0.3974117733411611, -0.10318944874475881, 0.1798908623323235, -0.1566730429159733, -0.3212101351885864, 0.20181079825548737, -0.039855472459852645, -0.06767627012524838, 0.09651816162435015], [0.03868058220562286, 0.27057792439986017, -0.0628066801042494, -0.07946273365880935, -0.11507014601241694, -0.056139271587162594, -0.2858497220295017, -0.06873490510809888, -0.1324666430877398, 0.1684962909716846, -0.10057773708874909, -0.0677225134971026, -0.06808460718928301, -0.04356105593363213, -0.049737508341379834, -0.0011150558386604668, -0.09134365316555297, 0.10189431853700895, -0.3807464886173829, -0.2316340811913846, 0.1777323359337841, 0.1585922772705537, 0.04077408607526416, 0.1897764520148748, -0.1675439713798341, -0.056046737410414264, 0.18104516048108546, -0.24861604613712887, 0.18025455454848435, -0.029159435212902842, -0.05839060277586302, 0.00450866201969643, -0.014667268419009028, -0.03752585566058156, -0.07760962996262223, -0.16582488768438292, 0.09939475219894658, -0.009526929838364067, 0.008416801954631618, -0.003060097507474183, -0.23114403065184966, -0.023255190927480338, 0.3571244254433705, -0.118327199096981, -0.15079773799225152, -0.23827690486938324, 0.11588813714463779, 0.12652340556423317, 0.18825057975798176, 0.02837240834644076, 0.3308229481801703, -0.03668197438808441, -0.12122051722426784, -0.2474847484071847, 0.13731736664715102, 0.05334198248903586, -0.008006113519069737, -0.004373713993090467, 0.22360986481545259, -0.3271101456337322, 0.06931348088685993, 0.18684916256835904, -0.01513098597676432, 0.17735186977825668, 0.11100012725863057, -0.1598338996335238, 0.1491727239716709, -0.39061180329628736, 0.014593465304912647, -0.43465307950152354, -0.14980128002295184, 0.08473670639081046, -0.13334082942364642, 0.12040038606163002, 0.12504142688454406, -0.10437837886563493, 0.009791292512900672, -0.1712739728342611, 0.029843762328584898, 0.05690325102617649, -0.13928408305616424, -0.12090230504002548, -0.0994676114982794, 0.16856184002708752, 0.3025791150662703, -0.12286121478500586, 0.09186778668422593, 0.14642634447216496, -0.20364472083686772, -0.11665816936363735, 0.2318158479761781, 0.32210803390815795, -0.04021935019940248, -0.24763490948389788, 0.06824225558268886, -0.22001839236455473, -0.07182309779892429, -0.10664733664174958, -0.06783431817980833, -0.10082930521049487, -0.15499612120964362, -0.13594790550510796, -0.07358964643503632, 0.20085820258317547, -0.04306718446778624, 0.24655287395255762, 0.17925945890144718, 0.22169968432709028, -0.07295603468458078, 0.07222042713338958, 0.1572573387307553, 0.02406090445067297, -0.19446524933107295, -0.18054745615102305, 0.1030249092698115, -0.11700698998992937, 0.18168099310318964, 0.31281702777719256, -0.31067648619443455, -0.003879550588880446, 0.057707754777933586, 0.13986444989987823, -0.42184868301462297, -0.10444370679769499, -0.21167199705212203, -0.10203097057365675, -0.32873180501713956, 0.19108264197678676, 0.03895385034769937, -0.10499151461529053, 0.20448468065380612, 0.02334755722083704, 0.08612862303479181, 0.09553940645144866, -0.01860712383657331, -0.05265681666734041, 0.1404393742842505, 0.07455751171174449, -0.08231004412302416, 0.141902374171113, 0.3095946538829126, -0.09869210992035332, 0.04489379643160287, -0.04738441718241481, -0.1495156143365021, 0.013830040265585562, -0.0884017840001582, 0.09553455428329842, -0.3400083791423346, -0.0945061919149666, -0.08834445955194033, -0.2707584191360272, 0.020242734951516107, -0.0726904577531764, -0.19968811014580617, -0.10163565884685921, -0.07193012004073196, 0.16177683173124896, -0.05365022031748044, -0.13065812162897342, 0.09245882623742485, 0.06547293824228884, 0.1091561618591343, 0.08544247999748761, 0.07881767532607108, -0.2990343409036585, 0.04077838679759356, 0.15641693365671214, -0.026566465826300723, 0.05644288645332126, 0.007353015268858616, -0.08342929553680138, 0.13598434925145897, -0.0978196420054724, -0.21820861992527316, -0.19616390751338617, 0.18577812897006094, -0.0864271299589434, -0.09771447109442934, -0.20200635881440407, 0.19793083831148406, 0.04085334066184153, -0.2533758509851276, -0.10009437642118568, 0.05512863185403719, -0.1434634181626129, -0.04699518324135505, 0.02552869747512776, 0.17495619479168517, 0.24410025073100305, 0.2161824177023328, 0.20247314612281248, -0.08125491056609788, 0.06628180313261935, 0.19551029582937304, -0.07477399744950436, -0.16777533297535574, -0.03239950493492254, -0.1878130184071108, 0.12084081246651439, -0.005182259355585728, 0.11376000142149939, -0.05869859127393545, -0.039500210020092255, -0.2105739908850006, 0.2008804662190457, -0.24165981424506366, -0.26203990844162667, -0.22568119962992098, -0.20503608315358582, -0.1582135401226158, -0.14229318196355262, -0.13082816447326834, -0.08679420429142694, 0.19026351185966303, -0.34225993006100514, -0.09454333628208494, -0.07416369271792891, -0.18015408534745853, 0.0635790968826765, -0.10621329084179856, 0.009977511430754241, 0.10776526653408863, -0.02464458031122478, 0.17693865997791572, 0.08338520650414322, 0.20779795211118224, 0.0009616745697761116, -0.06094516001425233, 0.03050461869134894, -0.0892528149495138, -0.20524706507868493, -0.0779921943436761, -0.31852747544649557, -0.07054789343834887, -0.08438244147642553, -0.3503735752232014, -0.01784071757578294, -0.3174452654438683, -0.17624140788730214, 0.09596146279285518, -0.2939668013280899, 0.03346156834112464, -0.19980905764618226, -0.056351416343448785, 0.0029541742990005174, -0.17709828572791306, 0.13080310566504993, 0.0008826735014422987, 0.03645946675622458, -0.3150954423053839, -0.02927937377961595, -0.05232519726463737, -0.21831357773165816, -0.2612846249133675, 0.016818566240106574, 0.05681749354705965, -0.29344083653184827, -0.0816294874506555, 0.023631635338794824, -0.41880970699964754, -0.2864420413621577, -0.2018103998962127, 0.0019311729221558487, -0.09450451119796016, 0.28898607315709646, -0.3344539195558841, -0.22288766471659813, -0.05445986151116878, -0.15480349911338787, -0.09159314158625724, 0.08940522598313108, -0.019138932096801196, -0.151580302828007, -0.13084262916791273, 0.02808974752976713, -0.03764988418257541, 0.23308954443240998, -0.06885125030993616, -0.3127733830633863, 0.016412100601043964, 0.11116197952249303, 0.1707976304959918, -0.2533082918953727, -0.02495308752420497, 0.1667734642115768, 0.04890002274780717, 0.29319013280487627, 0.36257067574615187, 0.2702593113560929, 0.2641436753706383, 0.5376263964640814, 0.364310184067821, 0.5373457514296875, -0.09237903318852166, 0.10955809978309378, -0.1700872147063813, -0.28239345876132044, -0.2808715518421901, 0.022834586820972606, -0.22317341963222065, -0.0679997310949232, -0.019165409755163183, 0.1614385932859161, 0.28160412641276966, -0.05788986186376955, 0.06806735602741204, -0.327568811883235, 0.09895721882512341, 0.15174644206835794, -0.04478657477010807, 0.3437560316617858, -0.09242897481421353, 0.3503717876771854, 0.26240281238737573, 0.2342823716963427, 0.31059674842976703, 0.6580215327433551, 0.2835560876664564, 0.5668776946504155, 0.38513317622518006, 0.4405237590772811, 0.1885272073013137, 0.016636609716285, 0.1613799816687156, -0.15384243687444257, 0.05368884807978695, -0.2247404128007779, -0.0966772796726686, -0.041965847797435556, 0.19577972200462546, 0.29147572544455913, -0.031309400658240685, 0.19533468175813773, -0.1384134965805614, -0.25079636329697486, 0.03859280770586825, -0.006718748283337292, -0.08646420781081139, 0.34699410728625213, 0.0314798266336605, 0.2690313677571456, 0.23430070873612036, 0.5263353613416303, 0.40381234998109944, 0.3977498447906381, 0.5705076072702818, 0.324253600291183, 0.3498400791893276, 0.2550329730785953, 0.21331247208757717, 0.05528278544911239, 0.10796652733886669, 0.15046898461532934, -0.1270217340751572, -0.07698908965277196, 0.017700185230930192, 0.1932706299729367, -0.08697838716967649, 0.026973827984251103, 0.029214097056914325, -0.15062138703993977, 0.13835445312502803, 0.06634477442315019, -0.04287564003094421, -0.019680258812349995, 0.27535211969053, -0.005178411420193184, -0.0864909376198967, 0.5536382995898093, 0.4544666221955647, 0.5212487834285101, 0.5543432587696708, 0.6276953721782536, 0.0986059857820419, 0.22518735043765536, 0.34026305716964245, 0.1593580774355033, 0.08855602762835908, 0.3903669846424933, 0.07920876669664038, 0.2297702703338354, 0.19589795191099282, 0.049810905232653975, 0.07463371985943416, 0.11272916230906364, 0.13487357325256813, 0.3732219389381973, 0.22846431099716794, 0.18333978021831213, 0.05995758790612002, -0.22062280043835952, 0.17348178415386425, -0.2339357117598382, -0.042480962361231445, -0.05583868234377589, 0.017107849603726223, 0.04065472970965107, 0.1768094334512742, 0.06334735409781589, 0.3330407269501428, -0.37377207228043285, -0.20585212716515722, -0.051615335997407995, -0.0522784884374852, -0.1265161011724196, -0.06467200711951132, 0.26099388708509247, 0.12495564945092853, 0.19265206743976543, -0.09674451070183324, 0.11875805500974755, 0.27546414984111384, 0.124646520333103, 0.028242346395484143, -0.06535094509544302, 0.05265991514498896, -0.15365599107384006, 0.3019819323538154, 0.224123471028826, -0.3597048483750761, 0.10657934738186962, -0.011914471435295554, 0.2727163514991786, 0.0370179804512344, -0.2014775078246098, 0.07646046156067546, 0.08963190468330785, 0.02578921184580966, -0.24422893819018016, 0.08938287121545316, 0.14671907849969917, -0.13559544575131846, 0.16994822756078204, -0.009175595373435652, 0.011623768633809125, 0.4071201180657984, 0.021196695873194834, -0.16460309656800243, -0.1579339958616739, -0.24075157162513117, -0.09646318581973375, -0.03932814740101736, 0.030730964663628464, -0.33270047329217045, 0.03283425866093533, 0.2463743141296493, 0.08497047526789031, 0.02965541013397172, 0.06803302525606277, -0.2252322313795337, 0.05095071287045358, -0.1303810358046271, 0.18928634301675287, 0.002766021968821135, 0.03394047804421276, 0.12408326653327122, -0.17723018363545856, 0.09121552025357889, -0.06335862381302149, 0.035025891956119805, -0.16048120614253591, 0.11693826151316969, -0.09659154133722016, 0.09174441839686676, 0.024489900334189067, 0.040086915015976006, 0.22132699682659496, 0.21626811228208084, -0.051449933472043706, -0.15594330292905648, -0.0444829016982901, -0.3389402283632117, 0.2608965612810034, -0.09751584141790919, 0.061553621019202316, 0.09199607316454984, -0.12001594053682473, -0.0892866388175266, -0.021770391788243346, -0.353517899395586, -0.3275860339162998, 0.010626600405749826, 0.0464154436735354, 0.2141117187543368, 0.1620937606607435, 0.07749254812572222, 0.1932980311059902, 0.09615576902464185, -0.01623595207739734, -0.007235941481140467, 0.1237031719634714, 0.001574077307708592, -0.09481389739251876, -0.028867354928400167, 0.03737934375550141, -0.24622238827077367, -0.1806432297774528, -0.11585370184230864, -0.11773736945083081, -0.11835776555904967, -0.12897794437552768, 0.28199738606724606, -0.019073567214162136, -0.09012936539033542, -0.008401649045382806, 0.2652810282161196, -0.1103693195873461, -0.13831040472975686, -0.2560591006260403, 0.04250859432877743, -0.1575928105610771, -0.048167369655231586, 0.07063484324617744, 0.03983219340784143, -0.01410505410195594, 0.13518867113550842, -0.10891184528886902, 0.05952230117705814, 0.006842804620072447, -0.18905277434074663, -0.1302578146594323, -0.006810194764868517, -0.23605404321904458, 0.21556598448359365, -0.12186126431152287, -0.05390116066686086, -0.27617802551504195, -0.1533817903045978, 0.0028445258078056463, 0.024322985363620347, -0.02511469369869893, -0.016228245956977604, 0.11041172454749516, -0.06572083022431757, -0.09882647281528613, -0.43409408406546746, -0.15058390321893775, -0.2625603676868515, -0.2384620801395372, -0.13537829447752572, 0.02492604503140815, 0.07583250083609733, -0.21318560106311343, 0.26163010527881647, -0.14346790523995084, -0.2195018166993314, 0.03673651379511613, -0.021446896249054853, -0.14876679604181348, 0.1389804650622986, 0.03267478668682924, -0.15498207952703072, 0.018222693526907422, -0.1298465036108582, -0.04977724047401609, -0.04521911740019208, -0.1046679601304382, -0.0851450539959419, -0.029215437952866657, 0.0374874544974963, -0.1370129315739831, 0.08199992867873318, 0.12671186998407813, 0.06896121834175453, -0.031696639549272605, -0.42024797945164183, -0.012536804873873968, -0.08687189995765741, -0.12235766109233186, -0.09564499323344718, -0.03686214413496888, -0.2021807764179065, 0.10661394062592695, 0.06866529859598448, -0.05061356955746989, 0.18192196756621906, -0.07338852738738838, -0.16930348635081313, -0.01588642192600041, -0.15943443350928638, 0.21417228425199733, -0.008303912947359613, -0.13446221247882179, -0.19679344163673185, -0.07286853244142696, 0.2754747247119752, -0.06780219582933575, 0.06325819749981397, 0.1538548639308708, -0.04128481903879877, 0.0011888081831492188, -0.23138065334234753, -0.33188266069635564, 0.07130259841138509, -0.2894175913567401, -0.1256023499055527, -0.006634023694569085, 0.15422572590884512, -0.007471808307135478, -0.054850455101888525, 0.10976149332808255, 0.2425869795788377, 0.012958406136501247, 0.08297590466755056, -0.011382313684476278, 0.028255021121440148, 0.07892374881007537, 0.04648089301851511, -0.03866164936539755, 0.1190189627964322, 0.049825522262355045, -0.22534850466300752, -0.029048112446818583, -0.021082088387327468, -0.1566437662918609, -0.3668966094190667, -0.04386342411598205, -0.12782497903220233, 0.14880130330817837, -0.10658681945913022, -0.10003592663486699, -0.03830811579986221, -0.18954690420723846, 0.03339757376956692, -0.2254685527158588, -0.12341405871580585, 0.019506136013542473, 0.10888107521312707, 0.1919361750211449, -0.04839398639482829, 0.1914946659719102, -0.08201633067962592, 0.035586993237861665, 0.11165022452313432, -0.026249811295482022, 0.08105604154640514, -0.010208780849199153, 0.09191902223471907, -0.18138486603538004, 0.1224135028755266, -0.4199462132046601, 0.19253319086247145, 0.07178652101874954, 0.17884701496664487, -0.03732598036599169, 0.21560670152626896, 0.3195897868298984, -0.00986956971918192, -0.16453345846568548, -0.005100354456671226, 0.05796719016398308, 0.23009975199506727, -0.1550482201450343, 0.12897777933901813, -0.012086802675073277, 0.06660176612877473, 0.10479095771990023, -0.260096753642101, -0.1593095716821415, 0.09197585236841724, 0.19241574525263305, -0.32423303082471133, 0.06947762578989879, -0.1871881069295199, -0.0750202528840388, 0.10643456954204723, -0.14948675330597921, -0.10328298675383543, 0.16092137740878062, -0.2720200275329401, -0.06494869979703614, -0.05258258115635399, -0.01946684533079395, 0.024310387969762287, 0.30524181535663364, -0.2402297369286535, -0.012886437799872216, -0.07326737828428677, 0.13895204080324722, -0.07034871790858997, 0.030541273425880457, 0.02850980612713664, 0.2352048877804372, -0.03466351372628814, 0.040132056932094505, 0.030182070415512047, 0.003370729992226813, 0.36516199497870244, -0.29507401760565183, -0.01186797210231812, 0.2579727482794768, 0.21034127696458252, 0.07419315262890831, -0.07279789940649714, -0.11727736536428737, 0.10043032067913232, -0.12678274212995125, -0.02549248267232632, 0.3695986567165744, 0.0500955419445442, 0.11828725389566742, -0.013773214600228074, 0.1275501868896564, -0.05095470142474532, -0.11206793185017291, -0.02069657562759638, -0.11609986399124542, 0.03518756457327924, 0.03441653085246124, -0.050852335491777874, -0.3027676435838603, -0.3946704254487037, 0.04383293741288255, -0.15483164623833437, 0.19767430076078507, -0.022544182021171148, -0.04743759683497412, 0.10838119785798048, -0.000970876702342165, 0.4921748402885832, -0.13202394039266863, 0.11774377097246892, 0.25177412412864036, 0.005947286255239649, 0.06277044916673288, 0.2030397195016661, -0.19185661166511433, -0.1558887130138351, -0.025136316231962892, -0.081039824622902, 0.18087376175506306, -0.08604381232496992, 0.010537397111223312, -0.01789602670483396, 0.05074844123270773, -0.003086047703652325, -0.07317611903056072, -0.2852508979861621, 0.3650099824680425, 0.1429237029647697, 0.06166113277894186, 0.019395799530978388, 0.03573600195840129, -0.018492653877721404, -0.08338438152383656, 0.03928537239990505, 0.2422340806419177, 0.04670681705115079, -0.14420081135449156, 0.03159935495383262, 0.16274604893173242, 0.039184853303742474, -0.05738407064525512, 0.11826262406347429, -0.09946669859516427, 0.01375579399792376, -0.05941480292598513, -0.15055232964340148, 0.2967918690898456, -0.11574293741886828, 0.02353599347735258, -0.15329812195808878, 0.28346865515581615, -0.10697383998765263, -0.1273449568150807, 0.005527890491275824, -0.026494957815121702, 0.1780423732073128, -0.33372844687892145, 0.04702803613835658, 0.21130462677155248, -0.08310646688321364, -0.22013721057013663, -0.1641330348704362, 0.29675708979338233, -0.2507712583554481, -0.18404813484167776, -0.06524472674799427, -0.10965177481569266, 0.04262737053705125, -0.035412756671469654, -0.22044848154412996, 0.0025876342269725264], [0.07799292552014896, -0.004352140069693517, -0.16009617315019575, 0.16817790671438757, -0.08327221081092412, 0.11284757606146391, 0.10348533991012043, -0.018937334088387454, 0.12256850683916035, -0.24043344385335974, -0.14052931807986413, 0.057645625295728094, -0.17561466370066958, -0.022448930662382228, -0.011986187306751758, 0.13412806502131666, -0.23586982920067773, 0.14099822006239132, -0.11526348933974788, -0.007783783463799558, 0.008112830185405857, 0.08796140755334472, 0.06500674036454583, -0.025406876260607964, -0.03313484730941932, 0.2124026340556279, -0.2632418471745441, -0.18414723278695838, 0.06324860037133616, -0.1573909302491541, 0.07394191093153754, -0.1529085196225526, 0.020040589259792664, 0.03841032305052405, -0.20077501576812784, -0.010944785737580603, -0.2848546375264127, 0.2447279944132085, 0.19778956409937223, -0.09560497650142993, 0.11777783166967376, 0.16162803551271654, -0.24992311789398977, -0.10872711875909458, 0.1835517344252274, -0.13197182746618058, -0.02932812856395582, 0.18169805517487844, -0.20484162026447708, -0.20053574008462702, 0.07529217884197917, 0.1925684511576819, -0.24255065400041567, 0.2160490229120125, 0.10164202901236, -0.1701271382702343, 0.3979913158489874, -0.021563474179908212, -0.29096885221499474, 0.08532064116371162, -0.11246317903185249, -0.1385452426454909, 0.1786116230548918, -0.1512567738315545, -0.010691619803152572, -0.2533729885632392, -0.054395295967700964, -0.05507371146335264, 0.09617754310120137, 0.1408232329486421, -0.03854116240441925, 0.1407498439558718, -0.06612209549667374, -0.2731805617203668, -0.22344236395133887, 0.1524767312274227, 0.16454482180349067, 0.06444565959503387, 0.09316078344313718, 0.19283974437704446, 0.005365269533365836, 0.02433670054312554, 0.04433304871096868, -0.051623355931950936, 0.02821969124807529, 0.23459411069673056, 0.080436747884244, -0.05192131589506131, -0.09495776908957432, 0.014016646351319021, -0.05614358066007466, -0.11193683990754161, 0.043694444749456635, 0.09281452277585175, -0.2032209148432704, -0.009539994341480569, 0.10759085766717565, 0.13952772691056098, -0.1474362251461272, 0.02971851761993789, -0.1112706586089885, -0.27237676175474, -0.13859558249289416, 0.06582819849452322, 0.0035547142922874348, 0.04921554748965653, -0.06709498738893625, -0.23444402137392473, -0.21491243798787166, -0.14662119427032833, -0.1239737688997501, 0.032842388733696666, 0.044944098374289976, 0.15479557880865155, -0.15598645624322205, -0.15239505906735065, 0.35450183300558386, 0.07522376687394855, -0.011239324657131317, 0.13495930810173493, -0.07402803455018434, -0.05741369366819544, -0.04520321023879333, -0.10659477662968704, 0.33950283897256, 0.014653234245138433, 0.3867866325040818, 0.01813797951797395, -0.08964458871170856, 0.16824256007990232, -0.07989808952329838, -0.20795060275890082, 0.16672419877589786, -0.024724487518381254, -0.24092106612660455, -0.08056465841393057, 0.07911807033152708, -0.1685632191675791, 0.020287095727536564, -0.139493805623389, -0.16276755127873754, -0.24561247182640336, -0.0875317410500945, 0.15453600864568426, -0.10032555600273584, -0.006379816062541339, 0.2649401122804053, 0.14425638147652217, 0.3162464339236953, 0.4688104641129582, -0.002028900108910529, 0.19950033831185268, -0.1198665326030389, 0.10259600441590189, -0.10677195409052104, -0.016816986321748235, 0.12784118012776155, 0.08820951421237112, -0.0933869034334706, 0.0367857158826153, -0.13083339508525482, -0.10000142019546418, 0.11653740018819071, 0.09394213943131038, -0.0075085438501377565, -0.3386806894155733, -0.28040588667441824, -0.14419587396087186, -0.12515646217154627, 0.05221662293655871, -0.017680672875464026, 0.12168449509530471, -0.2050723868778768, 0.010124195995267468, 0.06926519375186489, 0.1203782153580351, -0.11268103605884684, 0.14938678936674565, 0.0061403968452764576, -0.07994721335025548, 0.019591665677759836, -0.04426957630366495, 0.12541022950707548, -0.4821412069372949, 0.23927979139151653, 0.03628187499169011, 0.21827381923952835, -0.030832892668458952, -0.12679493118810892, 0.10870129829210436, -0.1725410065391376, -0.04413496151666468, 0.12170203904129098, -0.213302427506576, -0.08087727425827858, -0.07019412722688116, -0.22998858050748983, 0.189629737972535, 0.15831829805595768, -0.06392487149123537, 0.1710918293670113, 0.1291496400981078, 0.4614642483691878, -0.04966409085595682, 0.08743183019642907, -0.17754326148167748, -0.0032077238297635, 0.048945392951818295, -0.012580080317852141, -0.1649285434487118, -0.031040738033971275, 0.013005209932112644, -0.04003390933924542, -0.3045796879308462, 0.060585725788607145, -0.08059229836830233, 0.1899742285309898, -0.17370515071572667, 0.3116180428369826, 0.0025491490657880114, -0.043659725729435085, -0.06441770722653144, -0.05724171225079377, 0.026237585354026607, 0.2053813463308034, 0.11045058712335035, 0.2474154999149269, -0.06886747888954467, 0.37455965880658415, 0.12475009593692442, 0.03857211512950695, 0.0591623489019245, -0.1915242801090219, 0.10793281813195771, -0.04922581654724562, 0.02682552961325649, -0.11463977398771352, -0.31859203613610326, 0.15406171237135083, 0.05937497150667657, 0.11290725978103981, 0.18778484386572594, 0.3627380802125164, 0.17929133240015582, 0.29105739575690875, -0.19516760122894525, -0.09592853693961555, -0.06816923428273132, -0.12371712926158984, -0.07857825438650025, 0.05409659665246051, 0.25100123532133845, 0.1431319199408301, -0.10904089363689881, 0.08198002923064769, 0.37455750203133326, -0.12234887690894125, -0.016310329700006693, -0.0023056081194682563, 0.1003837396699498, 0.06898778711097116, 0.04672257642025447, -0.09966854240433876, -0.13251543758633197, -0.20738726112086533, -0.007537809796689105, -0.23189100718938155, 0.13669008587974232, 0.3444441956326725, 0.0409793924762848, -0.13223173703308225, -0.19097685095889905, 0.0385167499545423, -0.19042414366277724, -0.33054194911661844, -0.49424617427865153, 0.07849670807107523, 0.12268784569766462, -0.21435465577551008, 0.10602173083161814, 0.00956321610215075, -0.3279727477002879, -0.3102751874289025, 0.027733509029479207, -0.20799672220979715, 0.049380237199756406, 0.007952171468969605, -0.09942932816188718, -0.09027084256521323, -0.32318366267365983, -0.24750726439311554, -0.3286776472728435, 0.13037148251388123, -0.23959678248366514, 0.08836418179694758, 0.1951940462414051, 0.31483390467547673, 0.2951112690071629, 0.3289893319734966, 0.18283292606047138, 0.0033907281462370524, 0.17917758779706247, -0.25119727319915464, -0.13859497385817837, -0.26023784909954273, -0.13588291379830778, -0.08415886409013172, -0.3051579704670099, 0.035761847764569976, -0.11655345972003901, -0.05238737533380669, -0.25163309691826913, 0.024178015137128844, 0.2211131239091869, -0.28383197637337887, -0.22337510286749507, -0.34044544175354496, -0.18727028632547543, -0.21340907934253703, -0.11727804823486972, 0.06689555760788479, 0.19248977583291207, -0.10750986185069779, 0.1663919382183465, 0.16689185114184735, 0.32606855492965325, 0.07253962378393047, -0.09441072017573494, 0.012352476361474149, -0.35877726586885905, -0.05042795876009133, -0.3545180413677794, 0.0012282574568136895, -0.057603078243782524, 0.14527471420423088, -0.16269108415258085, -0.1393649156077922, 0.14698203599455414, -0.015722720573571408, -0.26687461386896216, 0.12539013416210884, 0.04553338000026514, -0.40036811770464625, -0.13285204324509953, -0.4692853016593163, -0.0556763406171891, 0.020036435075508743, -0.020504008819368768, 0.19084874153099265, 0.06675877045301386, 0.05333115352641361, 0.33062437387625554, 0.2730009292070391, -0.06727285005290269, 0.32339682937127145, -0.021275014527124325, -0.2381525084435594, -0.048838989012622236, 0.11566092788198483, 0.04384321700306383, -0.23250181249830815, 0.026586780113261172, 0.3197696493904366, 0.11589021361017655, 0.033302707897187374, -0.11884304327287999, 0.007587927690633144, 0.013253536920206152, 0.24839866138105995, -0.02349011978343742, -0.39013812449375385, -0.18487865938569434, -0.22392930970882294, -0.1430945594786548, -0.2327221692585573, 0.05163246147115564, -0.2995167271521276, -0.055882197588868046, -0.17840521281977095, 0.3406844009055212, -0.02434757224955212, -0.10043434938373491, 0.023837725492942368, 0.07739015949798096, -0.03269210718787262, 0.08636157933769002, 0.25146550927623684, 0.19436472239857921, 0.10286752045079847, 0.18961170897050764, -0.025248746772067465, 0.04687491001047706, 0.07554751929334942, -0.19879065414307837, 0.19220238546082277, -0.1520424110064534, -0.017300546334382057, -0.10839489720901592, -0.28566548853912105, -0.048968029333302014, 0.06232918828614478, -0.000997289810784831, -0.13223610949304515, -0.13824939310918966, 0.15304984430745322, 0.0923000937616485, 0.1063356176819245, 0.44230603707115046, 0.23326487282718147, -0.0005860714398962826, 0.11011066253493315, -0.03145051086921588, -0.2199457583030238, -0.021643497461887925, -0.15387165626811306, 0.3607755534626074, -0.09514487198659213, -0.05540036609884687, -0.0009907733892700655, 0.09120167039377937, 0.049261051458455093, -0.029053618247314613, 0.17103426729304533, 0.14582504213155403, -0.19138887662844242, -0.2951813319671748, -0.14698060403459404, -0.22142901386463065, -0.24192617865506344, -0.10649706138793824, -0.2663379326867446, -0.020234520098400814, -0.2017156338836672, 0.3033343799357252, 0.13290669544195324, 0.35069324956881565, 0.09918716072069941, -0.1665893950488571, 0.009573954475692108, 0.008837385756378331, -0.19562173884435471, 0.2304597968688936, 0.20672704613092246, -0.04184631933311811, 0.37312170731256566, 0.1585181815111238, -0.06866817707473918, 0.25623351220072577, 0.03330366137372543, 0.15436208618408942, 0.021258005763898895, -0.27361055570354187, 0.026363985533969955, -0.18520602908010483, -0.1967911384439067, 0.0005850812167886689, -0.032977408509837054, 0.0025706822219933585, -0.16120211884166635, 0.15287329006092426, -0.1107101077279047, 0.41387618800138554, 0.216711776908273, 0.13524947959974293, -0.057129241770609886, -0.13279917364363267, 0.15809390321004252, -0.031761234477843174, 0.23633727880243965, 0.18213681849335941, -0.03866921879606361, 0.16843615505343024, -0.10727744752450173, -0.07805812136171138, -0.08074193941128566, 0.20943746206742636, 0.09601358821811329, -0.26573632930380237, 0.09818644653801512, 0.12668115149499184, 0.009637304896746125, 0.07166414605242738, -0.15041845205213913, -0.14062824889878295, -0.4974433907829662, -0.16819559426499053, -0.3305087694443093, -0.47499353418480444, -0.005627933957117356, 0.16523432581528405, 0.053099079164515596, -0.15333918731470852, -0.2500770135635462, -0.030588609681468343, 0.08548046119907919, 0.02032273728662129, -0.015583909160984248, 0.11107217852713949, 0.18706103700071025, -0.218856329316743, -0.1077771349831098, 0.3338818081571474, -0.09392971226922632, -0.09381790232701277, -0.39841523998623857, -0.22289653911262167, 0.10603573713442468, 0.11771611247932043, -0.013134633834689885, -0.02369142954663327, -0.002163896439447737, -0.2770863800115151, -0.20398786004141709, -0.4346792837197283, -0.34503395884659677, -0.36226681679587, 0.007103997774495305, 0.17239200657775763, -0.1883467349006815, -0.03645727686833206, 0.06551377877502036, -0.11519952264297265, -0.40862458469788343, 0.07677769104202506, -0.04654153838068812, 0.03725033377204298, 0.2708167114386344, 0.043330513199079004, 0.09935723925912, -0.006478442275674772, -0.23668768755233358, 0.09586056056096913, -0.18819942018325067, 0.22864307822840424, 0.03281220872801732, 0.0748173446557746, -0.09423137280038155, 0.004094928587113067, -0.03615429566531831, -0.21831596540080297, -0.026176589228722506, -0.24742850934037477, -0.31243948155577067, -0.22358314841058363, -0.127861935958067, 0.18016557524342458, 0.22985755460574242, -0.21988365263466375, -0.041148382816456774, -0.2512221406838222, 0.049256597686555145, 0.09738251948433373, -0.27486896021500046, -0.10349116007984725, -0.3623911262069197, -0.19290366022517896, 0.21112173865173264, -0.04341972969893695, 0.10787741145764251, -0.11735875704818052, -0.32597118552870624, 0.1183186112409469, -0.044005445416030096, -0.11293382648548156, 0.018403943881241128, -0.09677624256117506, -0.205393895017295, -0.18242898197021168, -0.09787541756226718, -0.08613086398236501, -0.11091644669471842, -0.11664891100249733, 0.22524951136819457, -0.1692621014039082, 0.15898186696360975, 0.046870462325367165, -0.016570444217855456, 0.06705482122313924, 0.002148445231053162, -0.3192012214437976, -0.022563070086720805, -0.11012316087240447, 0.16682196103467123, 0.008457244679157613, 0.26485318037508515, 0.34503416642505624, -0.30410285785993973, 0.1447889375598046, 0.3558673674203491, -0.09224510804904497, -0.09124389894031128, 0.3088347557546202, -0.0015921414713816382, -0.3845239218207681, 0.05893483019271012, 0.05514499751208381, 0.09990964367216597, -0.31154577342436857, -0.3284612151823978, -0.2991438339705084, 0.0075614528219103035, -0.04950446771704653, -0.11367206660886427, 0.16675279405686516, 0.1246667119618856, 0.0929199430445659, 0.14521683404972108, 0.10790431445170685, -0.19248531836803048, -0.1985114126554566, -0.10187949198356262, 0.11410089300469911, 0.091661323661127, 0.17960148310770493, -0.07468082832314239, 0.16407147692707405, 0.14506137988196555, -0.13594449928949134, 0.012703558464281962, 0.007319301372632173, 0.11897628439679764, 0.14124975425459252, -0.16106341662678447, -0.17662796838311745, 0.042192255201133476, -0.09407002395522966, 0.004877767360025064, 0.020839018338556996, -0.18299859726639245, -0.054912244911844245, 0.21764977197696003, 0.35895769254383264, -0.14172370248389318, 0.1110266250700915, -0.03473805659873904, 0.2802024848315415, 0.16224768315838217, -0.2003336524355826, -0.07089203715381111, -0.17662225507145235, -0.36138140021154375, -0.0420407729467565, -0.17886894546398455, -0.34091451018416125, -0.013806349577875151, 0.06414785229109878, -0.05899793865351443, 0.22538324099785445, -0.027923621875618462, 0.18522958413378018, 0.3734893234379366, 0.11685578640776637, -0.04976886887583189, -0.027870465037292992, -0.08745430697107098, 0.0381761482508392, -0.3014384826171635, 0.2727368106720206, -0.30911549216679163, -0.1779721508936275, 0.17486914894641023, 0.08703756408804046, -0.1861229944624686, -0.06809295340951364, 0.11766807881160982, 0.16461924794528274, -0.09866988960467872, 0.048562894838092216, 0.17527261393472535, 0.14563607000820322, -0.2137045756920647, -0.08105969724705951, 0.08158185869580717, -0.09936071260137357, -0.009628250249438636, 0.06620037489708107, -0.19806863422915594, 0.17404787027336374, 0.17444711239856422, 0.0530653854372899, -0.12915461503721828, 0.16191028222491038, 0.054736000899476715, -0.030935093940252272, 0.08226806310486856, -0.08294528693495636, 0.1603937603212404, 0.2997351245820461, 0.03438202096946644, -0.1708343383304918, 0.18625883042999214, -0.33451991714463725, 0.10059262987386462, -0.09261989432549556, -0.11218758030958327, 0.1053404676054419, 0.15874261299315656, 0.03214922880962457, -0.28431098044546804, -0.0434809342274588, 0.13143118023184644, -0.22885300794788438, -0.11722912127247195, -0.10442621347284921, -0.25270649067372564, 0.019799517483492037, 0.10040544799758024, 0.09942308711434102, 0.18549028616505914, 0.04856840925250108, -0.22540377220975485, 0.025531653440380705, -0.015170271413732048, 0.06856048894129291, 0.1479925718368808, -0.09472130986981162, -0.07940230816848907, 0.05698699413408342, 0.16201646925842822, -0.0982079079483436, 0.11932170033528428, 0.2793899544873039, -0.08700196594415216, 0.07608320314953586, 0.0755806523917946, -0.09299767993206981, 0.03550000658983495, 0.011815431020741743, -0.08758886557875353, 0.021927942342943027, 0.10279679534968302, 0.08318519442073284, -0.13759353653674808, 0.13769937616536357, -0.16058076209880867, 0.355732407141197, -0.08690111835112757, -0.035820382899362284, -0.18278605498815198, 0.05428923404816213, 0.3376601150506259, 0.023194703732338902, -0.16650960434396564, -0.03810423014642209, -0.1933369326541918, -0.10093887397821262, -0.007190876031272548, 0.11711581991693673, -0.16934941414167756, 0.08390558172909444, -0.29567715800596894, -0.0010805273199270627, -0.3444980628944435, -0.03888959307126996, -0.133401826601877, -0.032569626268086134, -0.07105133686719454, -0.2488461191726928, 0.22494562770562712, -0.08133500148916493, 0.011438525111549807, 0.02993114399659272, 0.043081494465505785, -0.09985115526931797, 0.10357083328863315, -0.10930437213102738, 0.038462377613577035, -0.040924100787968896, -0.07997969405287761, 0.054974277054252355, 0.18854357830342902, -0.1950645652204877, -0.04964187822634299, 0.25484943863326953, 0.0827072274737845, 0.024685760421275228, 0.03733130295681091, 0.21138062468967841, -0.03167859390549029, -0.01165603510722379, -0.14454354224736843, -0.1005328402157451, 0.034498003314123026, 0.0029968754035147507], [-0.19164344171703038, 0.3475740910007125, -0.2924186866906737, -0.03356659935371399, 0.0786498632376112, 0.04022089198885812, 0.03118389918669848, -0.17907013271087935, -0.07468452539907766, 0.17265580271069297, -0.035085179780059914, 0.04564749695288799, 0.29272731205325914, -0.04118369979067546, 0.1909731543420791, 0.05903730398263707, -0.1541599557922093, 0.14530084052558775, 0.03712795674805996, -0.1600776881913661, 0.029867983719581406, -0.06173918550997008, -0.0878557511701727, -0.09484453363839705, 0.054935101881847054, -0.07722213593153184, 0.2867813494416311, -0.25573674048347267, -0.024366053143764062, 0.05071700011703458, -0.1437852137379943, 0.4256110385851001, 0.017691688837898588, 0.10851065231471975, 0.08130409380400319, 0.21903462955951927, 0.018181642152561933, -0.03412055008479007, 0.1701982177707427, 0.3058927054486771, -0.27627925670543635, -0.19360139986470756, -0.1260441120920446, -0.26302359277935516, 0.04308387478475224, -0.25602222102715194, 0.08376482648852625, -0.07526336605822063, 0.09597434114288667, 0.07078574571878532, 0.08738364686672384, 0.13596950988403828, -0.20007884747041949, -0.046437121015197876, -0.025903497139010585, 0.19320240720617124, -0.041104529000652326, 0.15580032090850932, 0.26070591394138853, -0.04028794849513466, 0.13288461397702256, 0.12704880587988512, -0.17460577572067745, -0.11825476065788414, 0.07991346220226608, -0.034027638796856205, -0.10515109230821028, 0.18794462054507144, -0.150310669240029, -0.5175894909092312, 0.15481108338139435, 0.2123529006884392, 0.038724350236300505, 0.019065864630160873, -0.1447348173287536, 0.24130974345848327, -0.2064709406323135, 0.11765457533787088, 0.055555408053405225, 0.00012653487663074538, 0.08059993892342251, -0.11538540422621771, 0.04974256161186439, 0.008921898638817398, -0.26158016963330244, -0.09292542496116578, -0.09373213005615368, -0.05904093504636904, -0.2830973474628072, 0.024353652711408817, 0.12024920032285441, 0.15720470624944954, 0.1033697867015929, 0.18838413206645074, 0.2799095437680501, -0.19585245604162257, -0.19288693796765158, -0.2420360404636009, 0.07469010185977938, 0.1413445513692053, 0.18532306381230415, 0.16073444628688976, -0.026094890941044203, -0.10282807476456085, -0.02537633136708324, -0.18184942896210676, -0.1672739948731798, -0.09838360980276924, -0.17487100015614718, -0.07171782911843778, 0.0552031375217164, 0.07097295058295032, -0.10246003790721225, -0.06814780114920577, 0.005619791453279172, -0.1727320221323373, -0.21228654747622636, 0.032806977988132736, 0.05940541663595375, 0.18404505685855663, 0.025981433249065686, 0.01339002356471538, -0.19519118303090705, 0.04753287481683126, -0.1411220286764644, 0.012851286383395196, -0.020836128740602058, 0.28992516122617007, 0.20145934658656628, -0.08040984785305044, -0.2290490599644577, 0.07578953013937757, -0.13924634975001682, 0.00303213580203725, 0.05678388242811372, 0.034382212865876206, 0.20913382777498518, 0.33126551806258564, 0.05537580764624215, 0.13998595864938834, 0.21376097713711822, 0.1062511422967104, -0.0004497097802269389, -0.04557816974078783, 0.2988886033093161, 0.0552166498703699, 0.00020512931529725436, 0.23265392828867668, -0.18216473656773804, -0.0067325613968840185, -0.1707753507101144, -0.22801669266455807, 0.10880416413315462, -0.07897523135386268, 0.12277029132891898, 0.14780029420464738, 0.24234590008706752, -0.061308547792079914, 0.1902026235253755, 0.3070109464232107, -0.10135837189448461, -0.09950492535285488, -0.243060793764434, 0.2596039215887408, -0.078013253314696, 0.1668664560921679, 0.15440447670837115, -0.07752485203949307, 0.02194365939184455, -0.10608342100198115, 0.21232747860569945, -0.17309236133617845, 0.23375007034816703, -0.19633345623670434, -0.1747680019424779, -0.09456668342758015, -0.16280807151082913, 0.12405692678540908, -0.02101376455409627, 0.39603948660917865, 0.09608397499185356, -0.10253268536823301, 0.22068619414357607, 0.19247788370598326, 0.29186559092085274, 0.08468285766608045, -0.017521701341558886, 0.4919209420687954, -0.4092852163187037, -0.02589899000842759, -0.09544081162139065, 0.2769396619914151, 0.02084186974710805, 0.04050940981341184, 0.1311744489240618, 0.09386339922451231, -0.03375489235606475, -0.08555588590070308, -0.014083780828082124, 0.25161420972535903, -0.09058843974987331, 0.12942980956742256, 0.07823871856836496, 0.05387949274505625, -0.0413711345112932, 0.24370076931333318, 0.23650243941814472, -0.19733065433474387, -0.2398746441622457, -0.05232410809786153, 0.12357041753574652, 0.5183132789915539, 0.13415952228509295, 0.06476958352217375, -0.09873509006041627, -0.27842789069936663, 0.15437512847958484, 0.19105756480167105, -0.30533831805884676, 0.140429164632269, -0.05247230033879624, 0.015046961491987955, -0.12437487573822684, 0.15114797063264493, 0.0597626559426302, -0.17375504194114325, 0.29413505750976626, 0.12396137899271661, 0.044229687328441576, 0.00860473393925834, 0.23443757774377466, 0.03900140858848427, 0.11094595449673747, -0.25074553423311224, 0.299200759314516, 0.1477710523644385, -0.018042930750248157, 0.033943868188075245, -0.1166513417348551, -0.05999386115685068, 0.12227893340363889, 0.2890258198335751, 0.07327329871469385, 0.13742880475300465, 0.28590897349450967, -0.09272252779759581, -0.1362300038810082, -0.06621384415232381, -0.1817129248406367, 0.09197293125470168, -0.04427956957254928, -0.038199386755154045, -0.04578855016207966, -0.06528847386625235, 0.08694919071923413, 0.006252011681549664, 0.015565815910205963, 0.11692350058517627, -0.22907941998112571, 0.3429223726462062, -0.20507865299316763, -0.0963850729925181, -0.2639826722031454, 0.02679347322268422, -0.1654447626265027, -0.17705200092478418, -0.1511193409958262, 0.19065033551674437, -0.19126513884584512, 0.3356481739866462, -0.1963377296389563, 0.049362128966163446, 0.231096838866438, 0.05665053189534413, 0.08094349067445003, -0.2101260630428397, 0.09179877003189568, 0.33179072752347916, 0.09476730667292868, 0.15663889339465137, -0.04690166996331262, -0.22154660964570425, 0.16596804674723387, 0.07173649408436218, 0.08710031374110834, 0.10249059318134043, 0.026059818819834792, -0.294867765707022, 0.11875245972083938, 0.00044607896361331434, -0.3572051911714536, 0.0051005008048604986, -0.111998877404923, -0.025535843227978652, -0.1466043565875513, 0.06455039200004173, 0.10218650508768579, 0.023106571609249088, 0.26286788394463667, 0.2599167486964036, 0.11789738200495593, -0.03556647713125019, -0.11874485751449476, 0.0436818639816899, 0.2133973910532249, 0.13010204751266982, -0.17649725127158383, 0.19780398090823145, -0.3774134565961109, 0.23240639052074044, -0.022476345218618098, -0.03686937245641931, -0.0772622174937786, -0.04782951630183782, 0.06859921782506712, -5.0072704180152344e-05, 0.06802875029752195, -0.22343633769771357, 0.23044445183133982, 0.24905231052059296, -0.07193920188242212, 0.1913133759113343, 0.2749160946083599, -0.04273216876419537, 0.28227365347622124, 0.04308893001615832, 0.1728750741233813, -0.13065736054861798, 0.2536441634317265, -0.21565576614636423, -0.08616959653399886, 0.21096250111551362, 0.026073901851995925, 0.018977481494310996, 0.002530477391383241, -0.0455953306879769, -0.07416554018661503, 0.1025666253876509, -0.16917519457552127, -0.08651121179829233, 0.18185917384158498, -0.17124827984443142, 0.1499751359770698, -0.2478509483921912, 0.36665160021035675, -0.6601579597873142, 0.17881674312407367, -0.1475680961399278, -0.1958276748352223, 0.13185714543881039, -0.27833222137757335, 0.0685060042176163, 0.17324974444488742, 0.039859944254369103, -0.09879360477492215, -0.05119797549635466, -0.050736669942048736, 0.20514859728272714, 0.024839003049575547, -0.040481212724624786, 0.09540255415576164, 0.02440051650865595, -0.17133691119749764, -0.1536433877978114, -0.10877516685374827, -0.06670722583573062, 0.22204077381400703, 0.08462323988747222, -0.08223951529605834, 0.14147368962069246, 0.10178271694182135, 0.04907943299272764, -0.01830857627311151, 0.21019503798580694, 0.14229736541044624, 0.11192094946333664, 0.013205830520750137, -0.22526192337536904, -0.029891668228414815, -0.1585595071552866, 0.1805225760199318, -0.023979818144437445, 0.13268373906651423, 0.03690599429135204, -0.31967246381416803, 0.14140014390908573, 0.05505947996229149, -0.02644543070193978, 0.04573703270593141, -0.2272840398549533, 0.11590851041311619, 0.2675493218328581, 0.014821280044276533, 0.1478736895629177, -0.23922503478212076, 0.12686929750044473, 0.005075877843887942, -0.05590770954345226, 0.019995222065916637, 0.1323564200009396, 0.14984592561071278, -0.05295522924854769, 0.13075613094679459, 0.1825771776945551, -0.33259228853713035, 0.027826842331113533, 0.1489216283782396, 0.43649400749133055, -0.10571059340073584, 0.026797640112975613, 0.22028263045122043, -0.028744721618732906, 0.04252653379895659, -0.23306635312277624, 0.0035523445537844205, -0.13059742567711616, -0.15784974096075854, -0.010003409061185166, 0.1289624848100103, -0.09634720507426128, -0.032886516695662435, 0.02249139162050297, -0.06347700683032993, -0.08616211016311068, 0.05231510381931845, 0.20097328325169903, -0.08880467101657205, 0.038943850274424006, -0.02141128815328866, -0.11243438929055402, 0.08034161226044147, 0.07708074015346633, 0.05028948653320438, -0.09452063782951671, -0.0707218731466495, -0.03914327671792893, 0.0878120180402661, 0.13869515289086404, -0.07790017533015213, -0.04450504400972594, -0.2221426666947754, 0.07229778878112711, 0.0464325545940387, -0.12421488776369193, -0.23993267091757242, 0.15237837056844045, 0.16688549282975812, 0.49654313035372755, -0.11263082816302507, 0.09110705565261842, 0.21321700693349724, 0.22159281154593863, -0.21478920010841582, 0.05582747648611341, 0.02345695398406192, 0.021740054987972185, -0.2143437029884344, -0.18847568490796723, 0.2491135035490443, -0.21878236400345621, 0.12865577786912663, -0.06250009909763304, 0.06975754025456861, 0.05453754662598289, -0.06165477414278554, -0.09918170359092932, 0.1425564826506788, -0.0064934877907995596, -0.029248019375332494, -0.11881353354021598, 0.05521681764305212, -0.17673668467320267, 0.16062345934773004, 0.2201468795281436, -0.25344236945104376, -0.04297914521939464, 0.18298826381065753, 0.1310710039357692, 0.12650392373674968, -0.10182497561621251, -0.2229911600396821, -0.016568251702061873, -0.029786417356751416, 0.015803043069961213, -0.04837383024625858, 0.28828557645414954, -0.2268345414608906, -0.27976374530240844, 0.005408851030293346, 0.08072273203024773, 0.11434476952278588, 0.04679484973357553, 0.1799709562702766, 0.19831606439452226, -0.0029068392465927914, -0.02676657953721298, -0.23277894532770396, 0.13287870045340403, -0.285050732510559, 0.28790774580779604, 0.1231546447707531, -0.14333279517738043, 0.02935210955712012, -0.022663907245801303, -0.08918195877134513, -0.025801062304271004, 0.11289076084201918, 0.11200278779360254, -0.01832496025798444, -0.30924551917672644, -0.09205324045684554, 0.07787072278973756, -0.14050964119232262, -0.12796249166048096, -0.07326917585469409, 0.4053088956530323, -0.021233235463962944, -0.2254368775711613, 0.028220436820967792, 0.15590561418019092, 0.20236380264379758, 0.07656262921125494, 0.11841312886402823, 0.1482167591190479, -0.2409346968409945, -0.23338963331809173, -0.03556544583135007, -0.03289623821021098, 0.013658856183304225, 0.11126195032959724, 0.04640307281312407, -0.05681969828204537, -0.2156357824957333, -0.08731303107194625, 0.2085493509619636, 0.1303381305682543, -0.03430988073869818, -0.08382384485587074, -0.004140138318405665, 0.24924401365795515, -0.09779864754442916, 0.10946825651220829, 0.11452127523445717, -0.10232319177328872, 0.2815821794689518, 0.008206338782439216, 0.22628923891180705, 0.04588888699103032, 0.17002593497694365, -0.04619094053089444, -0.3166826395957947, 0.03367502714091284, -0.14651630904549223, 0.021135722703399317, 0.10206167974083591, -0.006921584870274633, -0.22337937066673227, 0.02558072504649054, 0.1537532052090333, -0.11043839225329315, 0.055553033468805565, -0.05596270221154171, 0.07962391257281072, 0.12599413083161726, 0.08397899957564224, -0.03829167514695782, 0.06627710335804578, 0.07832644957495702, 0.06889614648981254, -0.20125940691190183, -0.11509456813004686, 0.1387173381264899, -0.008163388794787957, 0.27844020372681993, 0.18162221793617847, 0.2547306918465665, 0.20307982602943808, -0.014540231858798588, 0.31652060303708424, -0.26408775315561434, -0.350081855218117, -0.025498194393723143, 0.12535725855924504, -0.07737672640924069, -0.07408807434826095, -0.006992430580924612, -0.04250089075001107, -0.24253472418138158, -0.07405514738642607, 0.2325090030327527, 0.29551533052266227, -0.01706517096208764, 0.17085750194074284, 0.19515204242487427, 0.03160577410434028, 0.037356587691086046, 0.027642690411432372, -0.040289422398190555, -0.011595083001292635, 0.08795543914212886, -0.08017052966186734, 0.3281368799330079, -0.08334668233981266, 0.16274077692616326, 0.37947679663162853, 0.02371407950006151, 0.11829553482151127, -0.14105708565834207, -0.06494269251848206, -0.14551110894733563, 0.2576505717435174, -0.051498512846249477, -0.11730067054860231, -0.08147522830536681, 0.03832117646304078, 0.0754247906450078, -0.012650259965951224, 0.17979961914611, 0.24951840867226208, -0.2954702835470993, -0.22670963744517197, -0.02105424278154421, -0.10267456891846172, -0.13596383872189746, 0.002723102166960955, 0.08019430549280715, 0.01655146738482866, 0.019914646909361, -0.07666863897633185, -0.139190643298365, 0.027483946686217, -0.004369767046761433, 0.052828051557286836, 0.12846035471637723, -0.08677669944388203, 0.01210579783114746, 0.16492411860478634, 0.21761945278782568, 0.12692275117676785, 0.013795020617440826, -0.052020613449461364, -0.2657661265129424, 0.08740999225900561, 0.1456808356762581, -0.27588306456264267, 0.08884232197024503, -0.09515477356308415, -0.18929290126656553, 0.03626080376517278, -0.40945819553731566, -0.04365960375961342, 0.002956633409840673, 0.16758863313037653, 0.006480025499282697, 0.0639414951853476, 0.12560236585699938, -0.14189200313661907, 0.06939943599702947, -0.1575296445462776, -0.011116906359130662, -0.0952949117807792, -0.10148661351759455, -0.04839403055387185, -0.07456607013383758, 0.16173868332734928, 0.1916691625791564, 0.018942598021352813, -0.17173860398048107, 0.15003250869430956, 0.1683303419754307, 0.1808752130561373, -0.049042589215774444, 0.0287841499523092, -0.07362783118722198, 0.0758227669096511, -0.10350119660531171, 0.13318027021554418, -0.2961807914584198, -0.2373318333319212, -0.19298517811933807, -0.27176606301751505, -0.09349140870467211, 0.01190426723959417, -0.1142097862790242, -0.24551633493949698, -0.15884642160721726, -0.23266294364750684, 0.16753444855858216, 0.173450288232807, -0.15222412984769618, 0.18874898624289516, -0.18105979844626638, 0.18869329843163773, -0.20667551462762185, -0.1830294147296585, -0.07151076229254202, -0.09011441048651961, -0.2795455728549097, -0.05611037063737964, 0.0745137034398405, -0.2052277439641889, 0.29966254716808244, 0.1921818690873262, -0.15364239139371003, 0.08337255266787945, -0.062964070186575, -0.08281918187594817, -0.17606618029833843, 0.2205233838666261, -0.08240486783990245, 0.009449617490112146, -0.12625980699203201, 0.30353399083778754, -0.0775994868280709, -0.1791345473020895, 0.1674560410114961, -0.15899817977189365, -0.17104695054071936, 0.024177733134782064, -0.044599574706497475, 0.16125897507693285, 0.01658171253523443, -0.18901694066218586, 0.14360565496080632, 0.05029570357777422, -0.18918981336893248, 0.025797256764740793, 0.03055496162367723, -0.1075709888169366, 0.31912092917083223, -0.2715777388015839, 0.03663957725573405, -0.0370291723454415, 0.09153230384568091, 0.15213068147016956, -0.05349307675015976, -0.011435671274728863, 0.3052174860980893, 0.1501722936338985, 0.2539283270287639, -0.0517951629426005, 0.04008017800662493, -0.06345323543252926, 0.2208553908689355, -0.040363708871207014, -0.23063778522483847, 0.07261431249015547, 0.09924353182390934, -0.11498402317006577, 0.16525748859738587, -0.2310190614855862, -0.007932810196311452, -0.0595986262646615, 0.010390330723810673, 0.02754075203785367, -0.027883753839100352, -0.044544737837668914, 0.18034125029009365, -0.07892879317698874, -0.018483551029642144, 0.03051771715166805, -0.006646691631982757, -0.07470371326833401, 0.09014289803458755, -0.11485890714122249, 0.1486104557022386, 0.14042245706654358, 0.20573558865521124, -0.19013458806016867, 0.09111421086467614, -0.05308113490891461, 0.19077292993991507, -0.003668037133149145, 0.0320303711144917, 0.03767752252659302, -0.0493353720698468, -0.048638446406898864, 0.15467613081896242, -0.29869000812516694, 0.22102426178053633, 0.22227997229864166, -0.1924612485106258, -0.03473832592343495, 0.10886749269558885], [-0.2626657861955757, 0.5137866234407696, 0.09059029724639364, 0.011449680083275982, 0.13204157043763307, 0.263144723683546, -0.12893353345548927, -0.3338960394898408, -0.07048513410998523, 0.22105590071863623, 0.10110887189667082, 0.16029846337844256, -0.36781806841316644, -0.20417263652197076, -0.07839355113134203, -0.1886265400986148, 0.02830918725820331, -0.03698984946124563, 0.010651694185053778, -0.041114038962174894, -0.10921119755716405, 0.014987714283329963, -0.08937757335163884, 0.21711054315506856, -0.20375146345174294, 0.1507677927649524, -0.16178204335195615, 0.06973368056933307, 0.19777624913799693, -0.12445983970804193, 0.051085306929187516, -0.13351420502420144, -0.07025995750961199, 0.31292943654719363, 0.1298716617472724, 0.0431218516575836, 0.2017311765720892, 0.04095773888560883, -0.27974814617126853, 0.07422528692507054, 0.11195179954740807, -0.03975316984616481, -0.08769799654691256, 0.1534394867457977, -0.2757413281963292, 0.17245569823807874, 0.0688966859242356, 0.032814088916707805, -0.09881015115316763, -0.0025547893897490044, 0.17246429999606522, -0.03916143005673922, 0.07350923974953902, 0.0934779784875227, -0.17968882291339286, -0.2084644162506121, 0.08639831810340741, 0.05341038502233835, 0.0012333440414995125, 0.01705008947488743, -0.09777406026387041, -0.043444300038088794, 0.18166388140959736, 0.16821406407679104, -0.1416708271987832, 0.1870208672780901, -0.11267997659082397, 0.2971100023938001, -0.11293388386018774, -0.0712596722243102, 0.03048999511950242, 0.07196425104777332, 0.16663556457524667, -0.273849411347479, 0.2523297016121188, -0.18817016858355795, 0.011385532326637787, 0.23508723852534757, -0.0777000595115753, -0.0555625038701623, 0.37760082522859256, 0.06590910211411936, -0.0579224940947984, -0.3030391082765667, -0.04294510758946034, 0.05084128075160767, -0.050632043280670946, 0.07226356857279306, -0.05317036742338209, -0.006067970222999464, -0.1149300666407336, -0.051078221265997856, 0.14446052251917127, -0.15694921130940048, 0.11711705750200999, -0.22491798016396453, 0.09817785370981692, -0.3437701560094457, -0.24575651636369214, -0.3604672042769821, -0.16284856055535796, -0.21840432175977892, -0.018000471680307807, -0.2389839477635372, -0.3844618537312287, -0.1638599161916931, 0.18453478859504432, 0.12236779659398421, 0.10782785440310597, -0.24757917228256854, 0.07574079339781435, -0.08409489008853545, -0.0710657706439411, -0.05467283293024674, -0.10826727890759787, 0.07143420660565401, 0.025572296051222052, 0.055631869802835854, -0.14187703422991899, -0.025017878954824435, -0.024689903400525237, -0.15155183337870712, -0.12175309554424019, 0.00759617172260135, 0.0014648617359327763, 0.16789563349200548, -0.19515306441083324, -0.0032862437876704756, 0.2635137984871576, 0.5488664363038206, 0.06719444782850698, 0.02785884863726355, -0.11696199696307738, -0.2597374902371151, 0.19310714734229362, -0.05302146847879012, 0.061101563453677885, -0.10345189338007232, -0.09650944698631793, -0.1255521447054044, 0.09965436616838133, 0.15814922399418055, -0.04881978104216227, 0.11535731673906842, 0.09864495967403421, 0.0916646782433896, 0.20290733983292564, 0.02288393506013197, 0.1051396593197022, -0.08983743782088448, 0.2792293231672359, -0.09804125670267462, 0.20826968028342754, -0.12278897679606535, 0.14368955268811962, 0.4534728426661288, 0.18122319647011306, 0.4398518538536075, 0.02662632005574203, 0.2494260683567293, -0.03129040586304684, 0.1686832999379658, 0.021427872442700977, 0.015466712489241578, 0.1691695472043946, -0.3104347873169343, -0.05430532592745232, 0.03209605810963525, 0.12816503086380449, -0.054217329002597014, 0.1228326963179594, -0.12677472966669778, -0.12958958034520088, -0.2507664429289557, 0.18956873997593104, 0.11770566256320343, -0.002120127800587056, 0.08723917074223923, 0.08335738319713892, 0.2360294316342137, 0.262861724078191, -0.09902956499607732, 0.16899446015568942, 0.26172288395170257, 0.17230967031159972, 0.28837740306218224, 0.04743775418635753, 0.07692536802494586, 0.2708783603622439, 0.10068877195095564, 0.07008314178637778, 0.27047647873209896, 0.15528253539597242, -0.14343899974051041, -0.14417517343381042, -0.020900562510973813, 0.11362311260041487, -0.11901310780096118, 0.16559934244157457, -0.09756475709829264, 0.03927928498795448, 0.10808315436529042, 0.17757351337550656, 0.16870380955815695, -0.2539743493112104, -0.2402054635754106, -0.12266737173749985, 0.03983424491768844, 0.004692730558400484, 0.1632865404907151, 0.010849411579156537, 0.1309126866960601, 0.2210728950447773, 0.1933636185002455, 0.33178739641651545, -0.18850867965765006, -0.25150189447598853, 0.17399027960502048, 0.09074994043598747, 0.012916100256986692, -0.036284634621536714, 0.1132612841448609, 0.05981757974771081, -0.11153804163139462, 0.05296002285420434, 0.11264829790252649, -0.07206954549194186, 0.0848030199895926, -0.026682472969354467, -0.048091839658229, -0.09403096665823556, 0.08424014520980584, 0.10115754179927022, 0.16729842031736977, 0.23439732628563734, -0.03351172972592657, 0.2453316196326319, 0.1491747181777443, -0.20925245804290793, -0.3040716757309756, 0.0031043560709118666, 0.18908620275567095, -0.09707325462972916, 0.0699362769609155, -0.030182129800458403, 0.12899439659996095, 0.23572012016812494, 0.03175884452717114, -0.01699828911907021, 0.1341751045030232, -0.04884976284808433, 0.170999811426794, 0.09233711636071999, -0.2814809305220779, 0.0003858581317924034, -0.14110632382216842, 0.14881669911034515, 0.1396972507572976, -0.3418661992437392, -0.021299187283167004, 0.07090944759164515, 0.009054256268361817, 0.01486178918016232, -0.004920418686472481, 0.13467832326866525, 0.01035746488184608, -0.3931145795661225, -0.17218200513675927, -0.011069107036750358, -0.20063496807644599, 0.14497312893965789, -0.01698663245910388, 0.06191278141599455, -0.22556498162976402, -0.023727708419604563, 0.06433117649704224, -0.11658771762654752, -0.20361313094861816, -0.0023141661002585843, -0.11677008959406851, 0.19393921077799206, -0.34783732831758735, 0.3284529241460804, 0.048423877556533254, -0.07924945396663267, 0.0892343832127129, -0.03808297054601674, -0.14583655122635386, 0.06152770768675432, -0.03215170915940378, -0.15891494438289286, -0.16039054566714864, -0.04837770039511061, -0.14665714360463628, -0.5010835667000374, -0.17458426713687406, -0.1306566577435854, -0.03223729629338837, 0.15875012649743298, 0.20171550740085215, -0.193884695471689, -0.017298589679233374, -0.0690077325348676, -0.27995591396372754, -0.10011007484221965, -0.04691590503497596, 0.024610952529264263, 0.15003833927062615, 0.20500571510703505, -0.03182943412840644, -0.24938197118046568, -0.1305583929391298, -0.44350504095291865, -0.26531096182979064, -0.47235801397448296, 0.18483219577123758, -0.3225170380907434, 0.28077150765792247, -0.36343699049219313, -0.0793330981416601, 0.06221141517875665, -0.1939764570885261, -0.1109130427691762, -0.0631121735896644, -0.04110369477561069, -0.23800269216315464, 0.01765955252919127, -0.22195629402665362, -0.3891636341534391, -0.029377493157986757, -0.18622177441597185, -0.18711765192132368, 0.06490896963508509, 0.05452908033578341, -0.24015978547535854, 0.2060327787256149, -0.09922148534737256, -0.024949257577129926, 0.040708008130131104, 0.014421934299534101, -0.019537876020403216, -0.07860295670682713, -0.38528657188964993, -0.10011437229905126, 0.03726494576572589, 0.14000826685424606, 0.02179231976852079, -0.1837696096940764, 0.13664467786547835, -0.09090379296336867, -0.19728293950029918, -0.014843458422782113, 0.05946326133618314, -0.05034589287370821, -0.18866223434458007, -0.19928296728633046, -0.18259074796391248, 0.04755039144641824, -0.10051642465608736, -0.153831834007538, 0.05159389636137063, -0.12040381593391875, -0.037485409967696934, -0.16883312904626807, 0.07783888360929027, -0.0398216800826877, -0.13793450608606303, 0.11168897705186119, 0.03813641060938901, -0.3006663115829617, 0.09900168590111182, 0.05934566464755684, 0.1241010117632789, -0.2401441919031575, 0.4949896140462319, 0.4613355657268044, 0.20361894430923574, 0.18798712637049575, 0.08275309750377993, 0.08438751844414054, -0.15575438336395311, 0.29220654090877407, 0.204544791736117, -0.035619418939115785, 0.17905492570239082, -0.17039782312412066, -0.17121097980667652, -0.2225211832927354, 0.00026158128483676365, 0.190831414510274, -0.24301462202694035, -0.20852501830277875, -0.07534851374331303, -0.010276613422162493, -0.23106899572779416, 0.11578688760581198, 0.25101440279003867, 0.096116021453105, -0.10121036855589179, -0.009940177674953053, 0.11900241380207852, 0.037707475796117024, -0.12056550374921311, -0.019829709529977254, 0.1769743564522578, 0.09221086270533413, -0.007609829756678851, 0.2518076110165188, -0.01700584560733483, 0.0988439989431143, 0.09581437654129889, 0.0017003684926660814, 0.06100790466826658, -0.3426388738695703, -0.12278523807184688, -0.23969559632748866, 0.037595269728384235, -0.030287074106662884, 0.17631273881670106, 0.05285290144033429, 0.02350881678569122, 0.03686271673176685, 0.0639680513925871, -0.07560086569403938, 0.05536516259271308, 0.0004842579594265078, 0.0880558268080101, -0.07640734225628981, -0.0459438740282193, -0.09365914032040337, -0.007335692420468557, 0.48476752762989905, 0.35607864017310636, 0.2827116222158096, 0.42065653186084684, 0.2430022521050106, 0.2790419659790377, 0.07552748968159027, -0.08895970105737425, 0.0025794895450601475, -0.24258695881787362, -0.41245690049533174, -0.0009219003315525603, -0.305010374330895, -0.19302047035723327, 0.16810205506705508, -0.07672176636327958, 0.006458044608361057, 0.025360992982280315, 0.011171463228994349, 0.17775846509259532, -0.21875796604930337, 0.1298109817267165, 0.2826826562929172, -0.1337778484044549, -0.09618120815709474, 0.02220319042386766, -0.00478088045630254, -0.08026100080755916, 0.3222883746783718, 0.2830368523675786, 0.07735445239030804, -0.009809520082973124, 0.08903158014826366, 0.31544499914532265, 0.0772357981032932, 0.12490719969764674, -0.20220282294745218, -0.009210726270826163, 0.11532545024986579, -0.10009471542448979, -0.05534040695265994, 0.04995306182989417, -0.11954325981356761, 0.08402805572981788, -0.16045377932896238, 0.16623664141152825, 0.16135272103449635, 0.13429464459378823, 0.3018077348352834, 0.2794461126276967, -0.05054393294463136, 0.06811572038597959, -0.18597858755647528, -0.1514177737826959, 0.43674285018118264, 0.0442706341777405, 0.01326411964040959, 0.2349019676795014, 0.30224714395449365, 0.14018115697200184, 0.1632859247024509, 0.27202484826777545, -0.14075546413096232, -0.1317464072950833, -0.1143808168513391, 0.13102714820948272, 0.05427108198842917, -0.22985702925344823, 0.15872837606842347, -0.07098560122870044, -0.02596263861153459, 0.015479083440592033, 0.010020242629544316, -0.05323734365235966, 0.11216046371749432, 0.01778628249998256, 0.27632871078787535, 0.14236384582857428, 0.08188702468914469, 0.15215909695125607, -0.05660417864392424, -0.05592614296153122, 0.04465905738108881, 0.14142239716148317, -0.001636160159121018, -0.12313499428882359, -0.09098227874546237, 0.2690910380481605, -0.10203925348303777, 0.28343193548809925, -0.18331295201493358, -0.1298840971718122, -0.22710099095401606, 0.09268923979639565, 0.0010194515526890412, -0.2189371098440256, -0.16873000196089047, -0.03886407805823916, 0.23720801964350394, 0.0013636541384328409, -0.4393340908666433, 0.1616730057524572, 0.23304851208004515, 0.1964064280035896, -0.06262062123616062, -0.028573481976657603, 0.1625716861783616, 0.11229287117792665, 0.1621656012704786, 0.18406359875924022, -0.03985632918767162, -0.19244598714326458, -0.01916251927183941, -0.10572043855953757, 0.04417256242996597, 0.13629209666881978, 0.2198311290005278, 0.11856056318815357, -0.03414724660894754, 0.02300655815087251, -0.23721898813282064, 0.14528825877498802, 0.09883741765641926, 0.07504873277498497, 0.009045750685443185, -0.03144798391043507, 0.10417235162079044, -0.06449715600779983, 0.03158316153388013, 0.06949079626485226, -0.13384406393268422, -0.17370045537643442, 0.3269212358269102, 0.17306865250387068, -0.211081328301753, 0.051225219148730926, -0.07154357558547514, -0.11189363599641394, 0.12031859406173329, -0.013525920512671227, -0.290135791072551, -0.05409725858428873, -0.20737396420948673, 0.08616754886976576, -0.0589794015000782, 0.018759104349201854, 0.124041289016234, 0.11004273169004848, 0.1323946759658632, -0.08633622684271279, -0.009456763915222613, 0.18861322802322542, -0.006262153875514476, -0.032946082176776914, 0.17976376492336102, 0.08353640847795765, -0.11462346800759145, 0.05472317142892253, 0.0978353850497682, -0.14502785414257457, -0.243902469866969, -0.02599761576471037, 0.13292226699500342, 0.13401052045982423, 0.1134884245360832, 0.12414792445634966, -0.10161994302907877, 0.054354774255540306, 0.12456031606824458, -0.09278781279365467, 0.0908086002893483, -0.01613917901155599, -0.08641886978553567, 0.3391036487302503, 0.015108352354872354, 0.13046075553071956, -0.12730750590903267, 0.17426618306025402, -0.014149517504675435, 0.12723086705533607, 0.19572175030028763, -0.46106275564520677, -0.008476384500520568, 0.07985127200391381, -0.08821264079617647, -0.3421860854082331, -0.15458030489384972, 0.050641248244184596, 0.2562847788583243, -0.092214032821362, 0.06465503378948771, 0.11186975153351938, -0.25491630640398133, 0.07152198224186188, 0.2066003664218207, -0.002520303043508425, 0.21824648994090687, 0.337612034471446, -0.02172873630569182, -0.015037889066383373, 0.336627812406615, -0.049646417112649326, 0.28141016481448294, 0.09160749317215698, 0.23334319176581314, 0.025714277293951815, 0.1325018578093509, -0.2154174711267639, 0.3593533556968483, -0.05279812273043139, -0.021355668191029, 0.1484704073675268, -0.14569344292524522, -0.06201427475780636, -0.10488508921083577, 0.29692091601664045, -0.2611515640507529, 0.24869602027762933, 0.1177894446563153, 0.11015386918967666, 0.04423261814770435, 0.1284440480844751, 0.16461719724445542, 0.1528802565829764, 0.27742905652959426, -0.07593145740817081, 0.29345280281504815, 0.09645542447837023, 0.12463153138574999, 0.3222563040783363, 0.1067669748913761, 0.1218562255062742, -0.16816803838172426, -0.0008056551958008519, 0.09618258323371474, -0.12474151783647132, 0.0492713064290924, -0.12931264708345858, 0.0695561204639148, 0.051775906598672504, 0.08017461578943984, -0.014291554674039343, -0.2290701417787039, 0.21121794962284066, 0.11965781362165243, -0.2188988254033547, -0.2064111023124408, 0.1256150125357854, 0.1706122938778876, -0.21025535967227496, 0.2502678067145443, -0.12991973273762336, 0.2466113204687992, 0.18244404488164767, 0.15652026292284196, 0.20972564744044583, 0.11814736710775381, 0.11583394139949749, -0.04606754703695969, -0.35760511906164105, 0.009523854435442075, -0.20301363797249686, 0.03466052599568572, -0.2015111898967988, 0.021255413660951742, -0.07247351721494058, -0.06319686026485684, 0.07463074699060979, -0.2105188900429296, 0.0377085342467921, 0.0464722448613647, -0.04503660240853042, 0.013224261116577802, 0.172599293415136, -0.2005145090211956, -0.1843524899031507, -0.23796030214708846, 0.15776080653120533, -0.04388743299873319, 0.12560102873311865, -0.03542983689139117, -0.1581834768545463, -0.043181636527743934, -0.04091056988335994, 0.14614961639356377, -0.33568747632240437, -0.05360464166030056, -0.15026417653476354, -0.5346926400062781, -0.17842534376232408, -0.14990140587729459, 0.40192028038100286, 0.04567384548251729, -0.005779455398455975, 0.08722557537790768, -0.06868478440881319, 0.18445487832160073, -0.14193698647702174, 0.0742241170131284, -0.010433841204190795, 0.053346515633205874, -0.10760622198687811, 0.14236242841888885, -0.22007304303018443, -0.027627234725884842, 0.1042070871556015, -0.19493910059893407, -0.130810786793596, 0.05482725830658389, -0.11798172363029985, -0.20333226209124372, -0.02218827635868851, -0.09607088958891717, 0.11238858105578074, -0.11690402525910537, 0.3883039816437386, -0.0867367045149705, 0.07639970907274796, 0.03967510868089594, -0.05476366738002547, 0.26804232437046577, 0.07366284170495108, 0.003987092235369558, -0.04169586092016568, -0.0776949315536821, -0.10989071009860799, 0.16636938840851093, -0.10805559523277539, 0.048804189443931174, -0.1898223969867184, 0.052283817895508865, 0.05886868975557277, 0.4170179956397768, 0.024709679874226086, 0.004574346067112894, 0.1530638955156789, -0.044390068393602544, 0.20993481029431538, 0.07097374007340028, -0.047041509874531276, -0.0518003844164279, 0.08425843147627758, 0.015099124317202669, -0.10572498366667067, -0.12012722108329407, 0.2250557157177379, 0.03533113171033127, -0.12596840969814257, -0.28864910080028233, -0.006411989726533018, 0.1403780035461818, -0.09814898335210757, 0.2506680492003688], [0.09360955543935591, -0.08968216506407617, 0.14152977674131154, -0.00843779633545459, -0.0016949003183233692, -0.22046679226563817, 0.2575092987600436, 0.13518255425394432, -0.10141850198504673, -0.1922396230921933, 0.4002945892402468, 0.012477257389770971, -0.0855894009257153, -0.17413550840276232, -0.20352770453692626, 0.17816948374244837, 0.16300585587125452, -0.39305852566065924, -0.1703204140525964, -0.013437600073507371, -0.09510620907412969, -0.1225609713028788, 0.04033783093967701, 0.05128487485276191, -0.09730220366054616, -0.2520512304497917, 0.10514936844937862, 0.08081114959853404, 0.08305507167738066, 0.021064772701536928, -0.23295639628693274, 0.20058444551415008, 0.1506586545697479, 0.025142766064812593, 0.13206905990474793, -0.18276247214510727, -0.028206670495440275, 0.014759620248005494, 0.04418907933325325, 0.20422068431713997, 0.034335654772823944, -0.21265026929847072, 0.11452020939060688, -0.04963838445183358, -0.1733921091559399, -0.17168382021411285, -0.04121357139787033, -0.023063285252408295, 0.08224388873540142, -0.1653742587653241, 0.018709417724370157, 0.06367738024656198, -0.24350799839773715, -0.06302614649185607, 0.14056149549235078, -0.003154377776404553, 0.022148008366686983, -0.4036426741149389, 0.08575399919333306, -0.06766913337367995, -0.26835141657816686, 0.252211558140364, 0.3094191101110554, 0.0035719890570453257, 0.405041935718558, 0.034496971331374686, -0.10175407610165398, 0.21995656181795417, 0.17362756225641826, 0.15853637203159382, -0.14938939505801366, 0.03386976479791643, 0.28199463406924324, 0.04641778458850774, -0.14207970071873924, 0.11111972186618105, -0.16212257235609015, -0.1112484128022853, 0.005911087629680477, -0.04793980464463651, 0.07040616051463985, -0.18071729923622468, -0.08969925170544224, 0.04443980429997937, 0.26956465412228325, -0.18478190137951897, 0.05288524378104932, 0.15231938217329946, 0.03298069267360385, -0.003545753733037483, -0.10167748063820951, -0.049849271687052325, -0.25976096290855855, 0.08613102876887772, -0.18976182481589135, 0.13280577121760093, 0.03348172843844446, 0.3170467890448464, 0.11478534912653883, 0.03523151667052676, -0.15614201237887, 0.10877136867958045, 0.07167374331382556, 0.18407722165478627, 0.09479157008530527, 0.193827412064437, -0.01294339725423013, -0.230562538731256, -0.0988559461996397, 0.10859973799402878, 0.06937233497548476, -0.24764176452062778, -0.02475187582745294, -0.20508017839027462, 0.140663983854227, -0.15432850984970392, -0.25963902014468876, -0.07745798938434306, 0.24441744335139867, -0.013793844727517476, -0.11038887946809757, 0.29522905231154956, -0.12908955809599698, 0.24103344127675477, 0.018721464430330632, -0.03201130726168203, -0.09963447155534134, 0.04021295520348133, -0.1680168527352248, -0.08866008896738622, -0.07783759246152072, 0.11998962207104447, -0.05779176547098001, -0.1945601103361674, 0.18762609831450502, -0.3091299755936357, 0.07899036663164004, 0.0924900216538016, 0.056177538760704984, -0.17410607744107146, 0.1737447101086991, -0.07915700942925147, 0.06550574560540245, -0.15297784269775033, -0.0009983931593875001, -0.25072722159638405, -0.1827692748424916, -0.09378042870176945, 0.00996021672906377, 0.1963153895782443, -0.032756164377196605, -0.20624271143034806, -0.18535073642910876, 0.009030806759291897, 0.009624712803958452, -0.006775549465252249, 0.007579386841770309, -0.046969666381842676, -0.14188768567218688, 0.19611583355423926, -0.257372041993818, 0.04530544708787767, -0.09212549723767781, -0.2118851951752607, -0.2154358630525432, 0.2845867204644136, -0.26078448654191355, 0.08405736960095993, -0.14316084343858732, 0.08603879914434162, -0.21544277377827115, 0.2702730212011485, 0.11963905429336945, -0.1992128736958574, -0.0730583149212085, 0.17208527179008068, -0.16718377315855126, 0.19760284602680356, 0.36727226291292914, 0.07629521803502694, -0.06982951437744066, -0.1920985580510243, 0.3436485353618102, 0.33503800318428384, -0.13300449389403463, 0.3052836399699111, -0.005307118605018881, -0.03549196462220958, 0.2799907319136924, -0.042577060500217076, -0.14956919150824236, -0.13254083305976164, -0.23608624820422516, -0.29232610999843206, 0.1647260192048667, -0.39142686650687647, -0.08866067067054575, -0.12344111874179353, -0.0863789532504493, -0.015461649688772058, 0.03488126065901898, 0.19013363472458344, 0.02416707157103186, -0.011060148721088865, -0.03521138474066497, 0.013285356381984591, 0.0388756711959068, -0.23687206348161663, 0.12853124917941258, 0.023917644368262166, 0.32742132477815844, 0.04366096575805162, 0.0691988874708946, 0.3151529013915457, 0.3243580092476291, 0.059310661498062946, 0.21751881054717745, 0.13214608941496872, -0.08694550610307925, -0.23408224685154344, 0.25145656483426837, 0.10779623681377401, -0.09754779507437329, 0.05149061250094542, 0.008739724622996504, -0.007713884601774648, -0.2774881497527321, -0.07556151946532402, -0.03334114031180387, -0.04927638152016126, -0.04208332336303536, -0.12268307806060236, 0.08262193941452141, 0.2146390452403777, 0.2703743782555437, -0.08772856941731529, -0.04064642124997088, 0.3129401381584297, -0.018439176975353, -0.028317283841388593, 0.2822619762661464, 0.02748989249096533, -0.00954347074371483, 0.1570026655000969, 0.017213446056015956, -0.08614813683734189, 0.03731450120496007, -0.17143925722063955, 0.4600930123214635, 0.20172333017920466, 0.03381193022929842, -0.19404441163208852, -0.2681499488624658, 0.1397682675443913, -0.3058819299897044, -0.2691622400404418, -0.22415056704490688, -0.0009920850130185493, -0.09347674038435003, 0.00508082656811311, 0.20382307582058543, -0.14901374826714267, -0.12229116441593468, 0.1858923460853742, -0.04052618906886574, -0.16761626136650548, 0.004424394643438368, -0.21012057278478372, 0.14026307369863852, 0.17148282555871755, -0.05114784001655566, 0.2690031762187914, -0.08423644800001555, 0.18120511718653529, -0.2548311671329331, -0.11625181215930895, 0.20562594965253536, 0.00016747430504525872, 0.0233140199646573, 0.017355791341561365, -0.00949350025373966, 0.1004941889368901, -0.15875842498387596, 0.32431760979510066, 0.10755170821913528, -0.040438375205955834, 0.18139004908859455, 0.1624567162020435, 0.39670782079387773, 0.14283080231974765, 0.04678991860057717, -0.01427517005337939, 0.2662966105632762, 0.03194172887251814, 0.008235332456747237, -0.2566627110454235, 0.022798833892096772, 0.3369828965962961, -0.12819105399781247, -0.26913198132156907, 0.25496752032959896, 0.29834815738236947, -0.08110228481356274, -0.3170412412841727, 0.0499107661171716, -0.07656483901615188, -0.07588478634402068, 0.16665553656237503, 0.14504905703453896, -0.03555882393483545, 0.14599529674403847, 0.3141491817347185, 0.25078147850798216, 0.0009521173539360139, -0.19102719366119864, -0.11461389489261238, -0.15975812620428692, -0.22886318917119589, -0.00754957424591419, 0.05822430995822011, 0.016568760776015965, 0.13757925743766805, 0.11279499547429629, 0.24393119667100394, 0.2738737774886883, 0.30355206125149253, -0.04328236197701044, 0.1783147041336229, -0.13561589640736021, -0.0863589058521739, 0.12979200294419213, -0.07764522271839645, -0.2013617035803367, -0.017230510889871903, -0.03817173338163055, 0.02051604942516944, 0.09156537832370265, -0.1047321337899468, -0.1636457395278436, 0.10372503654423947, 0.19229941842443846, 0.06387549196413461, -0.022005715885885454, -0.016187822898755755, 0.08188066165761883, 0.24330336693747967, 0.025074518190161016, 0.278759506329576, 0.04072106600577283, -0.09468312206746737, 0.21950030241122226, -0.0829234911912384, 0.41801496819848766, 0.06345332341304218, 0.44572929821895574, 0.10243306735382766, -0.03816161196832901, -0.06343568611452954, -0.24210573290844187, -0.154768097502209, 0.08806492389977866, 0.0266619293747821, -0.04760104244850445, 0.049736942664923504, -0.1296387546947266, -0.15648337579785818, 0.046501776452822156, -0.08826747940050857, -0.167347446783022, 0.016621389505197433, -0.20882586345578708, 0.3057555753667072, 0.07627702571964289, 0.2442362366698829, 0.2834520265901821, 0.15149331292824778, 0.2534583918847908, 0.1700775408079447, 0.07277587640305376, 0.1572017477402407, 0.11576076603781067, 0.3154580535743779, -0.07840281975316041, 0.32163816669879497, -0.2225673093528185, -0.20630310140730385, -0.11229283610208572, -0.1444450932313232, -0.014354426912596769, -0.07923179702294841, -0.08169280130175624, -0.04788702854058125, 0.2600879326207086, -0.1527033453938013, -0.01364939835536931, -0.224595004160618, 0.30753926099474255, 0.003459265909885039, 0.0446355982386188, 0.05931939610789513, 0.06122479845281429, 0.4583267163791788, 0.017095624167144975, 0.2830295731081371, 0.2045717774354979, -0.06960615116352765, 0.12121658815101805, 0.26761776858513076, -0.10306654697937888, 0.13201643463105123, -0.09044819125276055, 0.2246489141199528, 0.25905505212897867, 0.037165777254672974, -0.1489139273412385, -0.15957100631433757, -0.26160713360110477, -0.10690533590936807, 0.22607722208975753, 0.19115253494660664, -0.1441980961946169, -0.1459062652107802, 0.2026410452124902, -0.11720017482757743, 0.15673739448259297, -0.19127404976866763, -0.1735497734594704, -0.2810181253401706, -0.29779401705474356, -0.023621277491544287, -0.1990443338054828, 0.10314948872799079, 0.28934530578483586, 0.1279183131192319, 0.22796800960394742, 0.08038486554839809, 0.3104873353928065, 0.17038932913390187, 0.10621932226634333, 0.2759171072759588, -0.020903820561840352, 0.10829852531148312, -0.24431034139045651, -0.243007674701206, -0.49990141448304654, -0.2822161730922516, -0.03634619527518025, -0.3098807136838713, 0.1265906053143277, 0.058402770182294866, 0.04468936144454858, -0.2457726556069725, -0.0023627836788751764, -0.22271558592972343, -0.022723986608671722, 0.27083377457726204, 0.0819408248622012, -0.05275028456389047, 0.03512534496913235, 0.06108155952282149, -0.04711496264233281, 0.42524028311564244, -0.014697850265740981, -0.06857993142272056, 0.24129228218264057, -0.06267506482211095, 0.17937584407319512, 0.23437937982523024, 0.1146112984434078, -0.007315636155075442, -0.1987385600591772, 0.13546802910117167, 0.05840441798660375, -0.4145754091334958, 0.1804228019333891, 0.17056770781204197, -0.14234839962951162, -0.18142022630524582, -0.29033140879433583, -0.19042407187738053, 0.0013602900789493177, -0.05807679199835206, -0.13353857917892312, -0.25049877260641334, 0.052033973095939795, -0.037292185438786776, 0.08861196320335397, -0.21072995283581802, 0.19587738049508407, 0.026400007376189635, -0.04634372538536865, 0.08259188576100238, -0.039036415552234846, 0.20974850372275122, -0.23656460060773665, 0.08444083489064658, -0.148945637459306, -0.05416549320042006, -0.05881269552549559, -0.28192860551765414, -0.10014208288166161, 0.017957987622102788, 0.16072402537656846, 0.032726304150367015, 0.09301881252265472, 0.06430619058848422, 0.07434431992689294, -0.02968819288688556, -0.0597669088152999, 0.0513024565641525, 0.17418567292034337, -0.19077903587265432, -0.21466666697310885, -0.29516758001521837, 0.44936045384743484, -0.09791030293343059, 0.08001185420478876, -0.16114399762985593, 0.011524347962111346, 0.13639932787297837, 0.033224055869697976, -0.23725716781277154, -0.07533328619852721, 0.0659312478389814, 0.2629955346372117, -0.15518642927508286, -0.029049581939220907, 0.08395120849369196, 0.12849633667180277, 0.17472457596478805, 0.03942848256734212, -0.2246544876284259, -0.26192092492629976, 0.01669698119052814, 0.0624236658698706, 0.2006541245410114, 0.1688172745024812, 0.14583994467732622, 0.1835198697805828, -0.10751053689853596, -0.21585792915904248, 0.09224989209948659, -0.08306475694151887, -0.0021100154990941495, 0.03216663917989096, 0.19846876260005367, -0.012375553954187884, 0.23221215930063363, 0.20411839628638076, -0.017901108395890857, 0.05213920079413966, 0.0683090853637974, 0.14791947966264274, 0.12820385001230555, -0.19814987476344026, -0.24879002852079937, 0.24915514621195542, 0.10280777262636741, -0.015417806095378071, 0.2673123513052087, -0.17375524723003669, 0.03858519291676913, 0.07470012688845046, 0.06968296406142246, -0.1468787093503942, -0.12343224475600854, 0.027071563088969595, -0.19482379602260752, -0.2388532927674826, -0.25330122840784447, -0.232924746910872, -0.13029898442713356, -0.04866882943331574, -0.03680193704696684, 0.030688589531575605, -0.10471973847178434, -0.026897143393350458, -0.011241892074328954, 0.051872197799248086, -0.1398838043042144, 0.006975390962002016, -0.06825373555105087, 0.31387905304430086, 0.1733128063689527, -0.2724759759449039, 0.10274759480781669, -0.17020869301125968, -0.10530197231112295, 0.2308155442094786, 0.37337825628995414, 0.19762327309304373, -0.10718512637140863, 0.21751309300527388, -0.07615303106606726, 0.37507520769644814, -0.15886994415610134, 0.05939168984480911, 0.12738589145578397, 0.04392940427781785, 0.05432303031892551, 0.11208117504000459, 0.23400320840275993, -0.04213685450795728, 0.33834516218173205, 0.13220073243958175, 0.21116588183225782, 0.3161117903546995, -0.30658561398460293, 0.17600401552528472, -0.15040089541239648, -0.0989178535325812, -0.013946394179671669, -0.1778714344240363, -0.002592235279727816, 0.14647879956053442, -0.08463899815761253, 0.1246108889961499, -0.2404471437420316, 0.16987213794678113, 0.02492655107127643, -0.01609954118053686, -0.08593891345973033, -0.023357331159147964, 0.11232296481846724, -0.3255190932668571, 0.09527636841718834, -0.09206096064808732, -0.04027311217916449, 0.06140119912828018, 0.0626833131882952, 0.26099417981462253, -0.08655175654535927, -0.1194280950434974, -0.0041226531488858685, 0.04170380297199061, 0.17635587654603546, 0.019305074008701142, -0.2311972088708777, -0.20885684459096548, 0.05325550319672052, -0.19820437389658577, 0.027343836203305234, -0.22722185414997798, -0.08647613219779587, 0.050827898087382535, 0.124952681447983, 0.42942311787151405, 0.021776984755855273, 0.021163820280171032, 0.011150312500446987, -0.051481168313632336, -0.09629930564585389, -0.16392148335017803, -0.17545208948705138, 0.09385420194586153, -0.03964273083987285, 0.18922260207342312, 0.17592271955430022, 0.30961040241877763, 0.2705890760786766, 0.014724047971943438, 0.04435751290151167, 0.22067165295617544, 0.26832081545551734, 0.07496285133585406, 0.08847517962362314, -0.16562543235215452, 0.012287868030649901, -0.08912503372774792, -0.010997465739047965, -0.13234246229204263, 0.19652957756974998, -0.010056242090566787, 0.06353986561548554, 0.03753889847014391, -0.14143426468737136, -0.04458167022957435, 0.46342344262562624, -0.014366387411601459, 0.20061137602545384, 0.022031541127075116, 0.338873771537185, 0.11917170975970026, 0.16596143183279902, -0.23268837269996964, 0.04889950406539052, 0.1910873147365121, -0.08738599762721634, 0.3395903809237368, -0.1407169987795247, 0.013328765892251945, 0.18260225311728104, 0.20391393365031793, -0.0006469741647751788, -0.1461946823915647, -0.034251876366688, 0.07366606718732192, -0.25217484664384127, -0.08611714758983859, 0.02630996572998072, -0.10072113621932821, 0.13409141694717477, 0.17730769184000825, -0.1368006857962975, 0.22800302295842073, 0.12161771984489737, -0.11668792414288798, 0.07122540050912071, -0.11748378124549431, 0.06296476937645784, 0.15396615105811773, 0.1084449966104777, -0.1770577795402493, 0.19956009309052297, 0.17317443626324447, 0.21004653535186257, 0.17151793194436366, -0.05096891041337598, 0.05558258955372973, -0.1268005841740986, 0.08148533211628044, 0.10227177979553576, -0.006758166451636312, 0.13014386920507204, -0.14376785684946297, -0.07911061547948464, 0.11651892403153073, 0.07745412307738936, -0.26217124185347596, -0.007703129138589396, 0.07678453594542087, 0.06380465696086157, -0.41872631558466744, 0.1948428463609655, -0.21771101157490197, 0.1274235472235968, 0.028196935031729202, 0.003724741325950847, -0.04517287104753317, -0.2598883397253384, -0.10829248925213045, -0.191641723967072, 