{"inputs": 784, "outputs": 10, "learning_rate": 0.01, "model_compiled": true, "layers": [{"neurons": 40, "inputs": 784, "weights": [[-0.21703753689560026, -0.25971620446326527, -0.04155458045248556, 0.12754630363656416, -0.14107420039927035, 0.06027183284764791, -0.08900450943309564, 0.2904217600925324, -0.23166204850328384, -0.09542872281387857, 0.19150032800007294, 0.3271202668242094, -0.35581443853194306, 0.016956601633571076, 0.14296823785275686, 0.001651269662872203, 0.016325342372332765, -0.27507542414544534, -0.033982100759455625, 0.036576578937244385, 0.17539370251139133, 0.09742069855438523, 0.15315248192841383, -0.041311484158741835, 0.23317406016844036, 0.41493363479610545, 0.1602182012371296, 0.31865170858522684, 0.3175962134003168, 0.023554123050959143, 0.23362742305641937, -0.01101646106063695, 0.10080259634973546, -0.42878068007120906, -0.2915373511110908, 0.08713404496972807, -0.522825767477237, 0.3377841134428992, 0.017689587648610578, -0.17649605513977099, 0.18440215884309194, -0.1245699882237063, -0.09849301868593298, -0.2253812064895108, -0.17433707701571474, -0.18896336764513044, 0.29886679408319006, -0.5641870410314369, -0.14720338252851564, 0.14829406660350444, 0.013407670336569168, 0.07733723765994523, -0.0021784487759273006, 0.3784549053701703, 0.47303274608717194, 0.34017680870385886, 0.1556055390300934, -0.027114800056859324, 0.0498033351237751, -0.2557105217585706, -0.34910690050746007, 0.07284241715405182, -0.21907544471186569, 0.07636397280598628, -0.1826168377689362, 0.17937483451807262, -0.17491164850911778, -0.29290508113392255, 0.12325546907322746, -0.3138760856262645, -0.1048055775812214, -0.42839074520337855, 0.11180597688861282, -0.040712128522133205, 0.2359127750680316, 0.23533456743496403, 0.17082221233348768, 0.016773396422788543, -0.0017920890479021217, -0.286118353868905, -0.4064253337574472, 0.0005602889412108934, -0.049880107293090926, -0.0276241930692214, -0.33820587949305464, 0.5321607149302904, 0.1971240273262501, 0.31217041081573677, -0.013179589813358246, 0.23750829013206207, -0.41763084472228135, 0.4017074042462365, -0.14045789040961656, 0.06607193378734262, 0.051680859642424894, 0.19277886555572168, 0.16955094333755066, 0.007621800509932381, 0.12296421494014977, -0.17351669622036978, -0.35362868407937553, 0.00867718416204356, -0.0016283802884472561, -0.29233221136304127, -0.29747287020243485, -0.036712028689655764, -0.07984685569362815, 0.03995364809217518, 0.029835879634233814, -0.26036615147428566, -0.027809603305946114, -0.17454728283532553, 0.24390101995864952, 0.14218583627898537, 0.018421070595962034, 0.1564679294844298, -0.19720500390783724, -0.23341977588637228, 0.23106861563820721, -0.23387173690690685, -0.30560363382291883, 0.30034799419738833, -0.2968500124507256, 0.07309923728567609, -0.1604497708664344, -0.2619940661107394, -0.07650870740147366, -0.4946280354562559, -0.2162481184402553, 0.0639484537686546, 0.0989538611957248, -0.016198125304799558, 0.29831590534473207, 0.09732514916959496, 0.4065090622830586, 0.23562216404992786, 0.000551582329251201, 0.12407490862334493, 0.02877315542565359, 0.3130094709760922, 0.19755534415087958, 0.3830981686987045, 0.19756901328502227, -0.28529816516218187, 0.02060042718085999, -0.18227062267692795, -0.004292268987121289, 0.10748255392440884, -0.17832377388906115, 0.3022563871495828, 0.27432373512695457, 0.07307999962439381, -0.32338647357682837, 0.1715189933568119, -0.350523153883733, -0.007064855478470538, -0.21194794072534465, 0.2769244634458558, -0.1283011536126072, -0.2338209271566281, -0.5034257448765216, 0.09581224267933815, 0.042776846542360095, 0.09145879076659698, 0.24341208760621266, -0.1820229063779095, -0.1831537316789976, -0.23097710310103142, 0.3123944514856764, -0.05864309227955657, -0.21142744374804928, -0.48427392031158734, -0.06445348176974784, 0.26186538162436984, -0.010469985358483386, 0.007210901675069345, -0.300962280534181, 0.33464521058411095, -0.10075920616513462, 0.6956708789606665, -0.32232239683073766, -0.153071419898744, -0.3156546386411208, 0.06347690504130957, 0.020817444283310893, -0.10348889629819089, 0.19057460508483795, 0.14270412215942438, 0.13469189528986059, 0.017578870575384813, -0.20744750111734905, -0.14685679515244185, 0.178952600793648, -0.13361697202953624, -0.20684927547304552, 0.23257556875815044, 0.35163605557786487, -0.15309498911624309, 0.4834962254378475, -0.43740068508035856, 0.028536383607530847, -0.1430971545309217, 0.20804027011685533, 0.4697427017597492, -0.2244390003072458, 0.15322813558504678, -0.06826571097823406, 0.28597911505155393, 0.009988603510072825, -0.14624141718700961, 0.07322894887547844, 0.08636850468209363, -0.2532312927458788, 0.19360483735220516, 0.4181938140639378, -0.15103920482462974, 0.09144287733576026, 0.14404254885050896, -0.009446009904584456, 0.1933268414872841, 0.1122603936424694, -0.06470118735819473, 0.38811774327379567, -0.3122195047554861, -0.1741655545321008, 0.10081382159534871, -0.16925375200311063, 0.19208968273212904, -0.050633334446583494, 0.19165978051419041, -0.2958265140104376, -0.09731137924319086, 0.22006193695213325, 0.3922274595679743, -0.024842268036172087, -0.16597341288344855, 0.22603856364961628, -0.23659674614808235, 0.22621380210894818, -0.07753571140320706, 0.013122286663209214, -0.12952702853414674, -0.006545141489805815, 0.20133465894307606, 0.07012176112262276, 0.23033420283911932, 0.02936886720453944, 0.20638317584699, -0.20602196398946124, -0.42853586494878243, 0.04882104794741076, 0.023998699799565256, 0.11796180680292483, 0.4266701225247402, 0.19994428162535177, 0.2626979869617073, 0.156823738086353, 0.2710440734300507, 0.15509524770969885, -0.2570039614156031, 0.18991797900543028, -0.44576100657086964, 0.23042671405169293, -0.47572235618332454, -0.24416397595577985, 0.28870447776583447, 0.12735433091892387, -0.36559006610245337, 0.27244888951680035, 0.0738628044136733, 0.09137308569228206, 0.5097423534990774, -0.21099254210190088, -0.24262487487929216, 0.2472280509031137, 0.0009343661142348104, 0.1129717193450132, -0.16181246879223993, 0.3204941994837525, -0.10040961648601986, 0.002290584911162111, 0.3363649631411697, -0.26070120984059103, 0.1223695206116628, -0.09310561045703783, 0.051366236011142645, -0.2532437798109518, -0.20694398779344422, 0.42396114782527267, 0.21634960718666577, -0.15521157448195516, 0.23550278181914708, -0.052382489864798404, -0.4304093003817055, -0.44450870678963045, 0.07612794124947057, -0.38681378189516835, 0.34757922289001864, 0.14746047305717022, -0.3308982326842239, 0.38161045865887344, 0.06558617677652495, 0.047079527584196985, 0.021795234709481713, -0.4258767333322113, -0.15122269056864943, 0.13397402460204172, 0.37400364490205085, 0.26203455155099203, 0.05416088135258132, -0.10506087086648873, 0.28402691709818284, 0.07005122118967379, 0.049174045249504764, 0.10005428454968528, 0.13537492799877973, -0.015286123637891086, 0.07060801869570509, 0.03039463079809792, 0.25697129085394754, -0.4941729007269442, -0.5789015296007893, -0.21064254912270486, -0.5342098910985809, -0.18591621669381428, 0.1634247653409774, -0.05720869945317291, 0.1643483746634684, 0.31440859459510256, 0.17845810011834054, 0.29214674883928254, 0.1245813195835129, -0.32673655912268973, 0.025568138502722125, 0.16219305659779895, 0.2789530227629901, 0.06319513828814681, 0.12583071433930074, 0.11294624664435686, -0.11440203180329925, 0.2009497082080916, 0.008996610537541826, -0.26298866180940444, 0.026300515859499704, -0.06694274776670878, 0.0017346067036737513, -0.41943989334982756, -0.18220126678856247, 0.07357723394880887, -0.18029903482388496, -0.47459935419892546, -0.32379431181860074, 0.012366393127298307, 0.48299809405029975, 0.06860977760214498, -0.0033386698700072384, 0.17985987343850457, 0.06664739012557172, 0.3587385028450593, -0.36090161806694, 0.30962603616927054, -0.3772225114877407, 0.011805089123847005, -0.11512313893489147, -0.03635765802344253, 0.2226155405847399, -0.06223548287934523, -0.2360419815894253, 0.06518865019636141, 0.0026280609478809046, 0.5168449259866125, 0.13145034128756106, 0.13603140860490373, -0.05333063334875906, 0.19229608139213655, 0.05798304159558619, 0.07475218729143791, -0.2577208505618625, -0.3600504475781383, -0.7029262728130073, -0.2531295836291754, -0.2037961872280273, 0.14072572562942437, -0.10196047845641966, -0.3953650890061061, 0.041795120229212314, 0.10894057604081438, 0.5125278226206645, 0.1777690325713293, 0.01501068741643017, -0.2660958854603215, 0.0378736203967414, 0.07929936081926486, -0.32163417356033475, -0.05915216182532651, -0.005056528029419179, 0.2084461623579813, 0.36883302445843286, 0.3850467951557563, 0.4044909238770567, 0.5322765137181396, 0.34125573920360264, 0.2730564658672783, 0.023632457672130402, 0.01281114620004382, -0.6826760471550092, -0.21774965851758923, -0.2155791517786336, 0.052881819412129105, 0.5454729701956668, 0.1340219533692445, 0.5003721908308109, 0.3633697394818196, 0.5118258149152756, -0.012412850602051568, 0.21546196236312873, 0.7044696768345009, 0.024810717494800034, -0.19629642659122806, 0.046093086787727916, -0.16566199401433485, 0.1902624759840428, -0.05431039318461222, -0.03763826323334654, 0.13737318043178764, 0.10416663741926187, -0.10077258431681747, 0.5435907784615411, 0.01601493979950572, -0.06010550897199561, 0.10436632222717387, -0.14722548486145165, -0.0582591370093354, -0.6148740133368424, -0.45063485869046965, 0.18551075058052602, 0.027264797262397854, 0.08831778620891603, -0.11343564279477544, 0.08458151448227993, 0.20067322250539418, 0.1027603459131106, 0.6573442349204692, -0.06259671228162025, 0.035710105051782126, 0.23360377435794086, -0.31287285430023687, 0.39961298182816685, -0.488970845813798, -0.4195314434683758, -0.10761197397477326, -0.47884295894067236, -0.0937231782563431, 0.008362485744742059, 0.36831068265624456, 0.10153938761482388, 0.009405192579858147, 0.13305395671426504, 0.11958835676252802, -0.4986345435229316, 0.003742990998817443, -0.43253281437543006, -0.09113947244904846, 0.07518183384331453, 0.08714661829753904, 0.40006206132316713, -0.07116056921907776, -0.07483829462474133, -0.043735556606292865, 0.27533783446574983, 0.39040560484206993, 0.06929460307793692, -0.20090461047461258, -0.17951675277837406, -0.05420916034122297, 0.16105957397803455, -0.29652273016611636, 0.024117503258119403, -0.40171700642137914, 0.03885888968639715, -0.036921349412066665, -0.0036679717090004936, -0.046516066625554235, 0.07815897585765139, -0.004130258620552989, -0.20676366161904103, -0.0685850690807738, -0.18815697679130972, -0.31164049785757986, -0.40901528119700065, -0.2744418591203092, 0.6796337812796294, 0.11998273318157177, -0.025624396272382846, -0.1442191321900807, 0.22027441257792552, 0.034867449645481725, 0.05758608747566189, -0.17534907543791475, -0.1007963239099809, 0.0391650962843499, 0.0684734748933576, 0.04959455164531693, 0.30887021560694355, -0.010271726970694606, -0.2456906806374875, -0.1506350716895743, -0.11641719959188432, -0.02052124015340812, 0.15870395814981664, -0.10136656108324622, 0.4559275430759541, 0.2293639924328041, -0.025101861542582364, -0.08436473528656978, 0.0898392610022288, -0.0993499357227881, -0.46130318004520726, 0.1757782226344381, 0.2681929747323471, 0.03877487892153542, 0.2719531655142963, 0.09707679733046966, 0.06939560135390373, 0.2432075921581424, 0.020455678993567112, 0.01942971993384438, -0.12929755821855568, 0.11513597006833676, 0.17056277677662, 0.03346907324134018, -0.22750254653692406, -0.3130263895944972, -0.05332642097360209, -0.029159927630509713, -0.05454827375925973, -0.05937059815266073, -0.197454332065853, -0.10513535315061188, -0.1544637570334895, 0.03628637655299149, -0.23695842271209877, -0.21510068664982904, -0.25143545666094996, 0.22115962943577847, -0.2000303476268493, -0.2248763941424358, 0.10744910495695366, -0.06494612199120958, -0.1720469690801815, -0.2536788066012903, -0.028089156692164587, -0.3036840574929822, 0.12992049863303587, -0.28265344793416025, 0.031422362178811426, -0.33919110514978235, 0.1670436233026325, 0.32076799100245756, -0.11281851345399144, -0.13943697128273916, -0.15937733094726492, -0.03278041084599204, 0.15024424016397195, 0.1502475093563872, -0.10075502193450003, -0.44429348688969933, 0.15031175852430567, -0.1858761420303886, -0.03157165012173528, -0.06497500718522216, 0.05622947628158701, -0.21561510331214612, 0.13671347305955978, -0.3257931026923596, -0.010882941268208888, -0.30061122925934447, -0.484923767488325, 0.29700169408264065, 0.14962592496404595, -0.42972543268424646, -0.08704147485785593, -0.0924275801290194, 0.15691594970517425, -0.1627747994667377, -0.0853469995836485, -0.14871732624120093, 0.14768926852688646, 0.23990177933398907, -0.08824826873734931, 0.2506877353443611, 0.013203529621148494, -0.09112156924095971, -0.04898246236328891, -0.19268259249321024, -0.1282386322487687, -0.22079626328432125, 0.2351507526476338, 0.14682607531246036, 0.2107915264870654, 0.09306967758544443, 0.040065084298011484, -0.4569506848101819, 0.06321175979028779, 0.10574832156126755, -0.44374935348923317, -0.23226298615820926, -0.14714043801524795, -0.3341970124189368, -0.2854359443245003, -0.17017155522557556, 0.364634155807003, -0.056257555893849565, 0.24988088058703836, 0.1879435000822392, 0.31270950790534285, -0.3592177611337387, -0.0028334410089569505, 0.15403471496297555, -0.20499332154560246, 0.024992691883189245, 0.03266437485848432, 0.1381886931424954, 0.3981072269686126, 0.18976653642597863, 0.04781576422514029, -0.09136394565897624, -0.02835914484702949, 0.03363433564854656, -0.286954382441565, 0.1903857425346706, -0.275804030996601, -0.1172298249759764, 0.09973426817432722, -0.16096683016814956, -0.18936187303261603, 0.13548036436874555, -0.02678413922090851, -0.07274877153689131, -0.12764490171702492, 0.21437510509394858, -0.24504215183819128, -0.1070055626704738, 0.32544511633451906, 0.2421734174607386, 0.27073247712972237, -0.31206341889901884, -0.0302574194629338, -0.39749388435484256, -0.31697199520538094, -0.07494820229284553, 0.41442225271311695, -0.017474857883268663, -0.01825134751648374, -0.1093269145402049, 0.0830843522441086, 0.09558745660399078, 0.23415352846006465, 0.28794113873981964, -0.34301747718853076, -0.43204448776644655, -0.2916997089438822, -0.19093695490551282, -0.08416135790924306, 0.17330236455472006, -0.1688973154394095, 0.3448087578482692, -0.18698060100690586, 0.14808551135499867, -0.2935561316178821, 0.1908323399880625, -0.20655725293925922, 0.10869512960689631, 0.25765192620530586, 0.1630353415185687, 0.2349114256411827, -0.010747378033120328, -0.09885100575724794, 0.003806390719335389, 0.022346750829232584, -0.03686741384083651, -0.3020413391327461, 0.02035775106848495, -0.07873456079034097, -0.08770508220015107, -0.06384731254185655, -0.2727125321764265, -0.21942209137096472, 0.1588435512759977, -0.5740136336950112, -0.08370944818686595, -0.13220740043847576, -0.39357518416016474, -0.10995008640694334, 0.25388007331903384, -0.14559506194836727, -0.484961728842929, -0.4272076645300895, 0.45554010059158745, 0.030604030528079088, -0.27267485669746944, -0.26900836190440974, 0.10228368574416055, -0.1125282584631145, -0.30659469696780994, -0.21618163443580513, 0.17923911812727086, 0.11624340253985546, -0.22681113631165575, -0.09992548205839213, -0.13145814918110524, -0.516915967239594, 0.14544016323462902, 0.2114170504414637, 0.04704198424381273, 0.16905499525742937, -0.0700204298512539, 0.372551805120931, -0.23911661531880274, 0.5022829626257653, 0.1332658141793836, 0.40681270183111423, -0.08128272688054611, 0.37347905888684096, 0.466030822967183, 0.06262557828242343, 0.21993315983527262, -0.28892685930764733, -0.052493815678630006, -0.050513825488382506, -0.05136472539779017, -0.15015725553347525, -0.17877879528568932, -0.06458735748443457, -0.16933111815893537, -0.15350062151619043, -0.11835298989254679, 0.24243402249474652, -0.08198750939320601, -0.5220592266972399, 0.0740306317592642, 0.08331052073823719, -0.18921784966326047, -0.01230524952687869, 0.20170287838952952, 0.16262277985294055, -0.12571226169738586, 0.12796396661744464, 0.0380528011201706, -0.05963325713790156, -0.25352534350264205, -0.025556647807170325, -0.02695933944479129, -0.25301002548573437, -0.36008389175047206, -0.25690879960253926, -0.0934094585686962, -0.01761460701340762, 0.3941120374893952, 0.13038799957215827, -0.004286289920214115, 0.2607878519811306, 0.2392626029337914, -0.03378109825496945, -0.06375717408483333, -0.10771654999412422, -0.04814906320652068, 0.1541981658141241, 0.4103027651256088, 0.1389809172602626, -0.25508859968525355, 0.2614501765178552, 0.009441969301919347, -3.684277972825526e-05, 0.3041000815534898, 0.07802431111596655, 0.2436929430008466, 0.17938380115511596, -0.423053484184094, 0.25845823761759706, 0.4121117528046936, -0.2019834123441426, -0.04722092768696733, 0.01679129359257128], [-0.1471780646202829, -0.3878492106989614, -0.0018780539418181764, 0.22563464361147878, -0.2967554090381107, 0.05553732734736684, -0.24969874063680728, 0.2828551668283343, -0.3131130863713899, 0.33368231851703495, 0.1638724176095311, -0.26514313526346944, -0.19904361120742084, 0.27359272977593396, -0.43300752323713965, -0.02058381761616189, 0.4194991637239993, 0.14942990568448095, 0.2007537717869221, -0.15271102675619438, -0.1025859722726448, 0.007817219787000493, -0.21148897086151522, -0.11326365148624595, -0.07253360511568882, 0.06175011610142467, 0.2530198869246404, -0.23588876356277722, 0.026832846603484967, -0.01877599141932412, -0.2336291860784446, 0.24375752366225298, -0.0628085399169705, -0.36216718815321525, -0.06665818285417054, 0.5737828842703294, -0.17420089173804995, -0.011155994739206653, -0.2240125529489108, -0.030298270899623534, -0.16546619923395514, 0.011474639359853867, -0.0777950752236912, 0.16287505472334704, -0.06240920816930024, 0.11322154790472565, -0.2426029979698216, -0.3398557673381647, 0.045089628585710174, -0.2935924883829441, 0.0038992248594656074, 0.1502648957897616, -0.091554633994596, -0.4874012532716978, 0.08390723146201065, 0.024805442939092672, -0.09849772488824478, -0.1563014888801548, -0.27782840350045696, -0.4498205157927638, -0.1007017540551306, 0.02121187987167395, 0.02473402238230646, -0.7398723459935462, -0.33946582591555585, 0.3564321099596064, 0.19028357076527685, 0.012459388744050592, 0.0755042758840606, 0.14217369741237793, -0.017431413033995615, 0.3560243743013268, -0.0713217369518942, -0.17127827593671166, 0.11200489965964923, -0.07865950637691964, 0.3467840565565063, 0.26945784226223674, -0.14742134564210216, -0.048606328877256647, -0.22112877678179543, 0.27531899008616706, 0.07604234524986613, 0.011270296960848962, 0.16568534743118696, -0.029105804154918525, -0.01865970481151013, -0.28296522221286374, 0.2602587167321768, -0.07695899432151714, 0.13913848378986812, -0.539075921840892, -0.195879015170575, -0.022360969469039215, 0.24528692879872935, 0.24192232349841505, -0.2163475459376416, -0.47327132986410875, -0.014038584479814617, -0.5494825711510151, 0.06710532257603484, -0.09709755874573427, 0.02750914453356418, -0.09223400778086821, -0.240010361710568, 0.4105568823025452, 0.2536266640908444, 0.16914910955033224, -0.273394204758445, -0.19546058027003016, 0.1663786975675326, 0.09368854449715895, 0.3120804626026861, 0.050425896639324175, -0.36232739771608446, 0.03770101635955294, -0.21876900240576228, 0.12001579597993069, 0.0945130681444193, 0.06835917777882816, 0.41051694715325354, -0.02164374783870348, -0.029583445831056394, 0.006399036326536229, 0.01220083622266674, 0.31629328659476175, -0.12957093349507334, -0.3348136022581405, -0.025281438136888185, -0.2632467380610749, -0.6009252249653997, -0.5316978443534869, -0.03475846364507698, 0.04762905997208006, 0.03363712588135094, 0.20214846111609475, 0.013171256957180844, 0.16107055102063747, -0.2690628206147265, 0.1384202432451899, 0.42827449638712783, 0.27520541572299445, 0.16558183643287144, -0.21608292646952554, -0.4648153248401175, 0.3448935632330529, -0.41073283313613596, -0.10708730364662085, 0.2023210933590808, 0.3404026403835734, -0.005743999966185244, 0.2149968504760529, -0.10086930766678083, -0.044537338075608286, 0.0941882319833604, 0.013723540555247087, -0.24621145854340346, -0.6745032348274991, -0.10445299402582012, 0.050179558223455205, -0.40553136880290513, -0.029514024259216044, -0.23639125354096654, 0.2759839823356315, 0.2640673995375742, -0.10488087272010381, 0.15935000732455112, -0.1043966581393073, 0.3285252292294696, 0.007538898174887408, -0.022492435813064534, 0.29991157971815624, -0.07544961969221903, 0.26824456862480633, 0.19219236099292508, 0.022176688325697205, 0.25426190125363207, 0.04543754062076063, -0.2600276693093597, 0.1881576116450968, 0.06535204218169938, 0.08304796782343113, -0.2393588141782069, 0.07838804530419834, 0.17471345647189138, 0.12401660051658545, -0.22503241508073474, -0.3928911708308132, -0.03167117775416788, -0.02112477513878763, -0.05259641142053933, 0.260489355008814, 0.015425608687705487, 0.23434067799827266, -0.066508477735637, -0.09665112523863884, 0.14427927883578737, 0.09324206035290301, -0.22559107739795284, -0.08955146295449541, -0.0424661332507153, -0.030024431247105212, -0.09702787718082934, 0.12338466053434938, 0.30017824476589655, -0.41701291903336674, 0.27628704942213267, 0.1444429649901186, 0.0022985372782113097, -0.10631214838395557, 0.17715420770517115, 0.012502582054078278, 0.05321888722162054, -0.2167370153240452, -0.04360857895540519, 0.027193404741812827, 0.054859540240261455, 0.1265135308963166, 0.10966246140388916, -0.26194498202945304, -0.20869334458428804, -0.15027433886367347, -0.23957027214572646, 0.23313379498224418, 0.48600595447313705, 0.0006573892601453034, -0.13921256021673742, 0.10472034030772397, 0.45419846879249803, -0.02647802119363663, 0.2015520848775496, -0.07786101885266465, 0.3551281437115018, -0.15493863346271577, 0.31688241915670057, 0.1226373166610334, -0.13046971170918847, -0.0014220663485826263, 0.43117265720134235, 0.2539955593970736, 0.001292619198357779, -0.37883213826542594, -0.025096448753975105, 0.3954897950353319, 0.08449732513927276, 0.010350290056005778, -0.1902652479800032, 0.26243711288843863, -0.2738044558604368, -0.04430847573338844, 0.21521986039867028, -0.25315283121505866, 0.19436336300109955, -0.549448338509057, 0.17451285953422893, 0.15315616301692286, -0.07373510707421639, 0.05239469760572572, -0.15084944554803412, -0.21495535815833464, -0.1254520418563921, 0.25456372217887896, 0.4573547643917725, 0.1302111931508605, -0.12399302636829904, 0.1384743436989253, -0.3260397150085774, -0.040072669639721725, -0.2058916113418876, -0.19588846081580322, 0.11920780714313513, -0.08262447380960057, 0.14177245468932198, 0.12558116129381153, 0.25270771371252027, -0.11738617167644215, 0.06419481419834516, 0.1746174813753669, -0.2140547620254046, -0.002286840743367853, 0.23716434072752998, 0.005269560242123554, 0.3439505000302146, -0.17845415376106719, 0.4024325809925742, 0.5187335196071086, 0.09259550652794196, 0.5070243166400923, 0.23821827489077024, -0.038340539056522724, 0.2505859343786321, -0.00701922538134578, -0.15831050742799105, -0.03146753856069232, -0.026744396884231605, -0.09703423587994346, 0.062083771121009275, 0.16763138915807124, -0.35224794254246555, 0.09892542509919441, 0.016131941137565307, -0.2415090156207551, 0.015379083350117503, -0.3257140310430852, -0.13737978880873788, 0.0012250272396239032, -0.1061406302743605, 0.059014216350522994, -0.07226154211537521, 0.02899773093726004, -0.24124965779919996, 0.06945667898474234, 0.2826155738599312, 0.26840679391776745, 0.03188834378313101, 0.34367081976311425, -0.40512990651040964, 0.4206952592913725, 0.39946347830324025, -0.13378652926569873, -0.4130176727463093, 0.0012350150631023418, -0.41735552984805896, 0.4797774770782739, 0.10886350601852963, -0.3734597228142446, 0.0854393658375964, -0.07707022772748061, 0.2228372884074613, 0.26570829093710147, 0.2098553402926404, -0.29937368692698907, -0.09536808264997128, -0.1322062201542105, -0.12337155202907103, 0.1267196651241555, -0.14388270788833368, 0.009663354444632549, 0.13683996916224667, -0.04421434193721343, 0.23312323602036406, -0.08877142709576294, 0.038632508012978094, 0.29616148413872806, 0.3169908534964125, -0.1702690482833072, 0.22297904928324752, 0.03740423953168412, -0.4304222825952278, -0.176433289935932, -0.056206339110233206, 0.4720023893246377, 0.006970412597862448, 0.22358711936740377, 0.4344653906314985, 0.37733493732201945, 0.05703908010166282, 0.23859048902533356, 0.02493493121094909, 0.34595726419450196, -0.3537234358361894, 0.1443588958821354, 0.27891096631547097, 0.15514877301481036, -0.1607697194450117, -0.018619890214442842, -0.2904832725605194, 0.2321402372595325, 0.09561149852448779, -0.18926778414333723, 0.31617142462999337, -0.5294669144543888, -0.5508817852611368, 0.5884095160249488, -0.38602682317761977, -0.09166778226900472, -0.010356165523281355, 0.0642159462352104, 0.14544771352146735, 0.08187312457443922, 0.43785010465582935, 0.339782458460258, 0.15930710189694094, -0.023205753876312626, 0.5643994608403914, 0.18508443005353015, -0.27015372970720486, -0.3941001728939494, -0.25267837238713586, -0.026462065721233143, -0.26550374825403017, -0.07231642710463392, -0.0450324436540732, -0.16612103784939933, -0.18780700343742923, -0.06557996381734683, 0.06546452598154356, 0.060384102980504284, -0.06119488146910083, -0.182367788812467, -0.4000873786877632, -0.6216576312429287, -0.257088497399161, -0.01206816025612953, -0.1585436464080077, 0.14957282451316856, -0.04109468634931849, 0.4159606220988024, 0.6488987947468852, -0.11785136049567833, 0.34133581448827477, 0.26927291448582363, -0.019891832956849865, 0.2117421865268502, -0.22449468171144818, -0.05663191427404047, -0.12658316749046863, -0.021868807458734877, -0.2546799300206342, 0.5574782088628342, 0.32571111431479544, 0.34608566423747594, -0.05436125956265488, -0.11921634275880422, -0.04017406921920859, -0.21117482960992864, 0.008860487952044237, -0.41037391271066703, -0.1439363305095707, -0.29210399129368925, 0.02092598423818408, -0.18842894690459877, 0.030301869563413436, 0.44296695903284067, -0.12357775262031319, 0.4943381048689676, 0.21101952305235586, 0.09169224928324844, -0.24965395988243494, 0.2764804501309624, -0.3969492094305278, -0.09685314981878862, -0.0342007792685158, -0.20990793778835026, -0.019380566507829804, -0.020794721966099716, -0.14523537780590556, -0.271825889454008, -0.31911560470291506, 0.10167094114567417, -0.4651209632298129, -0.11968753141627116, 0.004436601464203334, -0.368958356646507, -0.11160810274082832, -0.503389653990305, -0.5265704977516403, 0.01730292271254062, 0.14273602690585085, -0.10530304874084326, -0.20606095880994896, 0.15273717578317564, 0.21377615259694543, -0.04927146398920579, 0.3416096960834538, 0.1241036604728509, 0.03668978029358342, 0.13157517389895304, -0.07674576426987394, -0.4170355544158799, -0.2892669326281456, -0.7421066753552072, -0.16884798053068975, -0.06320792254562618, -0.21266147115613201, 0.07174608459964316, 0.12137373463211035, 0.14547392762026554, -0.03202578040076465, -0.3778579548534265, 0.27342395418461435, -0.4016210681142563, -0.15073857796371368, 0.008267188248197603, 0.2540719008062094, -0.26495061183673235, -0.38318077527609085, 0.3625508435228425, 0.21095490701564057, 0.23928159605196503, 0.48285227164676453, 0.07605444482921214, -0.10406823517279454, -0.4346918840871323, 0.18151898504257474, -0.2525826621428558, -0.4854575184348835, -0.35485397231023635, -0.27737159823551716, -0.2408057550687644, -0.22344378315060465, -0.4367980350623982, 0.6262108492344447, 0.7124131238655685, 0.2143467624744275, -0.31443539256022096, -0.01807815518951893, -0.06301263084616257, 0.1349360813081897, -0.8360506510412973, 0.22862690012309825, -0.05249279675538104, -0.17146411986140953, -0.15432409022632548, -0.42438103225344004, -0.13889580926185513, 0.020315530497121988, 0.5132955802231702, 0.060456114176610336, -0.4039754625281694, -0.10235909807893455, -0.5668124386399561, -0.38386339887131676, -0.5030821924849989, 0.005215193512878797, -0.030582338633615144, -0.11791105228019609, 0.2638967124624851, -0.23915096492151347, -0.045324868995204784, -0.15629689432995134, 0.14188825368929803, -0.06446027021407402, 0.08378386483898487, 0.051864454539442925, -0.20469006173761642, -0.21827180308235616, -0.5978729599173024, 0.13092520361132404, -0.08754282615130246, -0.47049484472540265, -0.10204982565111757, -0.3658617807153884, -0.07117018867545362, 0.026357823867795754, 0.10217005023130275, 0.033895589767083706, -0.13192868832702323, 0.4652554138247325, -0.3013498801048762, -0.2139686541610781, -0.18579915944699021, -0.31747712117035787, -0.5428598443842283, -0.5940558963133257, -0.06837317174884326, -0.02857840389777273, 0.12185356916489344, -0.0430433372333041, 0.23819238710456062, -0.04870024892709406, -0.1930972977378217, 0.1577674737780792, 0.10136196034370279, -0.09917686378077717, -0.3253849386325472, -0.12345417499171572, -0.3339950112330457, -0.05858418343322301, -0.15088557014790172, -0.19939952203173414, -0.23343264786018994, -0.3737778183407115, -0.15455682569173862, -0.16367716185955386, -0.003509688823393523, -0.10257150076612201, -0.010306707204663182, 0.19716929623947402, 0.06774757119275675, 0.07205234933753515, 0.20300738594785459, 0.3158067281890741, -0.09031275865794532, -0.0898353316012398, 0.0670216364332567, 0.0340817837520919, 0.46011364450743686, -0.25723366101854694, -0.16738751052521045, 0.4578488641215516, -0.04762202097633056, 0.21408941918544747, -0.2219803006837415, -0.3699557516558082, -0.5968022410378435, -0.34969303901498633, 0.018713265949081105, -0.0523642419321276, -0.3296786106035796, -0.13395438390181827, -0.3056239119281103, 0.13908292103731623, -0.19086648641384252, -0.28830728757867163, 0.2663400976144067, 0.3970967943531598, 0.044899321152343956, -0.0469945007181259, 0.06779877538877167, -0.09847807336277396, 0.08784966002620073, 0.1008242148251933, -0.03753395870898204, -0.2822401442401246, -0.3349073302845324, 0.09455149414718543, 0.07115910541567691, 0.19992530314078558, -0.030122789730263284, 0.06476249495545797, -0.2741971083029124, -0.37538620691865726, -0.0855851574047473, 0.23292913192787987, -0.02859267094084845, -0.19278986148550134, -0.024526593548002944, -0.10884364350766859, -0.08817881963730902, -0.18020651168612647, -0.23596024521472653, 0.016880646164251813, -0.15962794000356698, 0.15556482451332077, -0.3985857996553824, -0.28860809027920287, -0.04417254526414058, 0.2161897893165894, -0.10160883366505805, -0.052967760537742825, 0.02528243303933172, -0.027558205729036746, -0.09119731825445164, -0.11546424654007727, 0.12216071740929557, 0.11330969453686415, -0.6206802008240331, -0.290736362861534, -0.029137022165734272, -0.03080331373326584, -0.20525588438160206, -0.2675771931450808, -0.1826780207136386, -0.11163820112532817, -0.32262982462780626, 0.0019431333262912324, 0.07584797996958564, -0.07164644120245599, -0.12879561277252446, 0.002214674365233243, -0.34121654389441186, 0.06548876678229759, 0.3799816704074148, -0.09448778593200864, 0.10300212232148936, -0.036537929937053626, 0.08945564621842726, -0.2943776182555663, -0.2293770726046146, -0.16784476691277495, 0.039827515193750246, 0.10864039330979501, -0.3879996597068965, 0.025350581632880766, 0.16327994793854048, -0.0034678035381517022, 0.011462944234569271, -0.014676930498199752, 0.1348220837068426, 0.1458370833404493, -0.06384091532023316, -0.04479996620892194, -0.02389478586949442, 0.12911089729462158, -0.08618165037188551, -0.0062449775324741955, -0.2407999705886896, 0.11955654357941993, 0.004442991153079242, -0.14811972536833415, 0.07758376749472914, 0.1440474654250317, 0.24492628955629026, 0.4187828336342899, -0.2561637214809184, 0.18078088235849984, 0.3580320868995498, 0.10468022132483075, 0.1255014792622666, 0.15003275991599183, -0.14574493113778306, -0.4041613543293107, 0.26240094530602276, 0.00895761933457563, 0.12976979765161203, 0.0901833890693525, -0.011644060939875345, -0.12199505152311739, 0.5753118278996519, -0.22209406487269856, 0.20502447007124974, 0.33475130380028517, 0.17175511510578698, 0.4627556602488884, 0.07836869729014018, -0.30790074617307917, -0.16924413513419279, 0.021819558097275375, -0.13689539922488966, -0.5018265434402439, 0.0883969492173271, -0.02598397883884587, 0.25650736209316377, -0.1999776535119985, -0.08475219431567527, 0.039404134869424165, 0.406945871217206, -0.24591755155500367, -0.29429190629370205, 0.23644914522397253, -0.11096799102830239, 0.2351152008889755, 0.012517837276731907, 0.1987968064071008, 0.2783034372264757, -0.23348032628996765, 0.06608447455888908, 0.5614778026103338, -0.026799040865070463, -0.045242922027067915, -0.08464237636134717, -0.11307883846486223, -0.14115789458665334, 0.3083539803111445, 0.23316952633326482, 0.33768810913145414, -0.13478154086218513, 0.04422332967664383, 0.143602354924232, 0.33435898459614216, 0.2725363794758917, 0.4294232394496476, -0.05388949581590628, -0.3153767859272368, -0.08237279802477909, 0.18361547077096474, 0.14618254875149356, -0.2115114283250838, 0.48885848298941353, -0.3517963310005882, -0.07054431453132629, 0.0005283656058681338, -0.4339919311459036, 0.35577239462443583, -0.13791001750497403, -0.04339641674972037, -0.05483844294552681, 0.054613798636250155, 0.054501704044720545, -0.12598142816668123, -0.05543273578903379, 0.3200656553160629, 0.07727785397969988, 0.1367806757294047, 0.0601002353954572, 0.18244674633872646, -0.07534334779126407, -0.11914165114820768, 0.221738877340716, -0.08259047261792067, -0.19421081912294558, 0.1143246222593591, -0.11103294036399287], [0.25125053039031736, 0.22148151653601086, -0.4975437376626933, -0.3395337937678251, -0.01334315407557754, 0.47829600461462274, 0.08248169980774006, 0.175685133693026, -0.06718221804933715, -0.3092269289714465, 0.1635615894415428, 0.29884193701817297, 0.27456628390689497, 0.12046541755642944, 0.045236980319593, 0.48207474741870454, -0.14306700095065011, 0.03351172756354203, -0.13620851061200437, 0.2945478958422487, 0.3741815576473057, 0.013461908332950825, -0.003628290730342793, -0.04252388199918184, -0.06992388973170513, 0.12432744023288288, 0.5441943960586997, 0.10627563635222552, 0.10055174653728612, 0.07938765559615328, -0.0492085220607466, 0.153132466479289, 0.2167563821539899, -0.012171783908234382, -0.07527358468112441, -0.13687322522773235, 0.008164835364601605, 0.17314599405558337, -0.23071081067672125, 0.4990175957721375, 0.17782825413228845, 0.023975592845398738, -0.015999992061672852, -0.11105750523174891, 0.04143466976561967, 0.24443085851172452, 0.03249821897588717, -0.31033993482809474, 0.04248297249498501, 0.16186610379825603, 0.19540334764313586, 0.011953104107504657, 0.2577940659101231, 0.2601370118054874, -0.1769432207429307, -0.2241691596683916, -0.39859055906794905, -0.15590139505832126, -0.06366272499794708, -0.17943219940678884, 0.03460014716628975, -0.2972686454926752, -0.10675623347325638, -0.11775765161106991, 0.3211630816359806, 0.07847698356406947, 0.15685174613046535, 0.09340840247002583, 0.10034586572248412, 0.38237812174849506, -0.13411591026873373, 0.38371117580227565, -0.1903297508562033, 0.1570931581614825, -0.2687562784787465, 0.14415272780339136, -0.028290443445692346, 0.06070943260814784, 0.15330470131932142, -0.13895770747549566, 0.12623846110434833, -0.2957563373890269, -0.05562322886828723, -0.01855824680527779, 0.30548728500552774, 0.38976451531478806, 0.01984363266786385, 0.2515701045252011, 0.28530997704990796, -0.13221471684734673, -0.08597320333803879, 0.0684794309641415, 0.0068713485499471375, -0.1780175218703023, -0.2536137677181863, 0.14258272208925324, 0.01610347759310924, -0.29430859781619106, 0.14181113475051133, -0.27464755812860653, 0.06626203758704984, -0.12164854936195464, -0.0699106277489568, -0.06618494860716927, -0.040325567207175644, -0.030548763040461058, -0.09201883333924417, 0.14230368046731778, -0.23645756699940185, 0.20258075142987128, -0.14889141685052448, -0.17121413447346384, -0.028102112274047256, 0.2614646496618113, -0.11017739628128595, 0.10680013587267671, 0.02383031017849027, -0.36378220133867095, 0.1000815180167959, -0.18673311740018772, -0.23444036667115303, 0.1573133989636164, -0.24543691749426869, 0.0002835678279375748, -0.06955012205747067, -0.250634666589039, 0.11074415797423647, 0.03772757105638, -0.1263159177466603, -0.6701815113213617, 0.20260814185114226, -0.09293911265496654, 0.05664779493236529, -0.15873982242671655, 0.20442775581611802, 0.20002034969005872, -0.0026969226947429347, 0.12729857761475954, -0.3107456718853575, -0.27639950467745666, -0.2561619092210743, 0.28910939104212463, 0.3345000754077383, 0.29593823704876226, -0.5966250757861771, -0.030429916599675918, 0.14256385078991562, 0.1351396597088026, -0.30136386083601013, -0.22752150408112204, -0.19233548659317215, -0.18492349834335162, -0.2443816180169045, 0.10435743092397366, -0.2785429847761266, -0.12366171956972716, 0.11514372728537858, -0.14468492206226738, -0.3458266053357705, -0.285032245684818, 0.01692006296815415, 0.002685395543167827, 0.0699583883484087, 0.44493141315972967, -0.06601973499724989, -0.19005940119012152, -0.22720842577540576, 0.06591871592658705, 0.3156955217821151, -0.01951379018141718, 0.19761304639520116, -0.35853954184515924, -0.2689161777628799, -0.10929333160906227, -0.014429846465314382, -0.07385861244766548, -0.10813751759667858, -0.4673387272798933, 0.061402537548379495, 0.04898092953473382, -0.10434031630749885, -0.18434919177702247, -0.06520112048660001, -0.2335065038572917, -0.09731348391366614, -0.1900155720153014, 0.16198931260200417, -0.24226518810365713, -0.25665370122332043, -0.11331605641331685, 0.12358733206467444, -0.15906235400118807, 0.4370560857687006, -0.14226604780428212, -0.012799292674264122, -0.0626548882320605, 0.12990473562995622, -0.1694548455053999, -0.10679930905900346, 0.0892347649459887, -0.291496445705648, -0.19934924094310602, 0.5709522829330201, -0.44783580150432195, -0.31972545467341795, -0.02198863437842951, -0.3702107977555877, -0.05796827743310724, 0.04065354871758606, -0.16944238924535232, 0.06663597851880323, 0.041123347006782, 0.12159006270770219, -0.07692188100283225, 0.23207879428638323, 0.003803220442115754, 0.18890003621748164, 0.18646457928594834, 0.13844225868843485, -0.1443839657894184, 0.07453474564063073, 0.14323159893482426, 0.04556915226186299, -0.18281400175073997, -0.23903561062554515, 0.042424327142070284, -0.10762918478492027, -0.025888028797863706, -0.39851427019917957, -0.13483701781844665, 0.015112856571838756, -0.3614245876261074, -0.10547771479756443, -0.22107883643445303, 0.11313548677187281, -0.1218904786115193, 0.032242216750582024, -0.0902960716414317, 0.212614237450446, 0.2639195697472984, 0.07711541261302146, 0.3036740949152437, 0.1890570530482891, 0.16325737930967985, 0.3056541125360206, 0.3041140652726881, -0.22921060218606448, 0.2495447648889577, 0.0363149550335546, 0.38632722563276145, -0.011162028024735643, 0.2014630259279512, -0.4049386822262945, -0.19292581921851776, -0.03616813762736919, -0.37265089552073716, 0.36437311480645473, -0.36066484635472135, -0.15571158670593757, -0.4485198702517988, -0.20047383192577528, -0.7295282101824001, -0.17080343193387454, -0.005921058370119517, 0.1495712243110619, 0.2915824324916704, 0.2654430505491251, 0.17784560864145607, 0.49130240783123075, -0.22808114670733512, 0.25235578936132297, 0.3024806250132421, 0.016689069322954168, -0.10172076304367424, 0.6556375436016191, 0.17594836699504152, 0.3871804834887984, 0.40503743927744074, -0.12387106353484154, -0.22645047201008991, -0.32888063169255244, -0.14537555070498553, -0.4317810883075238, -0.13777129133252305, 0.12537713589988325, 0.0621247995992337, -0.6086917952574626, -0.24122086246457722, -0.1771902037412507, 0.04311455927249262, -0.4904520582121125, 0.200116586761132, -0.31099459553628, 0.1534329956141925, 0.1976270473544006, 0.16461909223269525, 0.28566850883295447, 0.25488469948137255, -0.01577012124669678, -0.3746323831055148, 0.14362038082341538, 0.0757290346396666, -0.2795224954978894, 0.1554640258451195, -0.08844727323420695, 0.25418856511333526, 0.2292587600836552, 0.48349475732614683, 0.11094983703067261, -0.04737446507321793, -0.04198493703327447, -0.07354201128201551, 0.025543565367001076, -0.39390490402057066, -0.13414123365605798, 0.17656030198380618, -0.059446632702021544, -0.5087192566900399, -0.2633910778030288, 0.10917985205902277, 0.3458473977994236, 0.2266386759760951, 0.6194617734816258, 0.14663691349576105, 0.15342262014363453, 0.05927277156886169, 0.08981738515790703, -0.3520737913508474, -0.2311266795799342, -0.4356504258427378, -0.23772371159298689, -0.15686335364435244, -0.17375099900065516, 0.31095743941586396, 0.02293449109884822, 0.3540748733113033, 0.4175043777808581, 0.07268064737042625, 0.22955970534135514, 0.06044494720522889, 0.00612342859452269, 0.11976781756098748, -0.23678171547246052, -0.05712203955896953, -0.12172371826617076, 0.003945967613281025, 0.29733149400809056, -0.07369620142603861, 0.3090854767031597, 0.1837203819345137, -0.25728899845263536, 0.36072024847038353, -0.18097433873386928, 0.04442904733359239, 0.11015535875651902, -0.43606277522045167, -0.32571191301803637, -0.16105394168413706, -0.12800604299112442, -0.09573253839756689, -0.3991793500162306, 0.1562036795479512, -0.05917040392956103, -0.18159642324642622, -0.1874748987761828, -0.07547039597379397, 0.5504631152643377, -0.07830797808228547, 0.42233820869659006, -0.10058401720520818, -0.10812551987741854, -0.5950239371354193, 0.1727713565091676, 0.01584455878081909, -0.07798986744022142, 0.06967578002843965, -0.05805854745187734, 0.5342462607743695, 0.22552849884929113, 0.020088672764997303, -0.14766700200232297, 0.3683381700678676, -0.44682157422566054, 0.10004518334060139, -0.31173680241998286, -0.19956618272732965, -0.06480395416191206, -0.2682233541682666, -0.16678021203013427, 0.08004483117760806, 0.3866620590868041, -0.05094466139090409, -0.15518136997264156, -0.07596491793205756, -0.07981590730849941, -0.023092470034616425, 0.2334730364099754, 0.2560252145672208, 2.514903517743546e-06, 0.24307994387107043, 0.10263174083350157, 0.2584897998947435, 0.14789629752702985, -0.08682037206223675, -0.1482087249891942, 0.24408019294849326, -0.12515537118996156, -0.21267764463203975, 0.017360442594333697, -0.6457857890028029, -0.8332763066654004, -0.651614111154817, -0.06824890512499734, 0.11084493822928287, 0.3440503100327996, -0.508559763259434, -0.38396874546053006, -0.11413749659679054, -0.009058272871114856, -0.14202528142058818, 0.3695276973841914, 0.330969557423647, -0.4633092916916818, 0.221825301836074, -0.0013390596346569412, -0.12215533574211658, 0.17097393942217742, -0.07359512362644213, 0.2697150859254493, -0.08594677520844857, -0.26617762490099844, 0.3033686159809932, 0.2282878474671532, -0.41714291903520156, -0.026840252260586804, -0.32989985112854237, 0.1317885670359114, -0.24510123074457443, -0.20753274653402567, -0.10180710645299057, -0.25073109573247243, 0.1236457913386298, 0.03697044757899356, 0.019048106972631106, 0.10066970712882142, -0.011151577720950063, -0.043739425383269526, 0.0592677551952047, 0.23992810888696234, 0.3423620087196506, 0.3502091579697247, 0.10417245270791774, 0.37065378674323635, 0.21081379735994465, 0.0806950829022402, -0.2426698784489308, -0.12765775670653187, 0.1346085132736733, 0.1343427223760192, 0.030293779968101554, -0.4792576188837151, 0.6627342137056157, -0.24547500753068563, -0.5175134166945041, -0.07880604194594533, -0.34920191295775493, 0.020963074698557942, -0.24645891008684667, 0.2200958673835654, -0.12386879055747776, -0.16776066730018938, 0.24296249560482602, 0.017206781553219523, 0.00197676692238418, -0.12592230029754012, -0.1892072765174967, -0.31940057220305207, -0.06597245694266955, 0.2840191948753608, -0.07333799452677639, 0.23685239467430927, 0.06222879227870966, -0.017129242955641746, -0.036732938032143794, -0.2945690573060981, -0.3897744070352308, -0.3228656157510601, 0.07097626101885966, 0.0437636425189525, -0.340223501507115, 0.26538711406654564, -0.06312216597614949, -0.3054774012751536, -0.25137915540108, -0.41097088133672893, -0.10681556676279844, 0.135110665132468, 0.43292830502646606, -0.3103291199535647, 0.0655802031100828, -0.1889905346247533, 0.09787880285730903, -0.03842048329276972, 0.18310001078343807, 0.4110903252820864, 0.16730899188012588, 0.38965916229936365, -0.08626039219310595, 0.2833302756288846, -0.11480967210382925, -0.016253059877619366, -0.07500215713149766, -0.02903035324369369, -0.1338882250170644, -0.4749035435118224, -0.1302858757431968, -0.26561842104252925, -0.03355565449878667, 0.303655410246359, 0.14914317475561167, -0.35062320448269424, -0.0003366461219543696, 0.08171806815166717, -0.23953836987110644, -0.18408879033654693, 0.2258374436999524, -0.27775988419119985, 0.004468596125179231, -0.047709141409145096, 0.38257796432469376, 0.07898795074358964, 0.4530499130024323, 0.21745945578077835, 0.022696382361576537, 0.3006133232795501, -0.06190050372401551, -0.025351189622203, -0.12281672798286535, -0.2619757338033476, -0.22682916820765306, 0.15167811477198934, -0.1943525053800902, -0.24700634835134147, -0.08801057235757265, 0.2598145782812589, 0.6185205682128558, 0.0432023504712383, -0.040608158608196304, 0.06643758653451005, 0.054069340541900095, 0.09531561264869465, 0.1437717579886339, 0.6022672378026743, -0.39832761873697936, -0.2103460131465849, -0.4590389880846423, 0.36406891416543846, -0.14745108760488948, -0.24858892935633334, 0.03205943606946534, -0.038374957606856594, 0.050290743616992095, -0.03427266974299541, -0.37145928217288815, 0.21539773184114988, 0.008025801702754923, -0.13652944777681972, -0.1959753202369004, 0.6275717520025373, 0.022257739232203724, 0.12482340444480997, 0.3152528379700805, -0.03387892059941559, -0.36065077806180534, 0.032203935194696935, -0.014086867462929907, 0.292812334266632, -0.31900781690870034, 0.270019687848795, -0.1836485367464406, -0.24372236514414694, -0.13501961545291608, -0.059742641006944736, -0.27468825635343697, -0.19643310711366035, 0.0861617788889592, 0.2446562536866001, -0.25918208382748514, -0.39383433108244786, -0.047651005339830244, 0.11775298865506197, 0.09652051004005648, 0.334686488850814, 0.2503915953653031, 0.17004913259026994, -0.007306325422706481, -0.048240105721820116, -0.3172194436918041, -0.007279395205329171, -0.04960388804574518, -0.09125322945454772, 0.036472235228835526, -0.22177922869195824, -0.09311981352337342, -0.28104501538331567, -0.1844066633224127, 0.1621854225662488, -0.2628955669874995, 0.05547349286617483, 0.38072224036464736, 0.036038757995952256, 0.15173901561746367, 0.04439220012830319, -0.09430020792496946, -0.08426972192079839, -0.21754837718756104, -0.2396147382225928, -0.30731104785972696, 0.00866480813449892, 0.21670584650933122, 0.12208924351656487, 0.23697404107637346, -0.26750846936033085, 0.04162413558747165, 0.5634512052806148, -0.05200391668548257, 0.2010602049283651, -0.1112273959009922, 0.0511580844603783, -0.7201550116153993, -0.02156355780399427, -0.24187244935804636, -0.1280235380829489, 0.36347360540045154, 0.12768378761135796, 0.13184268251610204, -0.11979473896654991, -0.18939977624277446, -0.12726296236675833, -0.13961829736419015, -0.17383277972300232, 0.0808030943221271, -0.09944396980986132, 0.09784824893864855, 0.6107953697216482, -0.11022689318098898, -0.049009535098022534, -0.018287022339955297, -0.24957091838692402, 0.2999478860765276, 0.29358564415080113, -0.1874112445405538, 0.02325018611401601, -0.0788092666810509, 0.23746303515702316, -0.3821421243648543, 0.06345808598082034, -0.19002639838965332, 0.05236576794703615, -0.010594035187939168, -0.3702640466958881, -0.03406403715559569, -0.35264371201438044, -0.039452522223863765, -0.1926034294174128, 0.08284217711953762, -0.05587066909029648, -0.26076820036014564, 0.3699646977923883, 0.192103865582618, -0.0033291331338649167, -0.29003121942451804, 0.3101208754147946, -0.15498957656550663, 0.029384672299402576, -0.2881452055086593, 0.0702970992563784, -0.032948889385958594, -0.1297707941193047, 0.024663491304109844, -0.019828193586368215, -0.23296927469187836, -0.12805696746244502, -0.07325591809483582, -0.2895124759779498, -0.41294793015544823, -0.3291608919584239, -0.3380626778206004, -0.033299036666456866, -0.3715541345156275, -0.231227982506211, -0.08341211748822282, 0.04711611116138849, -0.14029995915714535, -0.048890732098432234, 0.5689308355716708, 0.056338751256094485, 0.10792689326103316, -0.1913370403282992, -0.12121258462093824, 0.03074360254484668, 0.029664971727454977, 0.028347333257613908, -0.036762514052513025, -0.10080184828172871, 0.0445805586849692, 0.2222822702265146, 0.22599335328243944, 0.2040557539421928, -0.2565761739897928, 0.039806508442997775, 0.0012412846986306074, -0.3284148741070831, 0.05810225908025915, 0.1902400353726851, -0.20139476588499472, 0.11199294473263631, -0.129766207040793, -0.31919694591215697, -0.10480915944762688, -0.012861616341541345, -0.06260949972765285, -0.27325434609247906, 0.22265886581944982, -0.11001471765656491, -0.28283204238305004, 0.1725955886692054, 0.3832479629355085, -0.19359789254973803, 0.05814673098493172, 0.20439943642869182, 0.12250608685573101, 0.05116407960185749, 0.15424858373606254, 0.39730250165032155, -0.10801786533886557, 0.012687383615865454, 0.3750973662650535, -0.0298819948002734, 0.22367666325484697, -0.039446763062356865, -0.2801658206412235, -0.06153259912628585, 0.17670785696835814, 0.2285886164092537, 0.40946795744317493, -0.20910806162204826, -0.17535850667647387, -0.2712417864112835, 0.27271091110737433, -0.10232527300938044, 0.09541517165431607, -0.0915055969686728, 0.20979021374409543, -0.3436168607462429, 0.14408247781122208, -0.32334090028170137, 0.22387668299021768, -0.09347996208271935, 0.13405040050698677, 0.1536151659821877, 0.01691042752559808, 0.23797660901787443, -0.2683160596353664, 0.06332806327372265, 0.2499704671925937, 0.35661825935739655, 0.4611039073005471, -0.40746278858742996, -0.19667513980157933, 0.058813685589905726, -0.1725727043073951, 0.0471378894646481, 0.00685829043665028, 0.07609622883972204, -0.021144432162984127, -0.14941261163439462, 0.15920351670294483, 0.24045206710341813, -0.0874574976641812, 0.3212755639253329, -0.0009690028013906079, 0.38228492864417335, 0.26337509458104924], [0.1866694827636562, -0.07528235227470913, -0.02941727947739472, -0.00801255454428328, 0.1847661514472568, 0.19353946405889663, -0.23529794686647051, 0.14040516040050297, -0.20278961379655416, -0.03127674945820435, 0.18055053500985604, 0.08056981643775456, 0.023980994362301035, 0.36306139806950966, 0.33283243473430435, 0.1299810742588788, 0.20288989844497984, -0.2548688243712304, 0.10312159106212238, -0.06557130460459232, 0.1760805632135455, -0.07282838549049346, -0.19217172723879483, 0.18526493415481501, -0.22602931840097248, -0.05805492233321081, -0.15376906177343747, -0.06445005567933712, 0.07669697432942656, 0.06682492395043792, 0.1989682537493009, -0.08370525954915951, -0.19347680291410796, -0.26831255746621596, 0.05729954158264644, -0.11232441339858122, -0.23552204719466016, 0.2251730594425368, -0.6063323809597576, 0.13272000519390312, -0.06631620937430215, 0.12313177856866672, -0.34330040989482313, 0.21325509229696482, 0.1807647700981356, -0.022901481849297828, 0.052366278988461405, 0.09280096431497192, 0.09928588638451048, 0.2318310057838166, 0.019725293500386848, -0.03370179101359126, -0.13329036544992845, -0.12893280857758518, 0.25828817607922266, 0.3162081155431238, -0.02687140993918721, -0.0051849425858903056, -0.1907703738849305, 0.31454251112329246, -0.08756907986854638, 0.17274526810682622, 0.33245970713219863, 0.19643582292510503, 0.30705884803055344, 0.04229598602913821, 0.2596482228057086, -0.28222361170204363, -0.3155707799682954, 0.017339905668046364, -0.3022054173263474, -0.25224657326119765, 0.03379111692958374, -0.026019003480192076, 0.27124804925361073, 0.2701286570552635, 0.14262278038412213, -0.2291422406521594, -0.43285273354793924, 0.14902947583112552, -0.12457616228736935, 0.09879758517135352, 0.07452408559482927, -0.11530402111796122, -0.18502846087895383, 0.13610126442325562, -0.27321782575301923, -0.26287342102204764, -0.09980759755794245, -0.282446751798922, 0.12134684924577217, -0.22543463668918462, 0.38108636595815215, 0.0010746179376228933, -0.09035822894514407, -0.036763680491989234, -0.21351673302897267, 0.044686409247358935, 0.004542315869508319, 0.011010556229520413, 0.21782357992766788, 0.05703265931090711, -0.1899779681558792, 0.37840842596037383, -0.37696892121393066, 0.24835492788967353, 0.30097131208800765, -0.09060585649158738, -0.12410143081597899, 0.09490323393212777, 0.5018439595297736, 0.2919600360400976, -0.12611730544272662, -0.20744111532500203, 0.49058524988270735, 0.13652389725016276, -0.18043313013705323, 0.15926195332947923, -0.0011813982593357475, -0.13087841675576478, 0.4276733725866287, 0.14002471204159928, -0.18420017123351382, -0.4280460730381943, -0.11403154654098958, 0.005561007623262527, -0.24648366875929736, -0.3710285806012013, -0.13969426720753078, -0.1983809436843762, -0.2516658668181097, 0.07673846261114499, -0.4029091806979417, 0.07724838960249249, 0.21492752787304648, 0.025873717077566347, -0.264941963564782, -0.609944133470039, 0.17581052873412706, -0.050160201655584456, 0.01787095095121978, -0.267184499543902, -0.03677903474600381, 0.2790849659236463, 0.020486442431264407, -0.3132206001576697, 0.2208056414283714, -0.15946046877836625, 0.3422921631142056, -0.01613298129137226, -0.0626083756841284, 0.10618202002317197, 0.13367510119594722, 0.5143421686251642, -0.17937706573507972, -0.07127251763330461, -0.26580820683787937, -0.09165413627196276, 0.11651279244484129, -0.062023484092403124, -0.1604383777495883, -0.07440519225323995, -0.04785737415929517, 0.14080746433176353, 0.04822950227284374, -0.022416611241821503, 0.130083721811636, -0.13286307680587828, 0.1926804688096453, 0.45708268522821616, -0.1761968042968158, 0.3204219468602058, 0.07774884272614632, -0.23726363021447047, -0.06344629895312452, 0.1633981401315102, -0.31610640720468935, 0.43976861420630003, 0.13996053715484624, -0.3110787967370688, 0.16185246207223128, -0.15569467677617144, 0.1883489190975701, -0.05548652679986163, -0.2939793163905243, 0.08222142975998895, -0.17615581924691331, -0.21182395285810088, 0.08546019033686487, 0.05252039941819801, -0.3759225359825696, 0.21294312577415386, -0.2037757721271308, 0.04999950623417728, 0.2673194565287909, 0.18486888643759275, 0.1358994267551272, -0.05333250781821849, 0.07758310545235375, 0.32412449787802683, -0.06916635684760138, -0.07671719732875011, 0.29724909078235506, 0.05774036890515198, 0.3093976312069756, 0.21195832633689887, -0.00666824131227755, 0.018182233154473676, -0.23412148442822292, 0.19742176356262015, -0.30892927452968694, -0.1676964598049868, 0.09705363976870515, -0.6524015159959669, -0.4967723641012276, -0.21970656475302927, -0.26468627149821405, -0.12091286203238637, -0.07579730947486235, -0.05654531363693891, -0.013031675082906298, -0.05685045122672893, 0.002506025983550777, 0.013704136771277587, -0.005885505868880473, 0.19934757961439278, -0.10972708127806839, 0.24952341333123432, -0.00896875289721663, 0.11110228358921313, -0.39516723831822115, 0.17580802539408558, -0.13285468825224506, 0.28294607677481765, -0.27263835783246115, -0.050369350791853604, -0.06575216844880581, -0.13576184034117514, 0.17533013914517626, -0.10946317539792542, 0.2929437232535907, 0.12186006606277988, -0.32587637552339177, -0.04125677551302382, 0.07381224635950763, -0.14061419240848833, -0.20974508118933385, -0.3835229730492848, -0.06634136085454334, -0.12663682497247913, -0.08980209592518956, -0.04652294512875874, -0.12609877971178718, -0.03727255791060889, -0.10291804290077486, 0.32580554429601577, 0.3679179493472795, 0.14891368856084428, 0.11486004468058396, 0.4164560179080885, -0.08075860415580341, 0.03692987063581524, -0.3074774547421166, -0.3385110716613581, -0.21687620301406846, -0.22973451743104184, 0.07557768550431249, 0.13363759204688527, -0.035811358286715465, 0.2618462466955544, 0.21404597227995364, 0.07820052374094791, 0.12392423922717836, -0.041024371862737934, 0.32803105430464824, -0.24159248014070758, -0.09832940164736313, 0.4302285176371976, 0.2853993664331551, 0.07184586581893075, 0.20261568451406353, -0.2605537522352791, 0.44753630419264867, 0.3600612625951825, -0.17819344834496842, 0.4458637413098837, 0.00469616804329407, -0.25533111757859317, -0.03275423812551828, -0.04625867602331507, 0.04158320485582782, -0.3510603062902672, -0.019770716150463, 0.02988500404997023, 0.09984678482410408, 0.19218638604985225, 0.14663436062584806, 0.32937201015401557, -0.23818009472294546, 0.006073328574693525, -0.07601007251079675, 0.2349168225504176, -0.2349498586631469, 0.2527588724005158, -0.3180116837042568, -0.29228507622396577, 0.18339347098587602, -0.156381363803201, 0.26767681152547335, 0.026527293192373406, -0.12144070046860342, -0.26478079416662514, 0.30859079621125995, 0.17533532825109857, -0.2698799014953878, 0.17265144624075157, -0.13097170541167663, -0.04328053404992904, 0.3171430911725319, 0.23719656140890394, 0.4670306805068782, -0.055729862568508585, -0.4856066583876617, 0.32814551411232046, 0.366612873032068, 0.1161482611552682, 0.5376624371286097, -0.015786428538504597, 0.01895747380563361, 0.1806189436725355, 0.23042890709524497, 0.17544593487763271, -0.30460353689461567, 0.5885786019038707, -0.3413277836613182, 0.07279297513424525, 0.05175464051470085, -0.37368575446689295, -0.02535678947825919, 0.01946395010309748, 0.39546629902440333, -0.132384297016352, 0.0691975240367331, -0.13833540759480506, 0.2581514500908845, 0.05931172824337587, 0.022340369937224002, -0.42362820973761933, 0.03189578243121376, 0.08147508853459716, -0.005313441435005919, 0.33499662587073764, 0.3756425687287855, 0.31868577900712236, 0.2322022390096572, 0.00467518390075289, 0.22684600957596257, 0.339402493812724, -0.08845486762096809, -0.23700652433392336, -0.16271884764356553, 0.2792113564830607, 0.31063421518512735, 0.6249578532191298, 0.19580544181870277, 0.28887923577551433, 0.2243082849481009, -0.0038944267529617497, 0.003491555290313946, 0.36752081638782896, -0.11640201130900167, -0.10672662022169438, 0.1178892206761501, 0.2449224352810945, 0.17166730728319565, 0.14062195809629943, -0.2101484963586311, -0.11749494158195388, 0.40664576652641615, -0.07745302098259695, 0.6196809120884067, 0.2644269149044879, 0.15707771182462746, -0.10423174035049373, 0.1676432531864233, 0.1839771687178232, 4.576297271278935e-05, 0.2399785777250912, -0.03845791647140015, -0.2995362616111775, 0.15833593168347854, 0.07278257062563787, 0.28011365714316777, -0.09681106267847187, -0.08212784243953895, -0.15263086970076745, -0.11840681350743584, -0.18319799934096762, -0.2756010827853109, -0.05081813081991861, 0.43536299870267503, 0.07391134274444931, 0.08508583924997365, -0.2497133121303071, -0.2738878370627542, -0.3664468870080976, 0.19603173028851725, 0.2140373652241164, 0.017540099014759433, 0.18764311310316467, -0.1693130092820723, 0.15977592828270726, 0.042280031048442565, 0.09829937742561158, 0.47643801675409886, -0.04658889619663805, 0.24552118464663605, 0.008211932597317463, -0.6122171484826566, 0.13717392778895252, 0.21137805279008617, 0.12345675093597334, 0.1414407821896116, 0.19649909617782296, 0.11180149368233791, 0.12388203840521735, 0.47874059845728817, -0.17007148345050407, -0.21879605231697577, 0.13670887783778693, -0.412674668447203, -0.28531497645535375, 0.17874761820042176, -0.4134329013574126, -0.3286679520113927, -0.053589556393011786, 0.06107985162418221, 0.403095496685403, 0.5215949242106659, -0.17176650727475953, -0.1963918684971458, 0.04184170471028766, 0.19148922487541195, -0.30190255778283265, -0.04106920665288706, -0.05007480012280225, 0.02055995528746383, 0.2862040969016755, -0.03244596939238492, -0.2444738574336268, 0.10699946810340215, 0.08160529153174427, -0.1891285699511941, 0.046740328911540244, 0.28773712103960136, 0.25158781863853835, 0.034206163617817795, -0.0063170512774641295, -0.30717155810269436, -0.08739209269129408, 0.16459487127402625, -0.15047509092529024, 0.10814681095058938, 0.05013099133677104, 0.2900109345623625, -0.06347962943054129, 0.12948122624415845, 0.007514364387462362, 0.3565554563528395, 0.39196145864718657, 0.015596823863500094, -0.12287880999430142, -0.2099596088588722, -0.2965202982905469, 0.2974969596863198, -0.1601618935693268, 0.14481783201795018, -0.03584702146593363, 0.15216754605435892, 0.039101029768137695, -0.2908594971779991, -0.4214869544490697, -0.011674415499857437, -0.13551521489810667, -0.1173944002194378, -0.3237137147220675, -0.19121001878468813, -0.21292179710196543, 0.054187109797621515, -0.006013929234435794, 0.2634135892468617, 0.033212062270223004, -0.18536116595851218, -0.2227647664897071, -0.310289017731085, -0.0663629683033973, -0.13738108554007727, 0.42183817597667417, -0.19234943178957273, 0.21311945855292672, -0.0175546515619678, -0.2946578216523851, -0.1454319990108237, 0.287635526102905, -0.02946605155681842, 0.22994338651124252, -0.3465055271657552, -0.12166376222050018, -0.04466462498863918, 0.06863744858122979, -0.09719756443698796, -0.22231708776744907, -0.026695310801561713, -0.2455086689989634, -0.14012478312631765, -0.014518207652858451, 0.1054835677303525, 0.029427869925077677, 0.23622614931418015, -0.16735801139348094, 0.4663078340531646, 0.02791593584189264, 0.3620791316266264, 0.4132448172011591, 0.42166668255132944, -0.16525605636346688, 0.0739224216378883, -0.34901213183332475, -0.1832965722159644, 0.20048492161398912, -0.05579655972649392, -0.07533847885671449, -0.20999257539092342, 0.22643188969854794, 0.32122678228663437, -0.12353889852632534, 0.14678399237678888, 0.0633021206687511, -0.3874563293867428, 0.14655550644382054, -0.3914937085281375, -0.1275923220575418, -0.23039182892870283, 0.21696411270958374, -0.17508818191991232, 0.17448910684587932, 0.08533906053264419, 0.5966027688405858, 0.1545395639491486, 0.34678843732749093, -0.017766634957190313, 0.26618471114274017, 0.28987567256525765, -0.13158502964196583, 0.053407647262971876, -0.011718143150185323, -0.2847379982023833, 0.1822159366931556, -0.3743603608054303, 0.17180579036898477, -0.24172533279952316, -0.1978552635746275, 0.0251050738993588, 0.09715079916721177, 0.10079984904916252, 0.2625132136924678, -0.2609101795918115, -0.436145369994028, -0.21037964275836113, -0.093186108269145, -0.2542864860761089, -0.21737861451079832, 0.04556164315917608, -0.11799275455432216, -0.1616844553158497, 0.219609143901849, -0.011788926357248227, -0.24284990785032476, -0.14010328624794438, 0.1800649015323658, -0.19032602270609547, -0.2036599559104906, -0.2464317570288637, 0.3636899806496507, -0.08096126581736957, 0.32238164174918144, -0.03397860416975913, -0.007805186310682107, 0.04179466539750079, 0.02720914880655318, 0.027518943582599868, 0.378240518697987, -0.17023221080206338, -0.3105662409185497, -0.20502111589147162, -0.055781194556769595, -0.1977753973059477, 0.131574500497289, 0.05851659649526815, -0.1078899985212083, 0.13677614897837637, -0.0386866410550771, -0.23524923302697226, 0.2509525159979792, 0.12618570933654258, 0.01711950277984895, -0.24320413166726726, 0.020012018140097693, 0.035283596805822194, 0.1280693855629941, -0.05601476652924525, 0.16054428740495955, -0.15500822473615772, -0.21044658323991183, 0.0797126867640559, -0.1607479699617629, -0.41168763265721803, -0.05351227934675199, 0.046599624341294825, 0.300029393941891, -0.31185966189594216, -0.2858047865259889, 0.20977388197448818, -0.2414228665833183, -0.00829701207271536, 0.30136874828660065, -0.21442207926948312, -0.2500242009331947, 0.1568959503966887, 0.23639833691952522, 0.29473628670340996, -0.2389820758330397, 0.24817909711303587, -0.03172920757212412, -0.09383960701673186, -0.14105479622712538, 0.17010711477080495, -0.2904335905932792, 0.35855631511318464, 0.11525863138636033, 0.043986943862637094, 0.1569021250545206, 0.1694355614107786, 0.020213325128026878, -0.2857706566631219, 0.3767560778116662, 0.3219641858967813, -0.22418917003893138, 0.3015815850800639, -0.26554037076807846, 0.3408998364913443, 0.24296915283115939, 0.08885134502769812, -0.3683149720301505, -0.34229474374446356, -0.3437401832632145, -0.009414203546605463, -0.6024984171085941, -0.42967575866777485, -0.11119283094052934, -0.2293847289481759, -0.2226314353559262, 0.08342729722362095, -0.27660704221406274, 0.01527296798323473, -0.062175922788987224, -0.02422920317498406, 0.024840615075022658, 0.18058581778621977, -0.5047082130204106, 0.015863085230961246, 0.12651365263576095, 0.24372203015161478, 0.15069119182087987, -0.2714610241670071, 0.40177886887052067, -0.18062129762729648, -0.3187130816981967, 0.22783231382263902, 0.13569069937640757, 0.024827697055685393, 0.15885893987677102, -0.26294494517649386, -0.07168087217134674, -0.045082971671209476, -0.559599680832146, 0.011576713281704874, -0.19515766051580036, -0.16799077053577263, -0.25647519035934, 0.17255560364604847, 0.24547581338186333, -0.1816809690205864, 0.03525037759278988, -0.21793445144302515, -0.1755420696420055, -0.28042713105769435, -0.02316889329572389, 0.0955892996215376, -0.14475171322075006, 0.32724520883406316, -0.21070158939176667, -0.4007455781653003, -0.15627218793100303, 0.26138687887235146, 0.2104485297621466, 0.3406952670460696, -0.039526798784979576, 0.05156715385890265, 0.09242027359769465, -0.05990508198034032, 0.02094722365373196, 0.1480309534150828, 0.1136041062802571, 0.15164103880652596, 0.23349897138693942, -0.1563162272818499, -0.023548884456334115, 0.20678225472948497, 0.06124475822458947, -0.05209348219247914, 0.2130077488286724, 0.05615615085388632, -0.20978227783298106, -0.2885151719280393, 0.46140771685536275, -0.15162616367241608, -0.06447518434894633, 0.36560370738520703, -0.09629126622407921, 0.012350929442836648, -0.14186320034753055, 0.061610027645379255, -0.4305845891831336, 0.10829556848249393, -0.028764142719333155, 0.21819958557573554, 0.3436962540385371, -0.1416511631541254, 0.0651109728934275, 0.05294160520133862, -0.2797718063050224, -0.3093817111936844, 0.14170527384904194, -0.14399935255186241, 0.543327315078591, 0.5828653364254974, -0.02996092178503553, 0.18546097820776591, 0.15731016158615624, -0.02069071887242516, -0.19053866633842606, 0.018073963175686714, -0.27282799693951915, -0.09536756358458762, -0.159511624139071, -0.13692191671517717, 0.024140593548248688, 0.32788435700651347, -0.268210346311482, 0.16478974297821877, -0.3392448718856532, -0.09025441365478332, -0.2898556676774694, 0.18857082677443365, -0.3440931718208593, -0.30270979890672334, 0.10949491904061803, -0.012871194828500954, 0.008697971138695535, -0.039338494313436036, 0.029087018873735736, -0.023441557883631697, 0.06354301860007631, -0.5926985660855691, 0.5025723698444221, 0.015163326572479673, 0.08409737118679979, 0.0410534840505703, -0.09368770089416774, 0.16171278001856296, -0.10720524414568591, -0.14585272525208715, -0.3656981737503846], [0.23228043324049963, 0.017731241637341886, 0.11441417013415468, 0.1946917265349816, -0.10150864285575865, -0.2702488109523094, 0.10756061446526868, -0.5197529125793362, 0.20496506357516261, 0.17161847569296215, -0.07544511219932036, -0.11111633640238133, -0.13278166075017786, -0.019965393392551226, 0.13296233960926662, 0.11252750150707648, 0.12666457380351973, 0.027428903623603545, 0.35657049826655995, 0.3485863094609749, -0.1270545187607534, 0.0381613265273187, 0.031376339433183596, 0.014697700018179527, 0.10268725638956984, -0.06416326882590823, -0.19228669394803877, 0.1547307499103443, 0.5772945669546045, -0.4069459299758387, -0.48931466547039587, 0.09608579052299754, -0.06833752948056732, -0.3360888617485241, 0.13371820504701376, 0.042459973073141276, 0.22968969229470027, 0.34456331743305996, 0.06568358370026646, -0.02267869509282665, -0.0849229536171657, 0.05490152152939942, 0.22509361113326967, 0.08689550591676751, -0.16233330869141285, -0.09689761956663173, -0.048473149501673585, -0.016682237122845795, -0.366524676482749, -0.38578773940834754, 0.0585590226847243, 0.11360463617019871, 0.038544108305008914, 0.4106266375965408, -0.1283748758795294, -0.10722907992282156, 0.10614967964576569, 0.13795497812845328, 0.33396591813301796, 0.14238277147204836, -0.041400735695673006, -0.4216261592965425, 0.15898838892542233, 0.002512172097174074, -0.03246409823100221, 0.18175753059054167, -0.5049911594442946, 0.3567234519504631, 0.2634544176501101, 0.11030473471773904, -0.18735742401325847, -0.13508215440298413, -0.17767697407886002, -0.015971822066636224, 0.09605054848722518, -0.016355959649120254, -0.058176171297538146, 0.10827330973253106, 0.17906661226336693, -0.2659102637080214, -0.0008375887244154115, 0.19152974620313093, 0.2647687895434781, -0.08217529507268569, -0.5313787320286885, -0.14015517439952244, 0.2286499495874191, 0.24731191296486404, -0.2607414828256422, -0.04931658255676155, 0.3696010168412162, -0.12214219801373252, -0.31817952315176234, 0.1453588001050212, 0.10098865728416809, -0.2432406648884268, -0.17234928836791988, 0.13528322492515896, -0.027138952946295786, 0.18389177740587268, -0.21541361150564134, 0.10993214385042129, -0.010499534070354784, 0.11563239772192724, -0.1121585154076995, 0.11328720872567391, -0.12745933298477136, -0.2810189543386731, 0.13487875789498038, 0.05357006259345404, -0.09976980739811887, -0.24645282700294463, -0.026765842069004342, -0.09305351918939679, -0.2506883380967503, -0.27232932261412995, -0.13794263362480422, -0.11427066676379591, 0.17775921239258102, -0.22480450809705613, 0.04559647315147961, -0.16688926413436028, -0.12541031847200157, -0.3526444202044652, -0.23397139234904565, -0.13315539985738123, 0.20382763847159333, 0.18362620334303048, 0.3149098247606043, 0.15493355429600916, -0.20821447313172123, 0.06479932928228353, -0.013019238468686191, 0.21557018079982773, -0.06382151413840023, -0.03793725996846047, 0.2057990313998609, -0.18964519812737013, -0.1217253073020673, -0.10471035947181534, 0.3044687293971947, 0.036102173842053234, -0.23015951178012214, -0.12224566611363392, 0.17546193005018867, 0.39749536738703406, 0.02830581252251453, -0.14661813324864328, -0.0018315867782523795, -0.3583405278562798, -0.16566110121320637, -0.08831664179620495, -0.0078120192157858865, -0.22399470766644575, -0.15933699702679258, -0.07015462144866857, -0.06762427523453017, -0.290119755423277, 0.1491429078933897, 0.8114894083219236, 0.16909955792779743, 0.34864214130169, 0.42624313696378796, 0.2402776450369895, 0.04441817210343473, -0.3304367700270092, -0.05825658182151676, -0.11686988124326946, 0.2197204779096622, 0.18663496592054243, 0.16051429120305363, -0.3276095829213052, -0.0046777817200632146, -0.19339573927329673, -0.40579707072402693, -0.19945237753714942, -0.2894995055357668, -0.3399014919878564, -0.275427028017355, -0.2952112233392671, -0.013431440962317586, -0.26873422499303695, 0.1772437842553358, 0.29206810378550097, -0.06818760907709961, -0.3406684357165797, -0.01984514729275995, -0.19659847264363092, 0.35619471031570366, -0.3016005936688214, -0.009055402802861132, -0.16480020072020346, 0.36141497986718385, -0.3390461839180788, 0.13604939289650447, -0.2375381538978202, -0.2618316916808329, 0.1404589118956282, -0.03878276099140414, -0.3992034110112256, 0.2970669737396151, -0.12868032514778963, -0.2056617570421229, -0.6575364505708956, -0.23068067839249357, -0.8812659423989828, -0.36377526968188534, -0.2717156762099507, 0.036412875951453635, 0.01914271860510958, 0.19222443749866042, 0.06896680572327966, -0.2704283035314688, 0.21782471552680285, -0.11625637282496415, 0.32708763380595934, 0.2525692556410957, 0.07160284873139981, -0.10385031289825636, -0.23464714654331578, -0.053010690922758466, 0.04794032086239318, -0.02428461488173231, 0.09217688987498326, -0.1710139370267595, 0.02166987358369563, 0.2733235268649373, -0.19219619746936936, -0.12079799502294937, -0.1647379428661934, -0.06729720834317857, -0.26130769388923, -0.43745942345124056, 0.014324189877344098, 0.25335160565798925, 0.2150751335167133, -0.19217408076254297, -0.07744432678056455, 0.004507051653063818, -0.2491109096482981, -0.01678990970815629, -0.13523214565164296, -0.45741251381930037, -0.12138091398733464, -0.06153587198907672, -0.11454437877694734, 0.0006100220936739938, -0.33936041114493715, -0.3634554463728586, 0.5706436808706599, -0.23670297530695542, 0.06421762371388466, -0.08485063488080632, -0.21405692654323916, 0.2174161013505876, -0.07862754614805204, -0.5286031515543331, -0.2399486811624906, -0.2439932857297273, -0.41577719285298725, -0.12550069983723053, 0.10952290338881518, 0.24162936387878664, 0.017638532237614794, -0.015752695280421156, 0.1791711407393979, -0.0977058688855976, -0.19943745436592866, -0.33657673933024584, -0.15786405851788593, -0.44192047236759296, -0.021038459099940735, -0.13780706667996181, -0.3987176690224963, 0.08971979198790218, -0.3260806282630491, -0.1536513581330426, 0.43025757439609785, -0.21721208863790287, 0.048198343366470546, -0.1300783295481473, 0.18385939948539204, 0.08684033912551489, -0.33854894259947516, 0.22201313172406079, 0.006680705917406621, -0.47548691380854585, -0.3088377416229689, 0.028248937213788766, -0.8058094423780223, -0.0537535609600091, -0.07481945193114665, -0.21028484576254783, -0.29217851956655166, 0.032843316221270916, -0.4037106051854155, 0.06530334262815023, 0.033691154409729474, 0.05140858056278524, -0.28674682616031116, 0.045852979259019745, -0.4474034787290199, -0.1377911615143436, -0.323142924620339, -0.014394027739869687, 0.31159646604078944, -0.07391334084817502, -0.17257552057522435, -0.4249399930297815, -0.4122155962707452, -0.15368634298299683, -0.07050262064543528, -0.014851674865423572, -0.2896838981963539, 0.054512174982344945, -0.6664585662189572, -0.4355148602761067, 0.1511029710520688, -0.18079450487302512, 0.19494089785370866, 0.24515744816982943, 0.04732862827052832, 0.08592775991842955, 0.22871615037355394, -0.7302569806087761, 0.11590168067204255, 0.23579684930853972, 0.05252240156669512, -0.39332448604189524, -0.5088696962060568, -0.5928981408703609, -0.7137432908827013, -0.07806574579538375, 0.15985255234837, -0.18940887734651785, 1.2308649774995719e-05, -0.022756366547597072, 0.3434137625025693, -0.02795242083183259, -0.013089796503804813, -0.33491860427235215, 0.055385237106222916, 0.27903156656439976, -4.1698910920967365e-05, -0.08355944114254282, 0.10970285883759957, -0.04708211723913301, 0.017110304539479062, -0.07769998606446914, 0.1790284039151553, 0.6501294984785111, 0.38383204237558594, 0.10010551813526164, 0.05548423916621678, -0.19532995598611336, 0.2211242997861483, -0.23902112844334916, -0.04844156005762014, -0.2587934302236833, -0.2643543341183522, -0.14727137866788395, -0.23685236653178499, -0.004547775965969248, -0.18320964362843029, -0.07344301737827647, 0.039140497850870086, -0.2572687373990207, -0.2129347507749824, -0.3191452076240775, -0.01673973128329031, 0.3180418379647036, -0.032161786193018835, 0.29728409358591257, 0.1039290605938005, 0.2426629158592306, 0.16459506619726147, 0.2100668063393211, 0.30745882609946046, 0.3746317513389177, 0.1649988987048516, 0.3081280822017975, -0.021781482010592264, -0.0466353402770611, -0.020370721049748842, -0.23123548106248598, -0.01799760392556151, -0.31165533858056904, 0.2464262614779837, -0.1773323177230276, -0.4298354687102664, -0.03706647297463681, -0.08592134115242053, -0.355648393329382, 0.13649771833695262, -0.14628700664095237, -0.047001750443386635, -0.1728333620846416, -0.11876214110827722, 0.04233110982998466, 0.2913262166073668, 0.42762938414481166, -0.2654641058647686, -0.18870653963985104, 0.10387927948928048, 0.11795809498061047, -0.3269027965967213, -0.13767879452675474, 0.09546336767147025, 0.3174425230409712, -0.06892317155744296, -0.28303680688425403, 0.04715372712586683, -0.03176242087610207, 0.22023493280776582, 0.17330727301250806, -0.27436109617142157, -0.3009829968419132, -0.42268435700594587, 0.1578367006729867, -0.11350389380265913, -0.24835974237601352, 0.009390457519568999, 0.29585895845976834, -0.2447316132672312, 0.06448176810056613, 0.22706067579939443, -0.1068956924851295, 0.24719075789361294, -0.13846545361535947, -0.03808911133021384, -0.08451095004019356, 0.07096157153341814, 0.2941507148540225, -0.0413853044397084, 0.42914768988214025, 0.031057408586145013, 0.008496215444450728, -0.1400671197329883, -0.04486048707723875, -0.1308889372120598, -0.13586122189402933, -0.1161476656412466, 0.43511113837896687, -0.361476177083098, -0.4366120398367374, -0.005487793750848861, -0.41426484272234126, -0.21006456823490222, -0.12350472403823474, 0.050333722045344934, 0.0999356317805867, -0.44945002721473076, -0.11439108559405403, -0.21427901943399227, 0.09594338935089725, 0.00999219663465958, 0.11737356023372869, -0.21056515058128322, 0.001462075841195439, 0.10160446424838872, 0.13555029191262216, 0.06436652075009644, -0.01686266901383034, -0.16601493950452517, -0.10493023900396803, -0.18649200647474184, 0.24301615148895422, -0.3590130482452001, -0.16133779961564368, 0.02750446564994197, 0.1299990946868892, -0.10829155526705161, -0.20376410089588842, -0.31298327814951893, -0.5305648622314882, -0.20904882193202798, -0.35905917013721256, 0.10031282000794989, -0.24308610898234656, 0.31915258789413586, -0.16794191433501363, -0.0700487530696208, 0.14703879386552615, -0.48791059250888147, -0.022727505040838255, -0.27938004426761803, 0.22397607976820433, -0.00316292813456096, -0.07131481448363382, 0.37046433867362716, 0.23642847942418668, -0.34883190460511115, 0.23264844069379986, -0.22895090364938456, -0.20844937570310584, -0.04267771804142306, -0.011120977711427255, 0.21755624222442801, -0.2821672735655057, 0.26723587737386173, -0.06781938767834161, -0.1044748860719525, -0.3453438935431111, 0.15459505965726203, -0.20174149366920102, -0.09569415251597455, -0.010957256496213928, -0.30234379021875163, -0.17785577572004985, -0.05295844171731165, -0.5340094764151042, 0.028135020552736735, 0.14577519235753095, 0.11707128077743546, -0.17809783115510297, 0.012204273917984433, 0.04624807188866096, -0.11045417854457969, 0.19429742639826242, 0.31964119717697254, -0.369178739317862, -0.09459566136602282, 0.25471395339208214, 0.12240023698539962, 0.09337836576996077, 0.13750593583933027, -0.35737321305624004, 0.36494244145346083, 0.18230193039155007, 0.3306682853989246, -0.147284396879582, 0.14609563643969245, 0.05412644348383286, 0.20034365598616755, 0.026603213539541936, 0.031621283860463784, 0.331549315308551, -0.0016348571888807324, 0.08070681664763352, 0.18536217142189435, 0.043926084320797705, 0.021866929566416445, -0.12204837629999357, 0.1351566677169401, -0.38901324319215086, -0.336302349093417, 0.02141969368574202, 0.3404998481865437, 0.34376829502329703, -0.04363589959963179, 0.10388741748498183, -0.23320260338309487, -0.2315081911403292, -0.1119662946250953, 0.028653049040845813, -0.3302223104095303, -0.3911198339977623, 0.1953178361132195, 0.15707483403675282, 0.042175892145054246, 0.1715486860874406, -0.1057308263362953, -0.01956398286006468, 0.31680377192215464, 0.17272135666987534, -0.1482048973237267, -0.1522455189630838, -0.4294443981031867, -0.10713551524436292, 0.47864773254835563, 0.0908283449787825, -0.21705592469699558, -0.014120504382102899, 0.2185543471110382, 0.3268650565006262, -0.0696579052438763, 0.43063601102967486, 0.32502987599852706, 0.16334648328240742, 0.13033393176955338, 0.2858897870906046, 0.6327276961954108, 0.18941227503833513, -0.020079645176734547, -0.34905000335914604, -0.11409688761990741, -0.11084593608679258, -0.016115143995612112, 0.3918077296305412, -0.6811834263383445, -0.2754951973520539, -0.18987180603790002, 0.06840571212297755, -0.15846252183381848, 0.07624563207250469, -0.19852744039216036, 0.09147757533805523, -0.03752427901054219, 0.04394958107663168, 0.31104931501723265, 0.024031861774051203, -0.019207397493098362, 0.08736315253185613, -0.047695820454272286, 0.003399798917889157, -0.10683185154060888, 0.14531699958841052, -0.2982919107800012, -0.1486296737242219, 0.09438117078019713, -0.0013277168937305683, 0.28744364471290734, -0.21988163605183797, 0.2673502942066072, 0.07367874415915658, 0.01328790893006967, 0.1418671268149248, 0.09499757822467106, -0.09545335199237077, 0.2945699282360903, -0.15234670596097627, 0.07407683907587813, 0.24082497662239277, 0.1079309303172204, -0.15060736896104923, -0.1748998929750123, 0.07771624225857315, -0.17113399674818397, -0.19616026276259282, 0.37447786296937086, -0.04753653655900028, 0.5309406444676772, 0.1407012060518636, -0.11016747867594459, -0.3772608572841236, -0.21761300411380505, -0.07300638418607194, -0.23159945382548544, 0.16872067029809434, 0.27918486530078773, -0.5385689959270776, -0.28448208935816055, 0.12956975532987214, -0.017652696593847456, -0.14922147033123434, -0.037228939031867275, 0.3560220747586789, 0.16147879799133727, -0.16715751783390398, -0.07558906923112677, -0.10856786052862397, -0.09028113633108169, 0.05247251969414066, -0.11398087849458394, 0.18521623934860723, 0.0906944327776341, 0.1340162488412403, -0.0587063537881557, -0.13371088969259723, -0.3281109106893699, -0.06387529518882058, 0.19168093052796298, -0.03959372549022984, 0.38805234332826777, 0.2532141176279711, -0.2960016614274018, 0.020346803888101814, -0.07870324696636613, 0.30877981846728325, 0.07175602270510106, 0.14323503584528816, 0.040878131434137335, -0.23424460723519336, 0.024921834509183234, 0.17829890266818574, 0.02107991504175433, 0.25033045578211716, -0.1983744353504861, 0.024528785824024263, 0.19000100556418212, -0.385909498058462, 0.35153634440059783, 0.22620075826064795, -0.10331868371019721, 0.20567788011543625, -0.24819653707075257, -0.3965292418441165, -0.52072197198173, -0.209410735498392, -0.19025898234734498, -0.355935024572455, 0.21313282997937716, 0.27989522791472154, 0.4067313001473407, 0.3726612696098796, -0.08158200794142348, 0.16034910178377057, 0.16282372019774977, 0.003773656744441483, 0.42123663316844817, -0.6122801955064754, 0.1178708673445091, -0.2655135204307864, -0.13189133630352154, -0.08584197308952135, -0.07214012709889585, 0.44333639496414956, 0.19460319883641267, -0.2912196171946772, 0.22363579507519402, 0.3175561176475744, -0.3219191245908962, -0.36228752278655885, -0.2831015403510673, -0.2298712743331684, -0.1458915742511494, -0.28914350265400285, -0.28158933780000567, -0.20007596669549588, 0.2336700686370862, -0.09762191272090982, 0.013723304967677217, 0.10694910420400046, -0.04954385825338238, 0.04735605778912971, -0.026118124264026574, -0.043148590123653, 0.12885408019698635, 0.005022168991001572, 0.259065606630143, -0.17490522369123784, 0.592374573265234, -0.3578333739393677, 0.18565198705817157, -0.2716224029807412, -0.2958312715095103, 0.0932176754470533, 0.34862210099656343, -0.08236398388940273, 0.299896802871839, 0.05625449914649098, 0.030062024159156046, 0.11555042714077278, -0.15657668963041801, 0.40113868209511355, -0.09084590091724994, 0.1408543705103199, 0.1231487496898182, -0.14680193243250622, 0.13109946634845238, 0.0982914088648028, -0.0701484115793107, -0.12779311243685054, -0.10688563197138669, -0.04892470947671107, -0.06126438771634674, -0.041996763250185115, 0.18284171823022446, 0.033026366337461324, 0.16699231083082183, 0.22398186530105738, -0.049530289496276594, -0.008097448700238619, 0.09652700185510225, 0.05881270984069221, -0.0636211268333006, -0.16782315859092625, 0.08128715341577435, 0.0650129164466262, 0.30852579263287977, -0.04284699447882327, 0.08253780532167761, 0.01835747048660213, -0.07413409826930652, -0.2532017728650261, 0.14546925293708923, 0.07955867663985347, -0.2566090482335906, -0.014975640526307277, -0.09466079131824114, 0.16394567302671725, 0.23979958701821522, 0.15822934604991853, -0.026788085292197783], [-0.15646519299107914, -0.07800193719788624, 0.001953910016099385, -0.16304630070404685, -0.185604069892007, -0.1381551715987338, 0.07637661769900188, 0.07043154009222236, 0.15436025025829697, -0.09799268184978828, -0.0988947502486617, 0.026978093092474, -0.09279600870391927, 0.02507428384198065, -0.07281675892170852, 0.032576304975271836, -0.23357620531040768, 0.21785033569438464, 0.05643511059819282, 0.1742696864576762, -0.0076948147785692875, 0.21670377874263094, -0.016515707541135058, 0.21043082495232102, -0.2390609833875889, -0.04180857637051889, 0.06645562496938483, -0.09151841954157995, -0.19504648560502247, 0.006832070681086227, 0.4531094585669602, 0.2682828387228823, 0.18351408145543843, 0.6286719687143304, -0.07911841954940406, -0.6471134287785217, 0.06281785208488942, -0.07136448352882355, 0.1741422678421645, 0.1632779172780954, 0.4017230322726145, -0.2308127071600099, -0.3721901828196774, 0.48040964257500957, -0.17805970992464867, 0.10746218062750967, -0.26337164556247394, 0.14778342509877893, 0.03027215574596054, -0.19926093070925757, 0.27265133306657285, -0.18691103362076797, 0.0351348310346811, -0.09643920480519137, -0.124969747861817, 0.1514148557284191, 0.31511911219517275, 0.184249419523441, -0.137954822679329, -0.02812145174973724, 0.05568089395625525, 0.37294830601610085, 0.15444896737277616, -0.175666809039366, -0.09580861768109955, 0.1734040158009341, -0.22849720266630782, -0.05296614101882795, 0.020173740464367595, -0.060658903376845735, 0.3293796691307491, 0.28437555486749083, -0.2486974156777618, 0.03683527808619489, 0.13393957246960722, 0.35740413296003914, 0.14122967797321315, 0.2500532160916686, 0.3505229258694957, 0.08452717716601375, -0.16011066301837074, 0.26209477582629137, -0.15915111380799438, 0.13924658819333885, 0.12072328518530974, 0.2854676882102561, 0.08777190210037272, -0.31599608655046396, -0.21881643791708552, -0.012108958177135028, -0.4185973866385598, -0.017893087026683234, -0.1454738065759203, 0.04108628812642818, 0.0020942012626718747, -0.1040261677956162, 0.21223947348328986, 0.14107752071616475, 0.07016049090689302, 0.028865764701285275, 0.4699839237037777, -0.001767275830498046, 0.1579164646625179, 0.03610748122846537, -0.5047537531397256, 0.00953931067505716, -0.114718127985803, -0.07910928338602576, -0.07370544678227317, 0.4496028259493663, 0.13798756902363699, 0.18730886684541762, 0.00303126758473136, 0.1419444794437372, 0.2726004770742447, -0.2274238159048293, -0.5694886118496968, 0.38820049429405534, 0.12488534193227076, 0.10751350944611696, 0.2506730482725875, 0.2602989441183848, -0.1562897278270516, 0.13621555045026124, -0.2108968748096084, 0.13467168962457735, 0.4274914211142983, -0.20619609760963753, -0.057147604891563716, -0.08194484401327942, 0.24592222875557848, -0.07959984169776273, -0.07011523306238537, -0.3130266584214369, -0.506912663395135, -0.10473459619169316, -0.15168302952079557, -0.17497844319822642, -0.15553354482389195, -0.11666590105667074, 0.27457819226620833, -0.016616256094603175, 0.14191664447193014, 0.4529268239609726, -0.01060191868878986, 0.01627507028245797, -0.05169537691277658, 0.0029145969629266457, 0.09976305915968223, -0.29404409925690944, -0.38686383021279463, -0.12272036306015933, -0.06670194626557843, -0.19532992396470159, 0.5281548782784155, -0.08755302782388058, 0.311356123980447, -0.033728423238188504, -0.14523680907838557, -0.3516817989104541, -0.20570437304749525, 0.043531728584521735, -0.28804199257341373, -0.18867912194050657, -0.21201388102596336, -0.04825941391043709, 0.26401387200744814, -0.23600632983447672, 0.3170425885324241, -0.05876127715623931, -0.10701043351081536, -0.1954710898223869, -0.15852995243592288, 0.1061673987083652, 0.10067196316784276, -0.045281503058544365, 0.014599102099506935, -0.1768339584829509, -0.14861708353955727, -0.037218651573441223, -0.047061874926608176, 0.2282633412573959, 0.3521782181893417, 0.36050951808855497, 0.32520493711484033, -0.1912281311405277, 0.27111993488524444, -0.20491147128819284, 0.23553389043826778, -0.14040600458648902, -0.2909736305462354, -0.36349515099086277, -0.11736900287957679, -0.23064401373112006, 0.24080808127321796, 0.19385837480971665, -0.015073634194728121, -0.020476252063300854, -0.08374454204850847, -0.052749079204581176, 0.19683061033080387, -0.10096512965469462, -0.13583348727233094, -0.45015174489504334, 0.10418117962400363, -0.014165824949792285, -0.040410197638303315, -0.35815707004003045, 0.01819282424738673, 0.4195711300138675, 0.3108105476109622, 0.3823160415918579, 0.27683032699137566, 0.33320386264491175, -0.1331005691201645, -0.25526171753216825, -0.07300680316836017, -0.011244329139543825, 0.005113401966257615, -0.3111817360930757, -0.020415140941092886, -0.16708273816188327, 0.03453631933260599, 0.09318052777423358, -0.4196988999871871, -0.36614530576349613, -0.13403145101475852, -0.20109992950562414, 0.3271463276821609, 0.32939610048330736, 0.16616020128804254, -0.025675172599476395, -0.22528957321940324, -0.2288154485470705, -0.27159784047340224, -0.12787404056216886, -0.14414624246348448, 0.46333401050019907, -0.2701964681435582, 0.2005542914623788, 0.04307356610339624, -0.015966291338943235, 0.13946884271559506, 0.15331686428007818, -0.006579251514102213, 0.15089859583592136, 0.154599146851765, -0.326098581042017, 0.08629593259142132, -0.005459444710063333, -0.061596512632570856, 0.3500818268825374, -0.024530174430119008, 0.0030895137805190724, 0.19865700718538787, 0.02358443878870881, 0.30519797103568136, 0.09841716689221137, 0.16083661239350486, -0.19532899525936048, 0.01062018344230537, -0.27522759642670463, -0.21918663928781032, -0.013184199749020829, -0.005682095156834478, 0.681809957156115, 0.5173961265138125, 0.40282799264271774, 0.404587671793472, 0.15603424590989204, 0.17038667983904726, 0.06120927933498223, 0.14617724737324134, 0.10245279876798634, 0.273919905063757, -0.5857475110424731, -0.8479198156784425, -0.43312481473277575, 0.021842389970658144, 0.07214397453552505, -0.4033420330465411, 0.2942541137560612, -0.0793038505890553, 0.0735650270903875, 0.36341992323595895, -0.2681657646327044, 0.08975161953391776, -0.19440061351839283, -0.4978219890055251, -0.07980211352406753, -0.39727189631187976, -0.0588579973187628, 0.1810960141891126, 0.06908023945387452, 0.7144940609175933, 0.5139069958088003, -0.030488507427613592, -0.12269872875460906, -0.1525032984595501, -0.058295839454427435, -0.08325774412701002, 0.24424192203061945, -0.2221394088538911, 0.18926073261035706, -0.17823646568300155, -0.17491949967110537, 0.1368652966736204, -0.4255397143149067, 0.11367199263166818, -0.12974666091351725, -0.1869336272920614, -0.008907449896943578, 0.10324755248083455, -0.2889476689406618, -0.3381971525254552, 0.03072185500906522, 0.12404533294195694, -0.06726748938706342, -0.5470082589549441, -0.6830281477140976, -0.19885107848421138, 0.4014452469858811, 0.41717192834700123, -0.16546823254674278, -0.41834882762849573, -0.1746656791218624, 0.4119474127871755, 0.27929166292213686, 0.23697232374951485, 0.12761493237689317, 0.2519933692239774, -0.22994498675903013, 0.1745437124154276, 0.033764522931928866, -0.09074610121182408, -0.11335790451514252, 0.09327800764811114, -0.3048074190989116, -0.31131691874059836, 0.04399019936502803, -0.00201083138800402, -0.47657193518693985, -0.25082491963803943, -0.1514528773062077, 0.13870889757405372, -0.08902353121562503, -0.7380344614723491, -0.3348523302689126, 0.4516997889764235, 0.38411872638888417, 0.5058865731973646, 0.19189098939936153, -0.054722350837659965, 0.13964787647648588, -0.2020735235453703, 0.4584571434969326, -0.12235195986799163, 0.1682894010848946, 0.2687733017387341, 0.2872555384951365, 0.635514397303971, 0.4217080228542435, 0.37113737627149046, -0.6700403436326199, -0.031922491315307805, -0.16378692761274938, 0.0647904526202325, 0.31042220204111703, 0.0340177405079329, -0.03570337255572306, -0.8294993750740032, -0.3898938074285065, -0.42957823062630895, -0.23598737819349871, 0.06459072838050732, -0.34517091396008326, 0.6136109633688863, 0.47249161898149605, -0.017714753342503248, 0.10109154778762755, -0.049162851216834134, 0.13977299509505584, -0.04909141234031085, 0.0033569615932732715, 0.012916125439379353, -0.2884211477073203, -0.35851464961990387, 0.2828511622127794, -0.29526466538900253, -0.02342468948040765, 0.2390038813221434, 0.195010556816184, -0.23076424762598152, -0.10401351364684827, -0.2220712224018848, -0.05769328492120583, -0.5076291727524883, -0.4410490637494605, -0.24800747010506308, 0.34023450385078374, -0.7847766975860396, -0.20397106953568392, -0.41918127297979113, -0.09381150791484409, 0.2926665976608188, 0.374690383284397, 0.4204869506445306, 0.18449557097389754, 0.036305058511887776, 0.009698022920510425, 0.22842167977664152, 0.25438798873068535, 0.10667639216136089, -0.31934908646652066, 0.2838089325507401, -0.1473820455187053, 0.043778911972337305, -0.212496983516017, 0.06341675787497426, -0.22478389135925442, -0.02508143538371869, 0.06696540077294275, -0.1584728351988027, -0.23728259173285896, 0.13102629751037256, 0.29881463268088093, -0.10593406485499883, -0.11609256979417555, -0.4721075705583929, -0.21518698399776154, -0.08933620966803406, -0.08196212889261217, 0.22253354672188394, 0.4191876200616743, 0.08610003099334503, 0.19637857890801078, 0.09499369359728721, 0.07696496972713802, -0.2976518291953019, -0.13682515850913302, -0.6118039158654073, -0.06468601563361384, -0.33483669776716063, -0.49509625329736195, 0.09394081558285068, 0.4126976079632468, 0.13045086124877295, 0.18557605834811347, -0.10684144272586754, 0.25695065231774356, -0.014179432232532737, -0.1460144880450954, 0.3111055076550055, -0.08074844940715713, 0.0185602002276791, 0.16876977960827558, -0.3034960154774258, 0.06904457732864736, 0.16139124951339054, 0.31857504142439, 0.15714230917784952, 0.4515623673466172, 0.2587562544099442, 0.07809159691515251, 0.17579693071443847, 0.1470826378517859, 0.24227921646620343, -0.06852155204878936, 0.10678312907887369, -0.12272961504750206, 0.4988368079020907, 0.13850066561226523, 0.21968383117700163, -0.15744285422536275, 0.5380764587787115, -0.4859351856973167, 0.46818893887429286, 0.49460858720704015, 0.20370237490853266, -0.269480024307789, -0.36959011209109777, 0.05760042600270606, -0.32694073621711295, -0.198973317254231, 0.06805499610285175, 0.03155874707047994, 0.004897265527192317, -0.06490812267321866, 0.07128852479270047, 0.12238326953037147, 0.3719097272876093, 0.21368908648322119, -0.20806957500989853, -0.1515570059735455, -0.33867249490041046, -0.022872466984236468, -0.31168739963871733, -0.15953455107841918, -0.1053365276728289, -0.10963863603506105, 0.14601150740253216, -0.3561978453374179, 0.060236365734440106, -0.024426958901786897, -0.23785563413639205, 0.3854041759493788, 0.16383776174222675, 0.514513448877644, 0.3812601400402215, 0.3843265770297146, -0.04263638442413591, 0.01857568160077053, -0.20146585186652996, -0.3558125046441997, 0.27131466155246164, 0.16472397061054034, 0.043499473393068366, 0.1523103788647379, 0.037790817261622985, 0.35791555696274113, 0.20486403714737272, -0.0030063014352785834, -0.17009889409229575, 0.2580432554923272, -0.2259086328938485, -0.3511545630461368, 0.3406118844035553, 0.38077640640064897, 0.08363276321519927, -0.14435921654263123, 0.39647183814874337, 0.022807000438484337, -0.19131250399591943, -0.00014720088904735836, 0.26507776795150495, -0.22384755295703077, -0.2935998991863458, 0.08269408127777134, 0.34624991919501147, -0.2054718521714395, 0.21845738032509357, 0.07778231722926557, 0.3482014671082688, -0.3716304458198092, 0.3540206524081781, -0.1271055506095949, -0.22908009732228504, -0.3153789547435164, 0.28017696253718655, -0.005039209575570458, 0.027751744463413917, 0.14094586254835964, 0.09150285195259845, -0.1372727811286165, 0.35397862977480815, 0.2674772659708772, 0.7024802244613242, -0.15436154879781744, -0.020783220968290817, 0.23153771822405578, 0.09045773050735575, 0.16753309656369297, 0.2650503510651024, 0.2323816992386845, -0.0499957849074506, 0.433589520538823, -0.08292838890347412, 0.34185236219034176, 0.06426539889594451, -0.01857414454024211, -0.18831249427968136, 0.19863192985200928, -0.20278385794677384, 0.01031406651314599, -0.1312299413232573, -0.11847435725944139, -0.03605372473215806, -0.013851070520929262, 0.03936288270597533, 0.08941470440596834, 0.05419572673799603, -0.02972658715527384, -0.2949978785708886, 0.09862597027875983, -0.04731416284437691, -0.1954664589461888, -0.013930997960796934, 0.014157364320573507, -0.3189395181154708, 0.0818733192441735, -0.0335665088873424, 0.07069673235030062, 0.13807997841204503, -0.053523641976761974, 0.3646792303363033, -0.018999067324978174, -0.11633325724372443, 0.329934820892713, 0.38248858640470934, -0.2781823422195046, 0.08649089393617615, -0.16108596927955565, 0.07099146355448684, 7.641341341207115e-05, -0.11270712464904135, -0.026250337075020683, -0.03809655346700664, 0.13745914083944172, 0.10113685512531893, -0.18154955182214985, -0.13686213473649778, 0.08537208766578189, 0.19508820719709968, -0.02340253368985774, 0.26689232558439213, -0.08817082684072972, -0.27123201600466373, 0.23990609741396618, -0.20160342778012413, 0.017737025039111138, 0.20363421480763155, 0.0195281917737572, 0.18996176994711514, 0.007618512823734919, -0.023742557139853352, 0.13820769852523268, -0.05358294482220739, -0.07453471150591776, 0.26735578957552186, -0.24355987865005121, -0.21630662214653834, -0.2934270084719846, -0.1697168184960694, -0.06498733801567796, -0.12484553476174584, 0.210119146136303, 0.2162204336966727, -0.2464772773567853, 0.5034031142334553, -0.12511235337240825, 0.18144477414814297, -0.15184913224027097, 0.044245331408105264, 0.08254764672089374, 0.18373154915712164, 0.40276077314411945, 0.3761083093673321, 0.16587758904569067, 0.1707886574435577, 0.10190969041822573, -0.05317434162958536, -0.23014816464471746, -0.06941365263480936, 0.1618877057463772, 0.2818610731840109, -0.08824172328150623, -0.42388909349760995, -0.15885600835533178, 0.0438940226652529, -0.10391241551172317, -0.02537204883648589, -0.1300079157588567, 0.20280931788489223, 0.11216928367820475, 0.09680847089576165, 0.220471636604663, 0.5293392554419497, 0.17233860965772838, -0.0025194387106027612, 0.06948559999882505, -0.12900521593133157, -0.23510309321407838, 0.1631708855677328, -0.018426714375287593, -0.10859530573072937, 0.03990013966109263, 0.18744159002883365, 0.41114200361919717, -0.22489882912976916, -0.13643467810112916, 0.17789718261416432, 0.25995420782345113, 0.006680944713821877, -0.08780055830721606, -0.18618862711988943, -0.20931432868866603, -0.009259496464438818, 0.009052952802254538, -0.2878088556564154, -0.26047264895514777, 0.1878671638745586, -0.000954043599188272, -0.23475970412947236, 0.15255949577804026, 0.1350489756658162, 0.011406344598799455, 0.0981080146020242, 0.0961512814833922, -0.645830200733072, 0.19632229088200046, -0.021064337129123308, -0.314035109951959, 0.1635112440365683, 0.0579442939804998, -0.32276313815566865, -0.04499942773583768, -0.2908632470341474, 0.148149652924912, 0.04637417290713341, 0.20075055163642666, 0.10689272387742968, 0.26848438249430673, -0.4953354763372795, 0.038400418990449985, -0.05910766923434377, -0.25935090629669333, 0.3670001332360148, 0.21411442239395873, 0.11481734044666912, 0.20998216347034623, -0.10701954771791604, 0.04379138933345155, -0.014599854583611831, -0.6377904850094906, 0.06978024318132266, -0.46964674892311953, -0.2934970012355461, 0.005856401004059019, 0.24171335476367445, 0.20010696174535766, 0.1142777704956292, -0.2229747095618688, 0.33535048013574037, -0.1670852600739142, 0.02844522951959104, 0.1860061130114697, -0.285369594434984, 0.22672555205733444, -0.15195538685965135, 0.25345587415922555, -0.04382582616047918, 0.3935719130118358, 0.26562059274957345, -0.03401057590383519, 0.3100698592246735, -0.03631458280100913, 0.11875428691869021, 0.23732853504836623, 0.09931493763831806, -0.2907697162112406, 0.25145248335675624, -0.5554487297185803, -0.14454263803571174, 0.19198191257605984, 0.10048216662146475, -0.19793710134944922, 0.23567798957534214, 0.156741668590989, -0.17274578244664665, 0.034662050168838276, 0.1074121023136776, 0.02250675018978118, 0.3540833427565622, -0.13489334601348701, 